tree
version=v3
num_class=1
num_tree_per_iteration=1
label_index=0
max_feature_idx=251
objective=regression
feature_names=Column_0 Column_1 Column_2 Column_3 Column_4 Column_5 Column_6 Column_7 Column_8 Column_9 Column_10 Column_11 Column_12 Column_13 Column_14 Column_15 Column_16 Column_17 Column_18 Column_19 Column_20 Column_21 Column_22 Column_23 Column_24 Column_25 Column_26 Column_27 Column_28 Column_29 Column_30 Column_31 Column_32 Column_33 Column_34 Column_35 Column_36 Column_37 Column_38 Column_39 Column_40 Column_41 Column_42 Column_43 Column_44 Column_45 Column_46 Column_47 Column_48 Column_49 Column_50 Column_51 Column_52 Column_53 Column_54 Column_55 Column_56 Column_57 Column_58 Column_59 Column_60 Column_61 Column_62 Column_63 Column_64 Column_65 Column_66 Column_67 Column_68 Column_69 Column_70 Column_71 Column_72 Column_73 Column_74 Column_75 Column_76 Column_77 Column_78 Column_79 Column_80 Column_81 Column_82 Column_83 Column_84 Column_85 Column_86 Column_87 Column_88 Column_89 Column_90 Column_91 Column_92 Column_93 Column_94 Column_95 Column_96 Column_97 Column_98 Column_99 Column_100 Column_101 Column_102 Column_103 Column_104 Column_105 Column_106 Column_107 Column_108 Column_109 Column_110 Column_111 Column_112 Column_113 Column_114 Column_115 Column_116 Column_117 Column_118 Column_119 Column_120 Column_121 Column_122 Column_123 Column_124 Column_125 Column_126 Column_127 Column_128 Column_129 Column_130 Column_131 Column_132 Column_133 Column_134 Column_135 Column_136 Column_137 Column_138 Column_139 Column_140 Column_141 Column_142 Column_143 Column_144 Column_145 Column_146 Column_147 Column_148 Column_149 Column_150 Column_151 Column_152 Column_153 Column_154 Column_155 Column_156 Column_157 Column_158 Column_159 Column_160 Column_161 Column_162 Column_163 Column_164 Column_165 Column_166 Column_167 Column_168 Column_169 Column_170 Column_171 Column_172 Column_173 Column_174 Column_175 Column_176 Column_177 Column_178 Column_179 Column_180 Column_181 Column_182 Column_183 Column_184 Column_185 Column_186 Column_187 Column_188 Column_189 Column_190 Column_191 Column_192 Column_193 Column_194 Column_195 Column_196 Column_197 Column_198 Column_199 Column_200 Column_201 Column_202 Column_203 Column_204 Column_205 Column_206 Column_207 Column_208 Column_209 Column_210 Column_211 Column_212 Column_213 Column_214 Column_215 Column_216 Column_217 Column_218 Column_219 Column_220 Column_221 Column_222 Column_223 Column_224 Column_225 Column_226 Column_227 Column_228 Column_229 Column_230 Column_231 Column_232 Column_233 Column_234 Column_235 Column_236 Column_237 Column_238 Column_239 Column_240 Column_241 Column_242 Column_243 Column_244 Column_245 Column_246 Column_247 Column_248 Column_249 Column_250 Column_251
feature_infos=[44.811244963599997:44.885275470100005] [-0.63688293559999998:-0.5382718796] [1:16] [0:35] [0:10] [0:9] [0:2] [0:12] [0:2] none [0:1] [0:1] [0:1] [0:1] [0:1] [0:1] [0:1] [0:1] [0:1] [0:1] [0:1] [0:1] [0:1] [0:1] [0:1] [0:1] [0:1] [0:1] [0:1] [0:1] none [0:1] none none [0:1] [0:1] [0:1] [0:1] [0:1] [0:1] [0:1] [0:1] [0:1] [0:1] [0:1] [0:69] [0:75] [0:100] [0:200] [0:4501] [0:2] [1:27] none [0:1] [0:1] none none [0:1] [0:0.86208148079356128] [0:0.8059863297293195] none none [0:1] [0:0.87033661862137812] [0:0.9069176316659795] none [0:1] none [0:0.82182920936831461] [0:1] none [0:0.71451102293453994] [0:1] none [0:1] [0:1] [0:1] [0:1] none none [0:1] [0:0.81104504875886763] [0:1] [0:1] none none [0:1] [0:1] none [0:1] [0:1] none none none [0:0.8410393245379062] none [0:0.83082898220336443] [0:0.86534034676986282] [0:0.88547816507570842] [0:0.87242729079929393] [0:1] [0:1] none [0:0.8927620725511648] none [0:1] [0:1] none [0:1] [0:1] [0:1] [0:1] [0:0.71951089540306012] none [0:1] none none none none none [0:1] [0:0.85871130432291998] none [0:0.89326055591025599] [0:0.86243221428528605] none none [0:0.88576773730871083] none none none [0:1] none none none [0:0.90277652773913619] [0:1] none [0:0.89652185321534628] [0:1] [0:1] [0:1] none [0:1] none none [0:0.83023714367617485] none [0:0.83546555889718321] [0:0.82712781326020979] [0:0.89496781346015863] [0:0.79746949829517066] [0:0.68734948998092493] [0:0.68595991517961541] [0:0.5263736883868475] [0:0.52097784980030837] [0:0.59437352857018633] [0:0.58840241831664464] [0:0.57145784641173147] [0:0.86109542029381603] [0:0.74738480239054861] [0:0.4824508871133445] [0:1] [0:1] [0:0.43786176557733753] [0:0.60645277635766814] [0:0.75054561313359103] none [0:0.46995924818353885] [0:1] [0:0.88982847128773757] [0:0.63218467037623949] [0:1] [0:0.65221558231427579] [0:0.54919682211191079] [0:0.60418438447494427] [0:0.4798176436891573] [0:0.48357260043650491] [0:0.66904168560627864] [0:0.81899516136597705] [0:0.50955480019995358] [0:0.7031154131294195] [0:0.70545499142118084] [0:0.81012198099224175] [0:0.51351572148281466] [0:0.78940982673145788] [0:0.59725114674501745] [0:0.38805719732010996] [0:0.53820490246912156] [0:1] [0:0.86641981185195382] [0:0.43487816520579176] [0:0.84435624829082823] [0:0.71074381043436052] [0:0.90218954388573003] [0:0.52081503421574649] [0:0.46302785608930502] [0:0.70379686250347318] [0:0.75401585285360329] [0:0.86048294474526665] [0:0.79641793544427431] none [0:1] [0:0.68542059562989921] [0:0.53259407611383236] [0:0.47194734440933978] none [0:1] [0:0.71162557192101294] [0:0.80946224199492056] [0:0.82776366021983827] [0:0.64906385609355344] [0:0.53887675543115732] [0:0.57524508700259114] [0:0.43574454982257643] [0:0.90624974821978999] none [0:1] [0:0.72289746756393192] [0:0.59738452156500954] [0:0.85789460088873437] [0:0.63311152136472992] [0:0.71803635587033676] [0:0.87159110441149246] [0:1] [0:0.57129633669272673] [0:0.83205272043105838] [0:0.5681206722496126] [0:0.7018158233390569] none [0:0.86118958400278633] [0:1] [0:0.71538735350567728] [0:0.6460106362227972] [0:0.45763637414087288] [0:1] [0:0.80800994113466429] none [0:0.44745417525883535] [0:0.6139329578509265] [0:0.6608842083075932] [0:0.52234176561774692] [0:0.83024706190926256] [0:0.6118700010134992] [0:0.71987499406354039] [0:0.60890660014210907] [0:0.57104110422014698] [0:0.67226288223449637] [0:0.55826719722748797] [0:1] [0:0.6186438050203662] [0:0.66406666322060093]
tree_sizes=1452 1431 1427 1420 1422 1436 1437 1425 1434 1418 1430 1440 1427 1459 1432 1438 1431 1433 1427 1445 1439 1449 1446 1452 1436 1439 1440 1436 1440 1449 1450 1456 1440 1450 1448 1464 1454 1452 1455 1453 1466 1459 1456 1471 1472 1454 1473 1459 1465 1461 1469 1472 1458 1450 1472 1475 1466 1484 1457 1462 1475 1477 1472 1466 1470 1469 1479 1474 1461 1473 1473 1465 1462 1480 1468 1483 1477 1476 1484 1468 1466 1458 1466 1466 1456 1465 1468 1454 1469 1478 1450 1464 1493 1469 1488 1467 1474 1487 1494 1474 1460 1477 1471 1484 1472 1469 1486 1474 1489 1469 1489 1462 1477 1475 1487 1473 1486 1482 1481 1482 1477 1472 1477 1494 1466 1485 1480 1473 1479 1466 1483 1491 1482 1483 1469 1476 1479 1487 1470 1482 1469 1473 1477 1488 1486 1490 1471 1485 1457 1463 1481 1488 1494 1484 1510 1469 1484 1486 1483 1495 1473 1492 1504 1490 1480 1468 1491 1471 1484 1473 1459 1483 1493 1476 1466 1480 1472 1485 1486 1468 1484 1492

Tree=0
num_leaves=15
num_cat=0
split_feature=4 6 3 136 4 10 0 48 48 7 154 4 1 12
split_gain=1025.27 220.084 166.568 59.0692 58.3072 32.5111 32.3796 18.4056 17.6852 15.2681 13.4494 11.3351 9.44267 8.97468
threshold=1.5000000000000002 1.5000000000000002 1.5000000000000002 1.0000000180025095e-35 3.5000000000000004 1.0000000180025095e-35 44.832776447950003 23.500000000000004 35.500000000000007 1.0000000180025095e-35 1.0000000180025095e-35 1.0000000180025095e-35 -0.58194530859999993 1.0000000180025095e-35
decision_type=2 2 2 2 2 2 2 2 2 2 2 2 2 2
left_child=1 5 8 6 -4 9 -3 10 13 -1 11 -8 -11 -2
right_child=2 3 4 -5 -6 -7 7 -9 -10 12 -12 -13 -14 -15
leaf_value=-0.042843328186427561 0.012712732033859801 -0.017120381872681101 0.062033116266918903 -0.028286302458996545 0.10913033473577359 -0.045760321799310597 -0.023522441484645537 0.014611308481397722 0.048848181003760413 0.0054574091286024584 0.017094771953519734 -0.0019117379557597911 -0.023187879245559626 0.029619891891733724
leaf_weight=54 104 289 224 264 93 560 67 221 100 51 85 643 66 320
leaf_count=54 104 289 224 264 93 560 67 221 100 51 85 643 66 320
internal_value=-4.81302e-09 -0.0172739 0.0472412 -0.00671668 0.0758503 -0.0399335 -0.00235317 0.00184735 0.0299338 -0.0208515 -0.00170087 -0.00395106 -0.0107015 0.0254729
internal_weight=0 2300 841 1569 317 731 1305 1016 524 171 795 710 117 424
internal_count=3141 2300 841 1569 317 731 1305 1016 524 171 795 710 117 424
shrinkage=1


Tree=1
num_leaves=15
num_cat=0
split_feature=4 6 3 2 136 49 10 49 49 2 0 7 2 47
split_gain=925.306 198.626 150.328 64.7914 53.31 30.0908 29.3413 24.3324 22.3501 19.0548 16.3253 13.7795 12.2453 13.1472
threshold=1.5000000000000002 1.5000000000000002 1.5000000000000002 7.5000000000000009 1.0000000180025095e-35 324.50000000000006 1.0000000180025095e-35 490.00000000000006 875.00000000000011 2.5000000000000004 44.833529034300007 1.0000000180025095e-35 1.5000000000000002 1.0000000180025095e-35
decision_type=2 2 2 2 2 2 2 2 2 2 2 2 2 2
left_child=1 6 7 8 5 10 11 -2 -4 12 -3 -1 -8 -14
right_child=2 4 3 -5 -6 -7 9 -9 -10 -11 -12 -13 13 -15
leaf_value=-0.040701156491586184 0.020209735571730354 -0.017790058325578013 0.051223251881563792 0.11451956697872707 -0.026871982651099455 0.0092260510214936722 -0.066890160423336606 0.042547265996847668 0.085728026760949039 -0.018239276406044762 -0.002989626397006936 -0.010166393089880292 -0.037868122794207627 -0.056803382274211583
leaf_weight=54 331 262 184 70 264 398 66 193 63 66 645 117 295 133
leaf_count=54 331 262 184 70 264 398 66 193 63 66 645 117 295 133
internal_value=0 -0.0164102 0.0448791 0.0720578 -0.00638084 -0.00223551 -0.0379368 0.0284371 0.0600241 -0.0434723 -0.00726494 -0.0198089 -0.0468435 -0.0437522
internal_weight=0 2300 841 317 1569 1305 731 524 247 560 907 171 494 428
internal_count=3141 2300 841 317 1569 1305 731 524 247 560 907 171 494 428
shrinkage=0.05


Tree=2
num_leaves=15
num_cat=0
split_feature=4 6 4 49 136 0 10 49 48 4 2 48 7 2
split_gain=835.088 179.26 128.232 63.3135 48.1123 27.1876 26.4805 20.9255 19.7931 17.5319 17.1969 13.4473 12.436 11.0514
threshold=1.5000000000000002 1.5000000000000002 3.5000000000000004 875.00000000000011 1.0000000180025095e-35 44.832776447950003 1.0000000180025095e-35 490.00000000000006 35.500000000000007 2.5000000000000004 2.5000000000000004 28.500000000000004 1.0000000180025095e-35 1.5000000000000002
decision_type=2 2 2 2 2 2 2 2 2 2 2 2 2 2
left_child=1 6 3 8 5 -3 12 11 9 -2 13 -7 -1 -8
right_child=2 4 -4 -5 -6 7 10 -9 -10 -11 -12 -13 -14 -15
leaf_value=-0.038666098920145525 0.020331031419164328 -0.015655299176777809 0.096394192054867753 0.070371868786284583 -0.025528384092180979 -0.0047955234501112706 -0.063545651688720242 0.014916238722272003 0.045790351223903937 0.045430884581236619 -0.017327311615967615 0.014204800247939098 -0.0096580729565113529 -0.041564599567780573
leaf_weight=54 405 289 98 111 264 676 66 232 143 84 66 108 117 428
leaf_count=54 405 289 98 111 264 676 66 232 143 84 66 108 117 428
internal_value=0 -0.0155896 0.0426352 0.0355445 -0.0060618 -0.00212373 -0.03604 0.00172531 0.0294277 0.0246427 -0.0412987 -0.00217813 -0.0188185 -0.0445013
internal_weight=0 2300 841 743 1569 1305 731 1016 632 489 560 784 171 494
internal_count=3141 2300 841 743 1569 1305 731 1016 632 489 560 784 171 494
shrinkage=0.05


Tree=3
num_leaves=15
num_cat=0
split_feature=4 6 3 4 4 0 49 49 49 49 0 0 0 17
split_gain=753.667 161.782 126.561 44.3445 43.2932 23.2865 21.0243 20.5211 19.5521 13.3642 12.4595 17.8082 12.3623 9.64461
threshold=1.5000000000000002 1.5000000000000002 1.5000000000000002 1.0000000180025095e-35 3.5000000000000004 44.834323385250009 775.00000000000011 490.00000000000006 675.00000000000011 324.50000000000006 44.837881652250012 44.847495208800005 44.832443747700005 1.0000000180025095e-35
decision_type=2 2 2 2 2 2 2 2 2 2 2 2 2 2
left_child=1 9 7 12 6 -5 -4 -2 13 10 -1 -12 -3 -7
right_child=2 3 4 5 -6 8 -8 -9 -10 -11 11 -13 -14 -15
leaf_value=-0.043403127698447952 0.017861379274755177 -0.038795857753138992 0.043847145395120607 -0.011948990633896969 0.09411820752285821 -0.0014259170639749938 0.077755365136545157 0.038375050686794421 0.030464675985887403 -0.0092879757583141324 -0.016572719949724462 -0.038956334520507299 -0.016379176439801441 0.013020620384652702
leaf_weight=313 331 80 160 361 93 661 64 193 61 50 150 218 266 140
leaf_count=313 331 80 160 361 93 661 64 193 61 50 150 218 266 140
internal_value=0 -0.0148102 0.0405034 -0.00575871 0.0654413 -0.00128772 0.0535352 0.025417 0.00317715 -0.034238 -0.0360699 -0.0298326 -0.0215622 0.00109907
internal_weight=0 2300 841 1569 317 1223 224 524 862 731 681 368 346 801
internal_count=3141 2300 841 1569 317 1223 224 524 862 731 681 368 346 801
shrinkage=0.05


Tree=4
num_leaves=15
num_cat=0
split_feature=4 6 3 2 4 2 49 49 2 47 49 0 0 49
split_gain=680.185 146.008 114.222 51.1912 40.0209 22.8661 21.2584 19.3837 17.4596 17.4282 16.7618 12.3289 11.1569 9.73351
threshold=1.5000000000000002 1.5000000000000002 1.5000000000000002 7.5000000000000009 1.0000000180025095e-35 1.5000000000000002 324.50000000000006 999.50000000000011 2.5000000000000004 1.0000000180025095e-35 875.00000000000011 44.833529034300007 44.832443747700005 226.00000000000003
decision_type=2 2 2 2 2 2 2 2 2 2 2 2 2 2
left_child=1 5 7 10 12 -1 11 13 9 -7 -4 -6 -3 -2
right_child=2 4 3 -5 6 8 -8 -9 -10 -11 -12 -13 -14 -15
leaf_value=-0.058298257317442405 0.012982749863978075 -0.036856065232714175 0.043851235251697845 0.099912286448026355 -0.014725081469675215 -0.027021595714453985 0.0087664249621713271 0.052517176033170132 -0.0089078498606601463 -0.046233513998422064 0.073732511072404805 -0.0016204004196113586 -0.015560217639536396 0.027437054988808551
leaf_weight=77 213 80 184 70 257 397 371 54 89 168 63 595 266 257
leaf_count=77 213 80 184 70 257 397 371 54 89 168 63 595 266 257
internal_value=0 -0.0140697 0.0384783 0.0621692 -0.00547077 -0.0325261 -0.00122334 0.0241461 -0.0294917 -0.0327342 0.0514728 -0.00557334 -0.0204841 0.0208865
internal_weight=0 2300 841 317 1569 731 1223 524 654 565 247 852 346 470
internal_count=3141 2300 841 317 1569 731 1223 524 654 565 247 852 346 470
shrinkage=0.05


Tree=5
num_leaves=15
num_cat=0
split_feature=4 6 3 136 4 10 0 17 7 4 154 15 0 0
split_gain=613.867 131.772 103.085 37.5035 36.2371 23.4667 20.8059 15.3813 11.107 10.9394 9.43385 8.85739 7.77916 7.62412
threshold=1.5000000000000002 1.5000000000000002 1.5000000000000002 1.0000000180025095e-35 3.5000000000000004 1.0000000180025095e-35 44.832776447950003 1.0000000180025095e-35 1.0000000180025095e-35 2.5000000000000004 1.0000000180025095e-35 1.0000000180025095e-35 44.832356719700009 44.835134806550009
decision_type=2 2 2 2 2 2 2 2 2 2 2 2 2 2
left_child=1 5 9 6 13 8 -3 11 -1 10 -2 -8 -7 -4
right_child=2 3 4 -5 -6 12 7 -9 -10 -11 -12 -13 -14 -15
leaf_value=-0.03344502255872444 0.017015013052165726 -0.01355774112651608 0.031998324306173762 -0.022384143026349855 0.085296866525545412 -0.044554851946039975 -0.002624459445064209 0.014860485646763087 -0.0060307587982497664 0.039242671843791425 0.039515048989428668 0.017630978718656917 -0.031860562438032501 0.053430399812824103
leaf_weight=54 385 289 55 264 93 176 777 181 117 86 53 58 384 169
leaf_count=54 385 289 55 264 93 176 777 181 117 86 53 58 384 169
internal_value=0 -0.0133662 0.0365543 -0.00519723 0.0590607 -0.0308998 -0.00172034 0.00164679 -0.0146879 0.0229388 0.0197376 -0.00121749 -0.0358502 0.0481681
internal_weight=0 2300 841 1569 317 731 1305 1016 171 524 438 835 560 224
internal_count=3141 2300 841 1569 317 731 1305 1016 171 524 438 835 560 224
shrinkage=0.05


Tree=6
num_leaves=15
num_cat=0
split_feature=4 6 3 136 4 10 49 49 49 12 7 49 0 49
split_gain=554.015 118.925 93.0343 33.8469 32.704 21.1787 21.0798 17.4401 17.0748 14.1159 10.0241 8.92162 9.63663 8.70556
threshold=1.5000000000000002 1.5000000000000002 1.5000000000000002 1.0000000180025095e-35 3.5000000000000004 1.0000000180025095e-35 324.50000000000006 775.00000000000011 999.50000000000011 1.0000000180025095e-35 1.0000000180025095e-35 135.00000000000003 44.836732693600005 226.00000000000003
decision_type=2 2 2 2 2 2 2 2 2 2 2 2 2 2
left_child=1 5 8 6 7 10 9 -4 13 -3 -1 12 -7 -2
right_child=2 3 4 -5 -6 11 -8 -9 -10 -11 -12 -13 -14 -15
leaf_value=-0.031772771322478847 0.011257794240660125 -0.016483535384157158 0.036935973740764898 -0.021264936004334947 0.081032023338540912 -0.045724471946068379 0.0079587898465182313 0.067818864902437784 0.048419600366442293 -0.0021869828910049465 -0.0057292207148180816 -0.021973049472241352 -0.030812612260307227 0.024927554183353306
leaf_weight=54 213 232 160 264 93 193 398 64 54 675 117 120 247 257
leaf_count=54 213 232 160 264 93 193 398 64 54 675 117 120 247 257
internal_value=0 -0.0126979 0.0347266 -0.00493737 0.0561077 -0.0293548 -0.00163433 0.0457597 0.0217919 -0.00584387 -0.0139535 -0.0340577 -0.0373535 0.0187325
internal_weight=0 2300 841 1569 317 731 1305 224 524 907 171 560 440 470
internal_count=3141 2300 841 1569 317 731 1305 224 524 907 171 560 440 470
shrinkage=0.05


Tree=7
num_leaves=15
num_cat=0
split_feature=4 6 2 49 4 2 3 49 10 0 0 2 47 49
split_gain=499.998 107.33 85.4151 38.2493 31.4036 20.0416 19.7309 18.7993 15.3511 12.5219 9.61418 8.57602 10.5735 7.41525
threshold=1.5000000000000002 1.5000000000000002 7.5000000000000009 875.00000000000011 1.0000000180025095e-35 2.5000000000000004 1.5000000000000002 675.00000000000011 1.0000000180025095e-35 44.833802019000004 44.832443747700005 1.5000000000000002 1.0000000180025095e-35 226.00000000000003
decision_type=2 2 2 2 2 2 2 2 2 2 2 2 2 2
left_child=1 5 3 6 10 8 13 9 -1 -6 -3 -10 -13 -2
right_child=2 4 -4 -5 7 -7 -8 -9 11 -11 -12 12 -14 -15
leaf_value=-0.016844009613064495 0.010501833314829994 -0.033187548476271332 0.081144585247230103 0.054275976532827258 -0.010539559751244572 -0.0056514098752405116 0.036801086018449107 0.025027062760835345 -0.05197792791860234 0.00091902430426787658 -0.0134188373498286 -0.027337681167143382 -0.044318700318497828 0.023258289183587227
leaf_weight=148 210 80 83 115 336 89 184 66 66 821 266 295 133 249
leaf_count=148 210 80 83 115 336 89 184 66 66 821 266 295 133 249
internal_value=0 -0.012063 0.0329903 0.0277175 -0.0046905 -0.0278871 0.0229675 -0.000928035 -0.0309696 -0.00240862 -0.0179896 -0.0352015 -0.0326145 0.017422
internal_weight=0 2300 841 758 1569 731 643 1223 642 1157 346 494 428 459
internal_count=3141 2300 841 758 1569 731 643 1223 642 1157 346 494 428 459
shrinkage=0.05


Tree=8
num_leaves=15
num_cat=0
split_feature=4 6 4 136 2 49 2 49 10 12 48 49 2 47
split_gain=451.248 96.8649 78.3086 28.3717 26.8268 20.2487 18.2618 18.1957 16.3664 12.5528 10.8701 10.4622 9.35035 9.54255
threshold=1.5000000000000002 1.5000000000000002 2.5000000000000004 1.0000000180025095e-35 7.5000000000000009 575.00000000000011 1.5000000000000002 324.50000000000006 1.0000000180025095e-35 1.0000000180025095e-35 35.500000000000007 803.50000000000011 2.5000000000000004 1.0000000180025095e-35
decision_type=2 2 2 2 2 2 2 2 2 2 2 2 2 2
left_child=1 6 5 7 11 10 -1 9 -8 -3 -2 -4 13 -10
right_child=2 3 4 -5 -6 -7 8 -9 12 -11 -12 -13 -14 -15
leaf_value=-0.049524441886354575 0.01221366380581774 -0.015376184752005494 0.036204294498254373 -0.019404707418597716 0.077397734428077569 0.039034931190867574 -0.0098827206249097813 0.0074808650062449904 -0.025970797051154709 -0.0018943674717512397 0.032654711441431616 0.062581510681147673 -0.010765047942792687 -0.042102765137875892
leaf_weight=77 368 232 143 264 81 119 160 398 295 675 79 51 66 133
leaf_count=77 368 232 143 264 81 119 160 398 295 675 79 51 66 133
internal_value=0 -0.0114598 0.0313408 -0.00445598 0.0532294 0.0207058 -0.0264927 -0.00143187 -0.023781 -0.00534286 0.0158263 0.0431385 -0.0282825 -0.0309838
internal_weight=0 2300 841 1569 275 566 731 1305 654 907 447 194 494 428
internal_count=3141 2300 841 1569 275 566 731 1305 654 907 447 194 494 428
shrinkage=0.05


Tree=9
num_leaves=15
num_cat=0
split_feature=4 6 4 4 49 49 2 49 48 2 7 4 48 0
split_gain=407.252 87.4206 70.6735 26.3599 24.5913 18.2745 16.7471 16.3263 13.3225 12.7172 11.605 10.1791 9.81027 9.20843
threshold=1.5000000000000002 1.5000000000000002 2.5000000000000004 1.0000000180025095e-35 999.50000000000011 575.00000000000011 2.5000000000000004 675.00000000000011 28.500000000000004 1.5000000000000002 1.0000000180025095e-35 3.5000000000000004 35.500000000000007 44.834323385250009
decision_type=2 2 2 2 2 2 2 2 2 2 2 2 2 2
left_child=1 6 5 -3 11 12 9 8 13 -1 -11 -4 -2 -5
right_child=2 3 4 7 -6 -7 -8 -9 -10 10 -12 -13 -14 -15
leaf_value=-0.04704821983521635 0.011602980844074172 -0.016417609981424042 0.033589324670816392 -0.011652151523074802 0.074544205623013643 0.037083184528516742 -0.0048419876806333334 0.02340166624353239 0.010132416179151955 -0.031282109018772403 -0.016676029385569946 0.05803437499750045 0.031021976140858255 -0.0011920345614731581
leaf_weight=77 368 346 136 308 77 119 89 66 185 337 228 62 79 664
leaf_count=77 368 346 136 308 77 119 89 66 185 337 228 62 79 664
internal_value=0 -0.0108868 0.0297737 -0.00423318 0.0505679 0.0196706 -0.0251681 -0.000786072 -0.00216584 -0.0279859 -0.025388 0.0412438 0.015035 -0.00450656
internal_weight=0 2300 841 1569 275 566 731 1223 1157 642 565 198 447 972
internal_count=3141 2300 841 1569 275 566 731 1223 1157 642 565 198 447 972
shrinkage=0.05


Tree=10
num_leaves=15
num_cat=0
split_feature=4 2 3 49 2 2 47 47 49 15 0 49 152 17
split_gain=367.545 68.1746 67.174 37.2911 31.6026 23.4244 26.5179 12.4 11.6347 11.273 11.1609 10.6387 9.69541 7.73611
threshold=1.5000000000000002 2.5000000000000004 1.5000000000000002 372.00000000000006 7.5000000000000009 1.5000000000000002 1.0000000180025095e-35 1.0000000180025095e-35 490.00000000000006 1.0000000180025095e-35 44.832443747700005 875.00000000000011 0.28438036424793395 1.0000000180025095e-35
decision_type=2 2 2 2 2 2 2 2 2 2 2 2 2 2
left_child=1 3 8 5 11 -1 9 12 -2 10 -7 -4 13 -3
right_child=2 7 4 -5 -6 6 -8 -9 -10 -11 -12 -13 -14 -15
leaf_value=-0.045393747645755149 0.01160492246697609 0.00046809594214184178 0.031976864450236619 0.0023354183377828019 0.076108318056379048 -0.025910064557183633 -0.035367500123595921 -0.0060495256528762791 0.027051107501767941 0.0070053969391367654 -0.013112825762867753 0.055782711630066241 0.023274621501086203 0.020027991153804936
leaf_weight=86 331 353 184 215 70 227 191 360 193 55 683 63 71 59
leaf_count=86 331 353 184 215 70 227 191 360 193 55 683 63 71 59
internal_value=0 -0.0103425 0.0282851 -0.0168904 0.0464531 -0.0202185 -0.0183456 0.000974565 0.0172941 -0.0149765 -0.0163051 0.0380488 0.00620991 0.00326915
internal_weight=0 2300 841 1457 317 1242 1156 843 524 965 910 247 483 412
internal_count=3141 2300 841 1457 317 1242 1156 843 524 965 910 247 483 412
shrinkage=0.05


Tree=11
num_leaves=15
num_cat=0
split_feature=2 3 6 2 2 16 7 154 48 82 48 154 136 48
split_gain=311.252 109.521 55.0648 31.7248 18.6188 15.544 10.7623 9.89528 8.81867 8.73838 8.56276 7.0629 5.98506 5.87375
threshold=3.5000000000000004 1.5000000000000002 1.5000000000000002 7.5000000000000009 4.5000000000000009 1.0000000180025095e-35 1.0000000180025095e-35 1.0000000180025095e-35 23.500000000000004 0.31088617612446034 28.500000000000004 1.0000000180025095e-35 0.36653865230140875 9.5000000000000018
decision_type=2 2 2 2 2 2 2 2 2 2 2 2 2 2
left_child=2 4 6 -3 7 12 13 10 11 -8 -2 -7 -4 -1
right_child=1 3 5 -5 -6 8 9 -9 -10 -11 -12 -13 -14 -15
leaf_value=-0.03269792591384154 0.0011940342863171604 0.034471794695827999 -0.011059763537309579 0.072302904129028331 0.021443289270231904 -0.0072713020675212632 -0.012709470049001418 0.021234924048977963 0.008781892029072742 -0.033676753456775961 0.014542976118575194 0.012132362785408848 -0.024859103465217865 -0.014396680138539522
leaf_weight=356 573 266 269 70 255 478 211 94 139 65 152 52 111 50
leaf_count=356 573 266 269 70 255 478 211 94 139 65 152 52 111 50
internal_value=0 0.0174394 -0.0142054 0.0423533 0.0096451 -0.00701483 -0.0252654 0.00597167 -0.00242768 -0.0176474 0.00399271 -0.00536755 -0.0150906 -0.0304441
internal_weight=0 1410 1731 336 1074 1049 682 819 669 276 725 530 380 406
internal_count=3141 1410 1731 336 1074 1049 682 819 669 276 725 530 380 406
shrinkage=0.05


Tree=12
num_leaves=15
num_cat=0
split_feature=2 3 6 2 47 48 10 2 0 196 0 8 154 2
split_gain=280.905 98.8426 49.696 28.6316 17.4821 14.1559 12.5631 12.3616 10.153 9.81713 8.87529 7.85329 7.54898 7.11273
threshold=3.5000000000000004 1.5000000000000002 1.5000000000000002 7.5000000000000009 1.0000000180025095e-35 23.500000000000004 1.0000000180025095e-35 5.5000000000000009 44.835772082900007 1.0000000180025095e-35 44.834583621600011 1.5000000000000002 1.0000000180025095e-35 5.5000000000000009
decision_type=2 2 2 2 2 2 2 2 2 2 2 2 2 2
left_child=2 4 6 8 7 11 -1 9 -3 -2 -6 -4 -13 -10
right_child=1 3 5 -5 10 -7 -8 -9 13 -11 -12 12 -14 -15
leaf_value=-0.011744633709968186 0.0081405801278647185 0.017853269377956168 -0.024143642300694455 0.068687757970100002 -0.0093834264903212092 0.0055295562491027312 -0.027759180601538605 0.030570407922526723 0.029481620337576311 0.024473816969845831 0.00650616894974455 -0.0094536414202126672 0.007547524142622327 0.049037919476952241
leaf_weight=160 495 80 82 70 143 194 522 95 94 113 228 701 72 92
leaf_count=160 495 80 82 70 143 194 522 95 94 113 228 701 72 92
internal_value=0 0.0165674 -0.0134951 0.0402356 0.00916284 -0.00666409 -0.0240021 0.013797 0.0327482 0.0111762 0.000381608 -0.00943083 -0.00787009 0.0391546
internal_weight=0 1410 1731 336 1074 1049 682 703 266 608 371 855 773 186
internal_count=3141 1410 1731 336 1074 1049 682 703 266 608 371 855 773 186
shrinkage=0.05


Tree=13
num_leaves=15
num_cat=0
split_feature=4 6 4 16 2 10 161 12 136 48 154 7 2 47
split_gain=277.827 58.3719 49.9949 20.6581 15.9658 13.2731 11.4917 10.5268 9.17237 8.18895 8.21875 7.75213 6.98142 7.75945
threshold=1.5000000000000002 1.5000000000000002 2.5000000000000004 1.0000000180025095e-35 7.5000000000000009 1.0000000180025095e-35 0.087761643893782729 1.0000000180025095e-35 0.36653865230140875 25.500000000000004 1.0000000180025095e-35 1.0000000180025095e-35 1.5000000000000002 1.0000000180025095e-35
decision_type=2 2 2 2 2 2 2 2 2 2 2 2 2 2
left_child=1 5 7 8 -4 11 9 -2 -3 10 -5 -1 -7 -14
right_child=2 3 4 6 -6 12 -8 -9 -10 -11 -12 -13 13 -15
leaf_value=-0.024139581621986712 0.0027362086049740751 -0.0078994091378253757 0.034296526840033453 -0.0012164581863232202 0.060725953149390811 -0.039658346292421681 -0.0092877986476169062 0.019574984517244039 -0.023300731217386784 0.013524582372540667 0.016076067584948853 -0.0012367666937792912 -0.017784706849947967 -0.030956645288412073
leaf_weight=54 117 395 194 577 81 66 233 449 128 158 78 117 323 171
leaf_count=54 117 395 194 577 81 66 233 449 128 158 78 117 323 171
internal_value=0 -0.00899201 0.0245917 -0.00355506 0.0420812 -0.0206617 0.000501782 0.0160942 -0.0116688 0.00330741 0.000842804 -0.00846923 -0.0243848 -0.0223442
internal_weight=0 2300 841 1569 275 731 1046 566 523 813 655 171 560 494
internal_count=3141 2300 841 1569 275 731 1046 566 523 813 655 171 560 494
shrinkage=0.05


Tree=14
num_leaves=15
num_cat=0
split_feature=4 6 49 3 49 4 10 4 0 49 72 4 12 49
split_gain=250.738 52.6807 47.133 20.5103 20.4087 13.8042 11.979 9.24745 8.40864 7.72256 7.60635 7.58087 6.58279 6.56317
threshold=1.5000000000000002 1.5000000000000002 940.00000000000011 1.5000000000000002 265.00000000000006 1.0000000180025095e-35 1.0000000180025095e-35 2.5000000000000004 44.834992639300005 675.00000000000011 1.0000000180025095e-35 3.5000000000000004 1.0000000180025095e-35 135.00000000000003
decision_type=2 2 2 2 2 2 2 2 2 2 2 2 2 2
left_child=1 6 3 12 5 -3 10 -4 -7 -6 -1 -5 -2 -8
right_child=2 4 7 11 9 8 13 -9 -10 -11 -12 -13 -14 -15
leaf_value=0.0059364910853365741 0.0014281313135662849 -0.018221583621699972 0.035480660736335046 0.024956625777884343 0.0016531736528807982 -0.011858574923826382 -0.025992390298766127 0.060836594139190417 -0.00039511818358252068 0.019171637640347784 -0.015998987075146461 0.045922596829718561 0.015317212933257896 -0.01280059112100086
leaf_weight=62 112 245 66 168 552 247 440 79 454 71 109 58 358 120
leaf_count=62 112 245 66 168 552 247 440 79 454 71 109 58 358 120
internal_value=0 -0.00854241 0.0233621 0.0179594 -0.00337731 -0.00800501 -0.0196287 0.0492953 -0.00443431 0.00364966 -0.00804577 0.0303373 0.0120075 -0.0231656
internal_weight=0 2300 841 696 1569 946 731 145 701 623 171 226 470 560
internal_count=3141 2300 841 696 1569 946 731 145 701 623 171 226 470 560
shrinkage=0.05


Tree=15
num_leaves=15
num_cat=0
split_feature=4 2 4 0 48 2 17 47 2 47 152 17 0 204
split_gain=226.291 43.806 41.6166 21.7875 18.6562 13.6496 11.3345 10.8558 13.0769 9.98375 7.79671 6.44683 6.18523 6.14125
threshold=1.5000000000000002 2.5000000000000004 2.5000000000000004 44.832356719700009 23.500000000000004 7.5000000000000009 1.0000000180025095e-35 1.0000000180025095e-35 1.5000000000000002 1.0000000180025095e-35 0.28438036424793395 1.0000000180025095e-35 44.835772082900007 0.087902542774253509
decision_type=2 2 2 2 2 2 2 2 2 2 2 2 2 2
left_child=1 3 6 -1 7 12 -2 8 -5 10 11 -3 -4 -11
right_child=2 9 5 4 -6 -7 -8 -9 -10 13 -12 -13 -14 -15
leaf_value=-0.023694243877738094 0.0096093753751559374 0.00045990986464592625 0.020408057422308182 -0.033953670609109803 0.0085842414017070125 0.055390274758094264 0.024802573747777692 -0.025186477926635076 -0.0082737415113135447 -0.01298563546335668 0.020956889768196665 0.018315668873315268 0.038511740841770926 0.0002363402213142343
leaf_weight=378 386 353 81 53 123 81 180 136 767 152 71 59 113 208
leaf_count=378 386 353 81 53 123 81 180 136 767 152 71 59 113 208
internal_value=0 -0.00811529 0.022194 -0.0133641 -0.00974514 0.0381509 0.0144411 -0.0121034 -0.00993354 0.00095641 0.00565406 0.00301692 0.030953 -0.00534627
internal_weight=0 2300 841 1457 1079 275 566 956 820 843 483 412 194 360
internal_count=3141 2300 841 1457 1079 275 566 956 820 843 483 412 194 360
shrinkage=0.05


Tree=16
num_leaves=15
num_cat=0
split_feature=4 49 49 2 2 2 47 49 20 0 47 4 204 0
split_gain=204.228 41.3527 41.1665 20.9013 19.1168 14.9473 14.1716 9.59877 9.11831 8.25463 7.82588 7.60971 6.33621 6.05138
threshold=1.5000000000000002 226.00000000000003 940.00000000000011 2.5000000000000004 5.5000000000000009 1.5000000000000002 1.0000000180025095e-35 675.00000000000011 1.0000000180025095e-35 44.834992639300005 1.0000000180025095e-35 2.5000000000000004 0.051424769734763551 44.834162788650005
decision_type=2 2 2 2 2 2 2 2 2 2 2 2 2 2
left_child=1 3 4 5 -2 -1 8 12 13 -5 -6 -4 -3 -7
right_child=2 7 11 9 10 6 -8 -9 -10 -11 -12 -13 -14 -15
leaf_value=-0.036314063708752745 0.0096360467105848641 -0.0065864060829895045 0.032788778745541071 -0.01226380399659719 0.032082629480760141 -0.02064022006173416 -0.027947939137053308 0.01703495500691685 0.001437633319103436 0.0018996309059624815 0.012612747237033829 0.055790092417663785 0.0032587099168338018 -0.010773140666952905
leaf_weight=86 436 260 66 164 189 230 165 89 111 276 71 79 440 479
leaf_count=86 436 260 66 164 189 230 165 89 111 276 71 79 440 479
internal_value=0 -0.00770953 0.0210843 -0.0125542 0.0160351 -0.0163235 -0.0145781 0.00156841 -0.0118878 -0.00337947 0.0267659 0.0453205 -0.000398047 -0.013974
internal_weight=0 2300 841 1511 696 1071 985 789 820 440 260 145 700 709
internal_count=3141 2300 841 1511 696 1071 985 789 820 440 260 145 700 709
shrinkage=0.05


Tree=17
num_leaves=15
num_cat=0
split_feature=4 6 49 2 16 10 161 49 1 49 47 49 0 2
split_gain=184.316 40.9004 37.1528 17.2529 16.7246 10.6148 10.0959 8.71195 8.14935 7.81358 7.06286 7.01 5.70813 5.57311
threshold=1.5000000000000002 1.5000000000000002 940.00000000000011 5.5000000000000009 1.0000000180025095e-35 1.0000000180025095e-35 0.087761643893782729 265.00000000000006 -0.58439164789999987 372.00000000000006 1.0000000180025095e-35 1275.0000000000002 44.841251122150005 2.5000000000000004
decision_type=2 2 2 2 2 2 2 2 2 2 2 2 2 2
left_child=1 5 3 -2 9 8 7 -6 -1 -3 12 -4 -5 -7
right_child=2 4 11 10 6 13 -8 -9 -10 -11 -12 -13 -14 -15
leaf_value=0.0088498978070535913 0.0091542443292925175 -0.012896995579287963 0.033817921364953853 0.022453486881739298 -0.0010044275581543396 -0.022245066400017846 -0.0082984997921867112 0.0094451399675591664 -0.014111292868723728 0.0031544153505187154 0.011982110027932156 0.056139659558733304 0.039887131626407307 -0.0067755292550745333
leaf_weight=59 436 431 85 102 462 494 233 351 112 92 71 60 87 66
leaf_count=59 436 431 85 102 462 494 233 351 112 92 71 60 87 66
internal_value=0 -0.00732405 0.0200301 0.0152334 -0.00277295 -0.0170924 0.000877293 0.00350701 -0.00618901 -0.0100734 0.0254276 0.0430545 0.0304785 -0.0204219
internal_weight=0 2300 841 696 1569 731 1046 813 171 523 260 145 189 560
internal_count=3141 2300 841 696 1569 731 1046 813 171 523 260 145 189 560
shrinkage=0.05


Tree=18
num_leaves=15
num_cat=0
split_feature=4 6 3 49 4 49 7 2 48 82 49 10 48 0
split_gain=166.345 36.9126 34.6622 16.9812 15.9728 10.3771 9.9644 9.54887 9.14777 9.1031 8.54836 8.29861 7.57776 6.12449
threshold=1.5000000000000002 1.5000000000000002 1.5000000000000002 1050.5000000000002 1.0000000180025095e-35 675.00000000000011 2.5000000000000004 7.5000000000000009 9.5000000000000018 0.31088617612446034 226.00000000000003 1.0000000180025095e-35 28.500000000000004 44.832443747700005
decision_type=2 2 2 2 2 2 2 2 2 2 2 2 2 2
left_child=1 6 10 7 13 12 8 -4 -1 11 -2 -8 -6 -3
right_child=2 4 3 -5 5 -7 9 -9 -10 -11 -12 -13 -14 -15
leaf_value=-0.023924125806876907 0.0034165998433274983 -0.024249063467141244 0.022476887358115399 0.058821435092017052 -0.0028163211170699901 0.019332698322338703 0.0073209903533420261 0.046531011606110083 -0.0036180041680255767 -0.024834490562046785 0.016418509947188825 -0.012370020213965624 0.0082241610739052905 -0.008470871726828243
leaf_weight=378 213 80 216 50 972 66 93 51 65 69 311 126 185 266
leaf_count=378 213 80 216 50 972 66 93 51 65 69 311 126 185 266
internal_value=0 -0.00695785 0.0190286 0.0320794 -0.0026343 4.90301e-05 -0.0162378 0.0270715 -0.0209447 -0.00899774 0.0111334 -0.00400808 -0.00105099 -0.012119
internal_weight=0 2300 841 317 1569 1223 731 267 443 288 524 219 1157 346
internal_count=3141 2300 841 317 1569 1223 731 267 443 288 524 219 1157 346
shrinkage=0.05


Tree=19
num_leaves=15
num_cat=0
split_feature=49 49 72 3 8 12 124 3 136 0 152 45 38 0
split_gain=103.941 41.1255 30.6406 28.5391 14.559 14.2639 11.608 7.74448 7.48646 7.29092 6.63762 6.29664 5.85957 5.68582
threshold=372.00000000000006 940.00000000000011 0.25856433794739986 1.5000000000000002 1.5000000000000002 1.0000000180025095e-35 1.0000000180025095e-35 1.5000000000000002 0.35232161735186696 44.833663629800007 1.0000000180025095e-35 20.500000000000004 1.0000000180025095e-35 44.841251122150005
decision_type=2 2 2 2 2 2 2 2 2 2 2 2 2 2
left_child=2 10 3 4 -1 9 8 -3 11 12 -2 -7 -6 -5
right_child=1 7 -4 13 5 6 -8 -9 -10 -11 -12 -13 -14 -15
leaf_value=-0.024136959905585939 0.0039473210119625379 0.025134287863860235 -0.017922194559489273 0.0076339014011778325 -0.012682851700234402 0.00075811892637147292 -0.022952753788558766 0.045960936409005143 -0.01159665827751802 -0.0066453635677268426 0.013781634301851794 0.016877851590442545 -0.032733729331071992 0.02543437454630347
leaf_weight=93 323 85 414 95 101 891 56 94 116 300 366 65 57 85
leaf_count=93 323 85 414 95 101 891 56 94 116 300 366 65 57 85
internal_value=0 0.0147187 -0.00562068 -0.00288113 -0.00490956 -0.00378211 -0.000760658 0.0360712 0.000398631 -0.0112236 0.00917135 0.00185413 -0.0199164 0.0160397
internal_weight=0 868 2273 1859 1679 1586 1128 179 1072 458 689 956 158 180
internal_count=3141 868 2273 1859 1679 1586 1128 179 1072 458 689 956 158 180
shrinkage=0.05


Tree=20
num_leaves=15
num_cat=0
split_feature=4 6 4 16 3 161 7 17 7 48 136 17 48 1
split_gain=140.881 30.7282 28.4849 13.8043 10.3043 9.06173 8.98368 8.52078 8.46056 8.05495 6.16154 5.96054 5.2179 5.02723
threshold=1.5000000000000002 1.5000000000000002 2.5000000000000004 1.0000000180025095e-35 2.5000000000000004 0.087761643893782729 2.5000000000000004 1.0000000180025095e-35 8.5000000000000018 9.5000000000000018 0.36653865230140875 1.0000000180025095e-35 35.500000000000007 -0.56763293764999989
decision_type=2 2 2 2 2 2 2 2 2 2 2 2 2 2
left_child=1 6 7 10 13 11 9 12 -8 -1 -3 -5 -2 -4
right_child=2 3 4 5 -6 -7 8 -9 -10 -11 -12 -13 -14 -15
leaf_value=-0.022135203550364912 0.0042200216556000144 -0.0060015990975687931 0.029967885164532273 0.0009768426142987821 0.048652516786129252 -0.0078352905701458177 0.0083662317823543549 0.02008134637163797 -0.012484238361033191 -0.0030805623889542545 -0.018624582399206703 0.011075098313274185 0.019479630082530685 0.012310410891142157
leaf_weight=378 318 395 159 622 62 233 62 180 226 65 128 191 68 54
leaf_count=378 318 395 159 622 62 233 62 180 226 65 128 191 68 54
internal_value=0 -0.00640319 0.0175117 -0.00245842 0.0307131 0.000857856 -0.0148701 0.0110976 -0.0079956 -0.0193394 -0.00909097 0.00334925 0.00690824 0.0254913
internal_weight=0 2300 841 1569 275 1046 731 566 288 443 523 813 386 213
internal_count=3141 2300 841 1569 275 1046 731 566 288 443 523 813 386 213
shrinkage=0.05


Tree=21
num_leaves=15
num_cat=0
split_feature=2 3 2 47 2 47 25 152 47 17 17 47 51 223
split_gain=131.111 43.6138 16.4735 17.7392 14.7209 11.7562 7.93008 7.50165 6.42201 5.97857 5.7993 5.32343 5.34761 5.11353
threshold=3.5000000000000004 1.5000000000000002 1.5000000000000002 1.0000000180025095e-35 7.5000000000000009 1.0000000180025095e-35 1.0000000180025095e-35 0.27000811768268546 18.500000000000004 1.0000000180025095e-35 1.0000000180025095e-35 9.5000000000000018 1.5000000000000002 0.10691049422513062
decision_type=2 2 2 2 2 2 2 2 2 2 2 2 2 2
left_child=2 5 -1 6 10 7 -4 9 -7 -2 -3 -5 -13 -11
right_child=1 4 3 11 -6 8 -8 -9 -10 13 -12 12 -14 -15
leaf_value=-0.030047660203029715 0.0051274878580217969 0.01434433036014688 -0.0028931106035964709 -0.027635331315859397 0.047441936120656988 -0.0039453397789470457 -0.011265355391924128 0.021527936882031543 0.012961572808874906 0.028694010060280564 0.029110201570835093 -0.021045358649183374 -0.0051665954661898709 0.0086681004884224897
leaf_weight=90 452 134 907 108 70 302 411 121 69 56 132 120 95 74
leaf_count=90 452 134 907 108 70 302 411 121 69 56 132 120 95 74
internal_value=0 0.0113186 -0.00921969 -0.00807739 0.0270405 0.00640006 -0.00550388 0.0102003 -0.000800927 0.00784524 0.0216718 -0.0185786 -0.0140292 0.0172946
internal_weight=0 1410 1731 1641 336 1074 1318 703 371 582 266 323 215 130
internal_count=3141 1410 1731 1641 336 1074 1318 703 371 582 266 323 215 130
shrinkage=0.05


Tree=22
num_leaves=15
num_cat=0
split_feature=2 3 49 49 2 47 15 49 47 2 196 204 8 51
split_gain=118.328 39.3615 21.6308 14.2694 12.1955 13.2124 12.6311 10.9878 8.58807 7.76974 5.0925 4.91297 4.89112 4.72057
threshold=3.5000000000000004 1.5000000000000002 372.00000000000006 1050.5000000000002 1.5000000000000002 1.0000000180025095e-35 1.0000000180025095e-35 625.00000000000011 1.0000000180025095e-35 7.5000000000000009 0.27288613058171612 1.0000000180025095e-35 1.5000000000000002 1.5000000000000002
decision_type=2 2 2 2 2 2 2 2 2 2 2 2 2 2
left_child=2 7 4 9 -1 6 12 8 10 -3 -2 -10 -6 -7
right_child=1 3 -4 -5 5 13 -8 -9 11 -11 -12 -13 -14 -15
leaf_value=-0.029495523966710777 0.0063296021014113317 0.017541017086007336 0.0038576048331558179 0.050331953795626765 -0.019804000409203583 -0.025091585217298762 0.014132202941081709 0.020613752241278517 -0.0096917836638949536 0.039070678805914145 0.02176842325469637 0.0027165559982177895 -0.0078348889351939864 -0.011693120856078302
leaf_weight=86 564 235 284 50 94 168 63 116 131 51 59 204 928 108
leaf_count=86 564 235 284 50 94 168 63 116 131 51 59 204 928 108
internal_value=0 0.0107527 -0.00875871 0.0256885 -0.0112349 -0.010081 -0.00759634 0.00608006 0.00432024 0.0213802 0.00779171 -0.00213566 -0.00893577 -0.0198487
internal_weight=0 1410 1731 336 1447 1361 1085 1074 958 286 623 335 1022 276
internal_count=3141 1410 1731 336 1447 1361 1085 1074 958 286 623 335 1022 276
shrinkage=0.05


Tree=23
num_leaves=15
num_cat=0
split_feature=2 4 49 49 2 47 49 17 22 25 205 51 16 46
split_gain=106.791 36.355 19.5218 14.615 11.0065 11.9242 9.63605 6.43087 6.5419 5.79177 6.25092 4.26031 3.79212 3.55468
threshold=3.5000000000000004 2.5000000000000004 372.00000000000006 575.00000000000011 1.5000000000000002 1.0000000180025095e-35 999.50000000000011 1.0000000180025095e-35 1.0000000180025095e-35 1.0000000180025095e-35 0.23830589597839127 1.5000000000000002 1.0000000180025095e-35 18.500000000000004
decision_type=2 2 2 2 2 2 2 2 2 2 2 2 2 2
left_child=2 3 4 7 -1 9 -3 8 -2 10 -6 12 -7 -11
right_child=1 6 -4 -5 5 11 -8 -9 -10 13 -12 -13 -14 -15
leaf_value=-0.028020748136521775 0.0038449315003307341 0.020753528563731416 0.0036647246794325864 0.020279073365963997 -0.0059810396152411198 -0.033293244178908381 0.041697323908049033 0.01168058499614796 -0.0088278114095268669 -0.0095179318858470818 0.011141629886697047 -0.011108464785825669 -0.017869476716314416 -0.020945672269638938
leaf_weight=86 643 198 284 160 658 65 76 212 121 279 58 108 103 90
leaf_count=86 643 198 284 160 658 65 76 212 121 279 58 108 103 90
internal_value=0 0.0102151 -0.00832077 0.00627206 -0.0106731 -0.00957697 0.0265628 0.00397583 0.00183786 -0.00721652 -0.00459401 -0.0188563 -0.023837 -0.0123052
internal_weight=0 1410 1731 1136 1447 1361 274 976 764 1085 716 276 168 369
internal_count=3141 1410 1731 1136 1447 1361 274 976 764 1085 716 276 168 369
shrinkage=0.05


Tree=24
num_leaves=15
num_cat=0
split_feature=2 2 49 3 0 2 47 15 49 12 49 0 0 48
split_gain=96.3785 33.8603 17.6184 12.6482 12.5098 9.93334 10.7616 11.3054 8.87434 6.64546 5.88857 5.74521 5.67601 4.5134
threshold=3.5000000000000004 5.5000000000000009 372.00000000000006 2.5000000000000004 44.835256403250007 1.5000000000000002 1.0000000180025095e-35 1.0000000180025095e-35 705.00000000000011 1.0000000180025095e-35 575.00000000000011 44.833802019000004 44.834162788650005 1.0000000180025095e-35
decision_type=2 2 2 2 2 2 2 2 2 2 2 2 2 2
left_child=2 4 5 8 9 -1 7 12 -3 -2 -6 -4 -7 -12
right_child=1 3 11 -5 10 6 -8 -9 -10 -11 13 -13 -14 -15
leaf_value=-0.026619710742907473 -0.01396716402675164 0.013526962083256381 -0.010556469088297835 0.043110992370930037 0.00695395520505818 -0.013756940722198997 -0.01791345883642519 0.013701022353641401 0.033443184109404687 0.0016190725339732441 0.028644073669050564 0.0070841500346690003 -0.0056584847879952343 0.0089853218428158615
leaf_weight=86 94 220 58 64 589 311 276 63 75 251 61 226 711 56
leaf_count=86 94 220 58 64 589 311 276 63 75 251 61 226 711 56
internal_value=0 0.00970432 -0.00790473 0.0229618 0.00517585 -0.0101395 -0.00909812 -0.00685569 0.0185904 -0.00262761 0.00898916 0.00348149 -0.00812289 0.0192348
internal_weight=0 1410 1731 359 1051 1447 1361 1085 295 345 706 284 1022 117
internal_count=3141 1410 1731 359 1051 1447 1361 1085 295 345 706 284 1022 117
shrinkage=0.05


Tree=25
num_leaves=15
num_cat=0
split_feature=4 49 2 0 48 20 17 161 49 2 12 7 0 0
split_gain=88.4809 20.2972 19.6663 13.4887 13.3898 8.68493 7.28038 6.5485 7.35406 6.10956 5.9999 4.54098 4.48241 4.67406
threshold=1.5000000000000002 226.00000000000003 7.5000000000000009 44.834162788650005 57.000000000000007 1.0000000180025095e-35 1.0000000180025095e-35 0.1306472295846525 675.00000000000011 3.5000000000000004 1.0000000180025095e-35 1.0000000180025095e-35 44.850940210400012 44.840390313650012
decision_type=2 2 2 2 2 2 2 2 2 2 2 2 2 2
left_child=1 3 4 10 6 9 -2 8 -3 12 -1 -12 13 -5
right_child=2 7 -4 5 -6 -7 -8 -9 -10 -11 11 -13 -14 -15
leaf_value=-0.021102198286983082 0.0055585261975441835 0.0019802094591570333 0.036984205358179222 -0.01136908200628897 0.032866009046803368 0.0056929824425827101 0.016333726542943624 -0.0070755744645297951 0.019767794054753794 0.0017624487434843587 -0.013101700860166467 0.0034559212892781945 -0.015182323043700308 -0.0013426635734251013
leaf_weight=227 452 548 83 235 66 158 240 176 65 158 241 50 212 230
leaf_count=227 452 548 83 235 66 158 240 176 65 158 241 50 212 230
internal_value=0 -0.00507452 0.013878 -0.00846867 0.0113479 -0.00505664 0.00929559 0.00142555 0.00386633 -0.0070907 -0.0150095 -0.0102567 -0.00915687 -0.00640978
internal_weight=0 2300 841 1511 758 993 692 789 613 835 518 291 677 465
internal_count=3141 2300 841 1511 758 993 692 789 613 835 518 291 677 465
shrinkage=0.05


Tree=26
num_leaves=15
num_cat=0
split_feature=4 2 49 0 49 2 22 0 25 47 157 47 205 0
split_gain=79.854 18.462 18.2331 13.5217 11.3587 8.80176 7.44945 6.28199 5.12478 6.42761 5.07778 4.88047 4.68105 4.47781
threshold=1.5000000000000002 2.5000000000000004 940.00000000000011 44.832356719700009 372.00000000000006 5.5000000000000009 1.0000000180025095e-35 44.86129107295001 1.0000000180025095e-35 1.0000000180025095e-35 1.0000000180025095e-35 1.0000000180025095e-35 0.20821603563904573 44.841251122150005
decision_type=2 2 2 2 2 2 2 2 2 2 2 2 2 2
left_child=1 3 5 -1 7 -2 10 8 9 12 -3 13 -5 -7
right_child=2 6 -4 4 -6 11 -8 -9 -10 -11 -12 -13 -14 -15
leaf_value=-0.016366285957563034 0.0054817281870415471 0.0019557514636002423 0.029313679171228332 -0.003478804138705108 0.006242826312716881 0.014195966054959333 -0.0096014253647290996 -0.021600537244985635 -0.011741464607708823 -0.018930477642182572 0.018335367074491932 0.00592827037129302 0.011248161904363623 0.029636914186292041
leaf_weight=378 436 655 145 416 176 102 137 74 291 60 51 71 62 87
leaf_count=378 436 655 145 416 176 102 137 74 291 60 51 71 62 87
internal_value=0 -0.00482079 0.0131841 -0.00822824 -0.00537729 0.00982377 0.00106848 -0.00764212 -0.00639613 -0.00350488 0.00313898 0.017105 -0.00156861 0.0213037
internal_weight=0 2300 841 1457 1079 696 843 903 829 538 706 260 478 189
internal_count=3141 2300 841 1457 1079 696 843 903 829 538 706 260 478 189
shrinkage=0.05


Tree=27
num_leaves=15
num_cat=0
split_feature=2 3 49 0 4 47 2 47 152 0 49 49 86 0
split_gain=72.6926 26.3487 13.3892 11.1881 11.9717 9.08415 8.67309 9.33249 5.98465 5.88222 5.73582 5.09036 4.82612 4.76053
threshold=3.5000000000000004 1.5000000000000002 372.00000000000006 44.831207004950009 3.5000000000000004 1.0000000180025095e-35 1.5000000000000002 1.0000000180025095e-35 0.27000811768268546 44.83287096725001 575.00000000000011 575.00000000000011 0.35902747112658046 44.833802019000004
decision_type=2 2 2 2 2 2 2 2 2 2 2 2 2 2
left_child=2 5 6 -3 11 8 -1 12 10 -7 -2 -5 -8 -4
right_child=1 3 13 4 -6 9 7 -9 -10 -11 -12 -13 -14 -15
leaf_value=-0.024212534045583982 0.0038892332554308858 0.0027002522181989491 -0.009717512681301492 0.013592818562452223 0.043762572009511523 -0.011118511185050011 -0.0050189350077622027 -0.016049296522245037 0.018063115488020087 0.0024946407024117436 0.018459466048396933 0.030472043467991389 -0.020923751206602902 0.0063403759848128646
leaf_weight=86 504 69 58 134 66 115 1035 276 121 256 78 67 50 226
leaf_count=86 504 69 58 134 66 115 1035 276 121 256 78 67 50 226
internal_value=0 0.00842791 -0.00686503 0.020648 0.0252861 0.00460489 -0.00881318 -0.00784011 0.00794545 -0.00172507 0.00584194 0.0192192 -0.00575188 0.00306095
internal_weight=0 1410 1731 336 267 1074 1447 1361 703 371 582 201 1085 284
internal_count=3141 1410 1731 336 267 1074 1447 1361 703 371 582 201 1085 284
shrinkage=0.05


Tree=28
num_leaves=15
num_cat=0
split_feature=2 2 49 3 0 2 47 15 49 12 0 8 15 154
split_gain=65.6051 23.9165 12.0837 10.1425 9.80693 7.82747 8.42257 9.98085 6.69613 5.69776 4.29637 4.24409 4.0984 3.86769
threshold=3.5000000000000004 5.5000000000000009 372.00000000000006 2.5000000000000004 44.835256403250007 1.5000000000000002 1.0000000180025095e-35 1.0000000180025095e-35 705.00000000000011 1.0000000180025095e-35 44.833802019000004 1.5000000000000002 1.0000000180025095e-35 1.0000000180025095e-35
decision_type=2 2 2 2 2 2 2 2 2 2 2 2 2 2
left_child=2 4 5 8 9 -1 7 11 -3 -2 -4 -7 13 -6
right_child=1 3 10 -5 12 6 -8 -9 -10 -11 -12 -13 -14 -15
leaf_value=-0.023001907462644022 -0.01320847024189982 0.010835689439607617 -0.009231637044737501 0.037191792768135203 0.0048073633214091513 -0.016778815157235939 -0.015246831735493144 0.013850693811573798 0.028135888706271844 0.0012236720422260554 0.0060233571603729406 -0.0056294515924962298 0.01879495283435673 0.016633132005499415
leaf_weight=86 94 220 58 64 554 94 276 63 75 251 226 928 73 79
leaf_count=86 94 220 58 64 554 94 276 63 75 251 226 928 73 79
internal_value=0 0.00800652 -0.00652177 0.0191485 0.00420064 -0.00837252 -0.00744811 -0.00546428 0.015234 -0.00270856 0.0029079 -0.00665493 0.00757695 0.00628325
internal_weight=0 1410 1731 359 1051 1447 1361 1085 295 345 284 1022 706 633
internal_count=3141 1410 1731 359 1051 1447 1361 1085 295 345 284 1022 706 633
shrinkage=0.05


Tree=29
num_leaves=15
num_cat=0
split_feature=4 0 49 49 86 4 2 12 7 1 17 0 37 39
split_gain=60.2021 14.7489 14.5975 9.54717 8.46528 8.36338 8.03138 7.35444 5.92483 5.69365 7.2904 5.26787 4.97533 4.78498
threshold=1.5000000000000002 44.834162788650005 1275.0000000000002 490.00000000000006 0.41686680620060923 3.5000000000000004 2.5000000000000004 1.0000000180025095e-35 1.5000000000000002 -0.59528171379999983 1.0000000180025095e-35 44.86129107295001 1.0000000180025095e-35 1.0000000180025095e-35
decision_type=2 2 2 2 2 2 2 2 2 2 2 2 2 2
left_child=1 7 5 4 6 9 11 -1 -9 -2 -11 -3 -5 -8
right_child=2 3 -4 12 -6 -7 13 8 -10 10 -12 -13 -14 -15
leaf_value=-0.016637304004586431 -0.0063089140829106329 -0.0040024239795561729 0.035213720814014478 -0.00021977165416846501 -0.021209145203653364 0.025266616520556534 0.011195483942918312 -0.0085958927914870382 0.0073979946538148562 0.0055500343166979826 0.016861634266945733 -0.018935327518556734 0.013828703756376671 -0.00025171079572386146
leaf_weight=269 64 765 60 116 62 77 132 390 68 426 214 64 138 296
leaf_count=269 64 765 60 116 62 77 132 390 68 426 214 64 138 296
internal_value=0 -0.00418578 0.0114474 -0.00146377 -0.00317315 0.00962159 -0.00228355 -0.0100753 -0.00622125 0.00791042 0.00933235 -0.00515527 0.00741286 0.00327873
internal_weight=0 2300 841 1573 1319 781 1257 727 458 704 640 829 254 428
internal_count=3141 2300 841 1573 1319 781 1257 727 458 704 640 829 254 428
shrinkage=0.05


Tree=30
num_leaves=15
num_cat=0
split_feature=2 3 0 48 0 2 47 26 238 196 49 47 7 0
split_gain=54.29 20.2275 10.7173 10.0692 9.79129 8.77836 7.99452 5.0716 4.77322 4.70846 4.60239 3.77645 4.88926 9.16314
threshold=3.5000000000000004 1.5000000000000002 44.832356719700009 23.500000000000004 44.831207004950009 6.5000000000000009 1.0000000180025095e-35 1.0000000180025095e-35 0.03179795058551365 1.0000000180025095e-35 425.00000000000006 1.0000000180025095e-35 2.5000000000000004 44.847279140650009
decision_type=2 2 2 2 2 2 2 2 2 2 2 2 2 2
left_child=2 6 -1 7 -3 -6 9 10 -8 -2 11 12 -4 -14
right_child=1 4 3 -5 5 -7 8 -9 -10 -11 -12 -13 13 -15
leaf_value=-0.012829466203179705 0.0050726636701704554 0.0012002880037154842 -0.0058685964955363613 0.0076606622913181245 0.016925038412174322 0.037538467793991531 -0.0060228180121404198 -0.019291430566039297 0.0059999226020262279 0.015461000058222219 0.0053069890564623875 -0.012269222869611435 0.019175145307839928 -0.0082453842178755819
leaf_weight=425 568 69 669 170 197 70 247 62 124 135 106 177 59 63
leaf_count=425 568 69 669 170 197 70 247 62 124 135 106 177 59 63
internal_value=0 0.00728341 -0.00593276 -0.00368843 0.0179903 0.0223293 0.00393376 -0.00538679 -0.00200444 0.00706758 -0.0045841 -0.00566722 -0.00418991 0.00501536
internal_weight=0 1410 1731 1306 336 267 1074 1136 371 703 1074 968 791 122
internal_count=3141 1410 1731 1306 336 267 1074 1136 371 703 1074 968 791 122
shrinkage=0.05


Tree=31
num_leaves=15
num_cat=0
split_feature=4 48 6 136 124 12 4 10 12 66 161 7 49 48
split_gain=49.6847 13.661 13.1038 9.01268 7.93999 7.26114 7.63271 7.15679 7.00847 6.59035 5.62868 5.3062 4.52619 4.15529
threshold=1.5000000000000002 52.000000000000007 1.5000000000000002 0.37766156031666154 1.0000000180025095e-35 1.0000000180025095e-35 3.5000000000000004 1.0000000180025095e-35 1.0000000180025095e-35 0.28591409183400623 0.1341539767133175 1.0000000180025095e-35 575.00000000000011 35.500000000000007
decision_type=2 2 2 2 2 2 2 2 2 2 2 2 2 2
left_child=2 5 7 4 8 -2 12 11 9 -4 13 -1 -7 -10
right_child=1 -3 3 -5 -6 6 -8 -9 10 -11 -12 -13 -14 -15
leaf_value=-0.013343415921553969 -0.0021224721965255513 0.026913661638129541 -0.0021684451925355701 -0.010710923024109637 -0.016493300401993139 0.006059233910073401 0.028504051514110475 -0.012065598054967788 0.0037736188297015452 -0.021878284878151206 -0.004435322988799519 0.0056048780222001495 0.016897658684239206 0.015714236211756039
leaf_weight=54 144 109 230 216 67 409 53 560 725 52 198 117 126 81
leaf_count=54 144 109 230 216 67 409 53 560 725 52 198 117 126 81
internal_value=0 0.0103995 -0.00380261 -0.00122657 0.00028756 0.00794045 0.0104048 -0.00933175 0.00116183 -0.00580288 0.00311806 -0.000378794 0.00861183 0.00497361
internal_weight=0 841 2300 1569 1353 732 588 731 1286 282 1004 171 535 806
internal_count=3141 841 2300 1569 1353 732 588 731 1286 282 1004 171 535 806
shrinkage=0.05


Tree=32
num_leaves=15
num_cat=0
split_feature=2 2 0 48 3 0 47 12 0 7 1 16 1 1
split_gain=45.0244 17.1799 9.48471 8.50346 7.96966 7.64412 4.65197 4.61294 4.57253 5.32036 7.71047 5.01363 4.49002 4.20469
threshold=3.5000000000000004 5.5000000000000009 44.832356719700009 23.500000000000004 2.5000000000000004 44.835256403250007 1.0000000180025095e-35 1.0000000180025095e-35 44.850940210400012 2.5000000000000004 -0.58737112349999998 1.0000000180025095e-35 -0.56616856239999991 -0.56739512259999991
decision_type=2 2 2 2 2 2 2 2 2 2 2 2 2 2
left_child=2 5 -1 8 6 7 13 -2 9 10 -4 -11 -12 -3
right_child=1 4 3 -5 -6 -7 -8 -9 -10 11 12 -13 -14 -15
leaf_value=-0.011890821696820614 -0.012140368001703967 0.021116780935088175 -0.019456574387316194 0.0071379454535267818 0.032070386009581855 0.0063880332750841902 0.0034247524486458372 0.00084540450090238187 -0.0098958667286350652 0.015953894604497882 -0.0010895241015183488 -0.0046268659063948775 -0.014142408942803742 0.0044977944618200556
leaf_weight=425 94 150 77 170 64 706 94 251 322 67 542 53 75 51
leaf_count=425 94 150 77 170 64 706 94 251 322 67 542 53 75 51
internal_value=0 0.00663283 -0.00540282 -0.00329149 0.0160761 0.00340719 0.0126062 -0.00269275 -0.00485224 -0.00285709 -0.00453798 0.00686406 -0.00267618 0.0169
internal_weight=0 1410 1731 1306 359 1051 295 345 1136 814 694 120 617 201
internal_count=3141 1410 1731 1306 359 1051 295 345 1136 814 694 120 617 201
shrinkage=0.05


Tree=33
num_leaves=15
num_cat=0
split_feature=4 48 49 0 15 49 154 6 54 47 0 2 48 22
split_gain=41.1291 11.8304 11.5389 9.80063 6.1583 5.50062 5.16735 4.44464 4.33719 5.88024 4.24595 4.09152 4.01654 3.65431
threshold=1.5000000000000002 52.000000000000007 191.00000000000003 44.837881652250012 1.0000000180025095e-35 999.50000000000011 1.0000000180025095e-35 1.5000000000000002 0.23496396397226868 1.0000000180025095e-35 44.829555102100009 5.5000000000000009 1.0000000180025095e-35 1.0000000180025095e-35
decision_type=2 2 2 2 2 2 2 2 2 2 2 2 2 2
left_child=2 5 3 7 -5 8 -4 -1 9 10 -2 -12 -7 -9
right_child=1 -3 6 4 -6 12 -8 13 -10 -11 11 -13 -14 -15
leaf_value=-0.015702759336468811 -0.00046502892240715118 0.0248297135597693 -0.00083570645983381759 -0.0037567539910826858 0.014139593614807103 0.028077257152646778 0.0095665952442012883 -0.0048082144630354623 -0.0016138243622988763 -0.0024848048557650371 0.0089531274640717376 0.021117945904843512 0.0081344249804376403 -0.018127698624979646
leaf_weight=282 67 109 846 636 52 50 139 282 162 106 186 110 51 63
leaf_count=282 67 109 846 636 52 50 139 282 162 106 186 110 51 63
internal_value=0 0.00946186 -0.00345975 -0.00652485 -0.00240412 0.00717348 0.000632233 -0.0110465 0.00543941 0.00787571 0.0109011 0.0134738 0.0180071 -0.00724047
internal_weight=0 841 2300 1315 688 732 985 627 631 469 363 296 101 345
internal_count=3141 841 2300 1315 688 732 985 627 631 469 363 296 101 345
shrinkage=0.05


Tree=34
num_leaves=15
num_cat=0
split_feature=2 49 6 0 15 17 2 10 51 22 1 214 160 1
split_gain=37.59 15.9526 9.93105 8.10153 6.23125 5.90267 5.18314 5.01903 5.0058 4.64571 4.41822 4.20294 4.66665 4.0861
threshold=3.5000000000000004 675.00000000000011 1.5000000000000002 44.835134806550009 1.0000000180025095e-35 1.0000000180025095e-35 5.5000000000000009 1.0000000180025095e-35 4.5000000000000009 1.0000000180025095e-35 -0.58439164789999987 0.087329079085696468 0.13316845660022031 -0.58763480349999997
decision_type=2 2 2 2 2 2 2 2 2 2 2 2 2 2
left_child=2 3 7 9 5 8 -5 10 13 -2 -1 -3 -13 -4
right_child=1 11 4 6 -6 -7 -8 -9 -10 -11 -12 12 -14 -15
leaf_value=0.0095940647875382146 0.00039634834538446743 0.025589339274114799 -0.014130529027002361 0.004641911991978667 0.013110783067710985 0.0066746931606836675 0.014637665573444049 -0.012008316627051504 -0.017150373140376218 -0.014159227813092562 -0.007899479559356614 0.00043142475187778477 0.020439567116794507 -0.0020623157561893662
leaf_weight=55 350 105 78 606 65 139 165 522 71 65 105 51 68 696
leaf_count=55 350 105 78 606 65 139 165 522 71 65 105 51 68 696
internal_value=0 0.00606054 -0.00493666 0.00374923 -0.00188298 -0.00287342 0.00678108 -0.0096336 -0.00444406 -0.00188344 -0.00188607 0.0182981 0.0118646 -0.00327849
internal_weight=0 1410 1731 1186 1049 984 771 682 845 415 160 224 119 774
internal_count=3141 1410 1731 1186 1049 984 771 682 845 415 160 224 119 774
shrinkage=0.05


Tree=35
num_leaves=15
num_cat=0
split_feature=4 48 0 86 25 12 4 48 224 26 15 161 177 215
split_gain=33.9789 10.3418 9.97552 7.46862 5.9193 5.84869 6.07268 5.32544 5.3822 6.06783 4.32085 3.80815 3.44277 3.40396
threshold=1.5000000000000002 52.000000000000007 44.834162788650005 0.34705444122767343 1.0000000180025095e-35 1.0000000180025095e-35 3.5000000000000004 23.500000000000004 1.0000000180025095e-35 1.0000000180025095e-35 1.0000000180025095e-35 0.071146381287743213 0.10302626893292728 0.27588650622279687
decision_type=2 2 2 2 2 2 2 2 2 2 2 2 2 2
left_child=2 5 4 7 -1 12 -7 8 9 10 13 -6 -2 -4
right_child=1 -3 3 -5 11 6 -8 -9 -10 -11 -12 -13 -14 -15
leaf_value=-0.0047419415296942836 -0.0098836552571906645 0.022968694270340678 -0.0028865551498612326 -0.015144936227234316 -0.010256782878905402 0.0070730231676433483 0.024816309414663406 0.0070509722359758291 0.012797417635010789 -0.0162618557706108 0.0097177688010214348 -0.023851569638625808 0.0056025175377726558 0.0079087531501707276
leaf_weight=479 76 109 965 87 175 535 53 223 64 71 84 73 68 79
leaf_count=479 76 109 965 87 175 535 53 223 64 71 84 73 68 79
internal_value=0 0.00860016 -0.00314467 -0.000906066 -0.0079883 0.00646058 0.00867233 -7.24306e-05 -0.00133017 -0.00208426 -0.00119188 -0.0142585 -0.00257074 -0.00206967
internal_weight=0 841 2300 1573 727 732 588 1486 1263 1199 1128 248 144 1044
internal_count=3141 841 2300 1573 727 732 588 1486 1263 1199 1128 248 144 1044
shrinkage=0.05


Tree=36
num_leaves=15
num_cat=0
split_feature=2 49 0 51 49 25 86 225 152 1 48 40 0 17
split_gain=31.6865 14.0955 7.72802 8.11627 6.5638 6.44507 5.89261 5.16351 5.10009 5.4866 4.66135 4.06403 3.74775 3.74814
threshold=4.5000000000000009 226.00000000000003 44.834162788650005 3.5000000000000004 775.00000000000011 1.0000000180025095e-35 0.41686680620060923 1.0000000180025095e-35 0.27830080234741544 -0.58360167909999994 28.500000000000004 1.0000000180025095e-35 44.831989177700009 1.0000000180025095e-35
decision_type=2 2 2 2 2 2 2 2 2 2 2 2 2 2
left_child=1 2 3 5 11 -1 10 8 9 -3 -4 -2 -11 -14
right_child=4 7 6 -5 -6 -7 -8 -9 -10 12 -12 -13 13 -15
leaf_value=-0.0035383554854969235 0.0060368016604018292 -0.0097427763415500537 -0.0025324123468458948 -0.028836097020436737 0.021691148105839438 -0.015210621324663479 -0.019170039856587263 0.017535348027013242 0.0091099575466891437 -0.00604754363745451 0.012828526740822084 0.020129678723188577 0.0012552258034998613 0.01138368519722531
leaf_weight=316 317 125 983 51 121 189 51 54 184 125 52 61 393 119
leaf_count=316 317 125 983 51 121 189 51 54 184 125 52 61 393 119
internal_value=0 -0.00218252 -0.00503259 -0.00982656 0.0115555 -0.00790679 -0.00257822 0.00249731 0.00163891 -0.000165128 -0.00176066 0.00831105 0.00171432 0.0036093
internal_weight=0 2642 1642 556 499 505 1086 1000 946 762 1035 378 637 512
internal_count=3141 2642 1642 556 499 505 1086 1000 946 762 1035 378 637 512
shrinkage=0.05


Tree=37
num_leaves=15
num_cat=0
split_feature=4 49 49 20 0 14 48 29 154 192 235 54 0 0
split_gain=28.2999 9.37987 8.5479 9.15782 7.02463 5.32552 5.2646 5.07998 4.15207 3.83684 4.69586 3.77837 3.39857 3.31951
threshold=1.5000000000000002 1275.0000000000002 155.00000000000003 1.0000000180025095e-35 44.840074233800003 1.0000000180025095e-35 52.000000000000007 1.0000000180025095e-35 1.0000000180025095e-35 0.063751596030968458 1.0000000180025095e-35 0.31520625200100866 44.851794050500004 44.832232802350013
decision_type=2 2 2 2 2 2 2 2 2 2 2 2 2 2
left_child=2 6 3 4 -1 -6 9 -5 12 10 -2 -7 13 -4
right_child=1 -3 8 7 5 11 -8 -9 -10 -11 -12 -13 -14 -15
leaf_value=-0.0108179920164413 0.0048315985278443978 0.026899756634375084 -0.0053726783077428612 0.017892760359945727 0.012284969812473999 -0.0064635104135959409 0.018055033666720659 -0.00047334497651228542 0.0086078013394061213 -0.0044527302993996511 0.018783922309932463 0.006467719795887894 -0.0078665265233080466 0.0026139335663067282
leaf_weight=614 533 60 171 53 52 392 86 130 140 94 68 66 138 544
leaf_count=614 533 60 171 53 52 392 86 130 140 94 68 66 138 544
internal_value=0 0.00784864 -0.00286987 -0.00552676 -0.00721553 -0.00287845 0.00638505 0.0048458 0.000627153 0.004941 0.00641023 -0.00460006 -0.000682683 0.000703849
internal_weight=0 841 2300 1307 1124 510 781 183 993 695 601 458 853 715
internal_count=3141 841 2300 1307 1124 510 781 183 993 695 601 458 853 715
shrinkage=0.05


Tree=38
num_leaves=15
num_cat=0
split_feature=2 49 6 47 16 7 82 47 0 1 187 2 10 154
split_gain=27.4034 11.3899 7.90515 7.418 5.17502 4.33494 5.59543 4.80085 4.5035 4.25636 4.73776 4.42986 4.03445 3.89393
threshold=3.5000000000000004 625.00000000000011 1.5000000000000002 1.0000000180025095e-35 1.0000000180025095e-35 1.0000000180025095e-35 0.31088617612446034 1.0000000180025095e-35 44.831769362250007 -0.55832385764999992 0.24093485386446847 5.5000000000000009 1.0000000180025095e-35 1.0000000180025095e-35
decision_type=2 2 2 2 2 2 2 2 2 2 2 2 2 2
left_child=2 3 5 9 -4 8 7 12 -1 10 11 -2 -7 -6
right_child=1 -3 4 -5 13 6 -8 -9 -10 -11 -12 -13 -14 -15
leaf_value=-0.021353071273094226 0.0036817984958733654 0.015433498456384906 -0.0061502703182869534 -0.0025383392058611113 -0.00020939955781290503 0.015459178152959795 -0.016397536548857505 -0.010556494042719029 -0.0088218215865621605 -0.0062287588116966865 0.021004872503856728 0.013301777040150257 -0.0015590968841956143 0.011811670081959547
leaf_weight=93 525 227 380 381 593 60 65 68 313 66 56 155 83 76
leaf_count=93 525 227 380 381 593 60 65 68 313 66 56 155 83 76
internal_value=0 0.0051746 -0.00421502 0.00320608 -0.00149055 -0.00840557 -0.00357078 0.000380588 -0.0116923 0.00593503 0.00702581 0.00587459 0.00558144 0.00115622
internal_weight=0 1410 1731 1183 1049 682 276 211 406 802 736 680 143 669
internal_count=3141 1410 1731 1183 1049 682 276 211 406 802 736 680 143 669
shrinkage=0.05


Tree=39
num_leaves=15
num_cat=0
split_feature=2 49 6 47 15 4 59 2 7 82 47 0 47 10
split_gain=24.7316 10.2849 7.13439 6.58624 5.25026 4.98592 3.9222 5.02457 3.91228 5.04988 4.33277 4.06463 3.90849 3.64109
threshold=3.5000000000000004 675.00000000000011 1.5000000000000002 1.0000000180025095e-35 1.0000000180025095e-35 1.0000000180025095e-35 0.40776480043994617 5.5000000000000009 1.0000000180025095e-35 0.31088617612446034 1.0000000180025095e-35 44.831672999200002 9.5000000000000018 1.0000000180025095e-35
decision_type=2 2 2 2 2 2 2 2 2 2 2 2 2 2
left_child=2 3 8 6 5 -4 7 -2 11 10 13 -1 -5 -10
right_child=1 -3 4 12 -6 -7 -8 -9 9 -11 -12 -13 -14 -15
leaf_value=-0.020415579112103354 0.0043747218772592954 0.014741904580835449 -0.0079546649712452736 -0.013008524328137617 0.01234698643612389 -7.4969430245090796e-05 -0.0075064189802363235 0.014213483684257434 0.01468621946895534 -0.015577659827585405 -0.010028669303830933 -0.0084187136611546445 5.6981234090138748e-05 -0.001481141878785678
leaf_weight=91 582 224 281 70 65 703 53 167 60 65 68 315 314 83
leaf_count=91 582 224 281 70 65 703 53 167 60 65 68 315 314 83
internal_value=0 0.00491587 -0.00400426 0.00306003 -0.00141603 -0.00232517 0.00563828 0.00656841 -0.0079853 -0.00339224 0.000361559 -0.0111077 -0.00232475 0.00530237
internal_weight=0 1410 1731 1186 1049 984 802 749 682 276 211 406 384 143
internal_count=3141 1410 1731 1186 1049 984 802 749 682 276 211 406 384 143
shrinkage=0.05


Tree=40
num_leaves=15
num_cat=0
split_feature=2 25 15 48 2 241 2 152 49 1 47 1 154 241
split_gain=22.3471 11.1353 10.7983 8.42718 5.2644 6.16764 5.22741 4.92403 4.77853 4.36821 3.92623 3.22161 3.28471 3.0897
threshold=4.5000000000000009 1.0000000180025095e-35 1.0000000180025095e-35 35.500000000000007 2.5000000000000004 0.071349376628724745 7.5000000000000009 1.0000000180025095e-35 490.00000000000006 -0.56653553764999998 1.0000000180025095e-35 -0.56563658459999988 1.0000000180025095e-35 0.090050652716507099
decision_type=2 2 2 2 2 2 2 2 2 2 2 2 2 2
left_child=1 2 3 4 10 9 -2 -4 13 -6 11 12 -1 -3
right_child=6 8 7 -5 5 -7 -8 -9 -10 -11 -12 -13 -14 -15
leaf_value=-0.0029104622898279962 0.0074183742140818895 -0.01110674922257125 0.0034232782357587264 0.010645147585658496 0.0091397238152164662 -0.0032317549445188458 0.021161255274102633 0.022111693391872741 0.0037844738440195981 -0.0056953550575942298 -0.012516379793942179 -0.010951461995401505 0.0087865572377566741 -0.0044581184899256483
leaf_weight=576 416 394 65 147 266 342 83 77 95 61 128 110 67 314
leaf_count=576 416 394 65 147 266 342 83 77 95 61 128 110 67 314
internal_value=0 -0.00183286 0.000312102 -0.000796204 -0.00188129 0.00146262 0.00970426 0.0135571 -0.00674518 0.00637232 -0.00442053 -0.00304434 -0.00169164 -0.00815806
internal_weight=0 2642 1839 1697 1550 669 499 142 803 327 881 753 643 708
internal_count=3141 2642 1839 1697 1550 669 499 142 803 327 881 753 643 708
shrinkage=0.05


Tree=41
num_leaves=15
num_cat=0
split_feature=49 12 20 4 51 8 124 15 6 54 161 214 160 0
split_gain=19.9778 13.0521 10.1489 8.62052 8.53593 5.69805 5.14426 5.20777 4.72562 4.60777 4.49948 4.07951 4.19892 4.0248
threshold=940.00000000000011 1.0000000180025095e-35 1.0000000180025095e-35 1.5000000000000002 4.5000000000000009 1.5000000000000002 1.0000000180025095e-35 1.0000000180025095e-35 1.5000000000000002 0.40108292654361732 0.24234292756970841 0.084888115875936795 0.14415251469637186 44.845203619000003
decision_type=2 2 2 2 2 2 2 2 2 2 2 2 2 2
left_child=1 2 4 5 -1 -3 7 8 13 10 -10 -2 -13 -7
right_child=11 3 -4 -5 -6 6 -8 -9 9 -11 -12 12 -14 -15
leaf_value=-0.0064505552656201771 0.025109538397130867 -0.01263043218439347 0.01141366930678487 0.0065108859790927748 -0.027412784602627374 -0.0010874311775709927 -0.013522508584741336 0.010397590777277947 0.0013715349513791159 0.011433665226578859 -0.010871525734932309 0.00014347109935004956 0.020251684751361611 -0.013052814556524539
leaf_weight=735 75 95 75 552 52 176 67 125 783 102 83 54 50 117
leaf_count=735 75 95 75 552 52 176 67 125 783 102 83 54 50 117
internal_value=0 -0.000980266 -0.00616079 0.00114621 -0.00783561 -0.000766769 8.90066e-06 0.000663016 -0.000301949 0.00138203 0.000198124 0.0162209 0.00981088 -0.00586542
internal_weight=0 2962 862 2100 787 1548 1453 1386 1261 968 866 179 104 293
internal_count=3141 2962 862 2100 787 1548 1453 1386 1261 968 866 179 104 293
shrinkage=0.05


Tree=42
num_leaves=15
num_cat=0
split_feature=2 2 47 2 47 15 47 15 187 47 1 1 173 8
split_gain=18.6951 8.3179 7.30453 6.23067 6.85702 7.57163 4.77726 4.22237 3.90235 3.34644 3.31439 3.3193 2.99239 3.29003
threshold=3.5000000000000004 7.5000000000000009 1.0000000180025095e-35 1.5000000000000002 1.0000000180025095e-35 1.0000000180025095e-35 9.5000000000000018 1.0000000180025095e-35 0.23903224262269651 9.5000000000000018 -0.59967733894999986 -0.56653553764999998 0.1934689028496353 1.5000000000000002
decision_type=2 2 2 2 2 2 2 2 2 2 2 2 2 2
left_child=3 2 7 -1 5 10 -4 8 -2 -6 -5 12 13 -12
right_child=1 -3 6 4 9 -7 -8 -9 -10 -11 11 -13 -14 -15
leaf_value=-0.016290647560963406 0.003809357640486058 0.019629530838679479 -0.013629445343316105 -0.012577672366104607 -0.016488551622670558 0.013346381600214436 0.00034636343616279482 0.016014379347325303 0.018097886384702198 -0.0057007840958012397 -0.0088214540262432656 -0.0072965457331759728 -0.0098737875097431246 0.0015267705805339692
leaf_weight=90 758 83 74 72 108 84 352 92 51 215 85 205 75 797
leaf_count=90 758 83 74 72 108 84 352 92 51 215 85 205 75 797
internal_value=0 0.00427404 0.0033136 -0.00348146 -0.00277894 -0.00117891 -0.00208136 0.00586438 0.00471012 -0.00930784 -0.00216767 -0.00152264 -0.000285811 0.000529493
internal_weight=0 1410 1327 1731 1641 1318 426 901 809 323 1234 1162 957 882
internal_count=3141 1410 1327 1731 1641 1318 426 901 809 323 1234 1162 957 882
shrinkage=0.05


Tree=43
num_leaves=15
num_cat=0
split_feature=48 4 49 46 152 25 51 15 0 192 48 203 17 16
split_gain=17.5084 9.66905 8.13589 5.64015 6.29676 4.99244 5.85117 4.28859 3.91923 3.81761 4.5515 3.55794 2.92135 2.81031
threshold=35.500000000000007 2.5000000000000004 372.00000000000006 1.0000000180025095e-35 0.12387537840816508 1.0000000180025095e-35 4.5000000000000009 1.0000000180025095e-35 44.834162788650005 0.075417617945800972 1.0000000180025095e-35 0.14101758564878739 1.0000000180025095e-35 1.0000000180025095e-35
decision_type=2 2 2 2 2 2 2 2 2 2 2 2 2 2
left_child=1 2 5 -2 -5 6 7 11 13 10 -4 -1 -10 -7
right_child=3 -3 9 4 -6 8 -8 -9 12 -11 -12 -13 -14 -15
leaf_value=-0.00052826270414057109 0.015780556809772636 0.011614521631375231 0.010251987158672246 -0.0062635167029357567 0.012563765493737314 -0.019100049473973139 -0.015723032841432682 0.0093629154897425133 -0.0059500219389321957 -0.0071778879307403971 0.00062154339812736973 -0.0077596154627226329 0.0049158159707912022 -0.0080406616515967567
leaf_weight=976 202 136 216 85 93 89 71 93 377 77 284 206 74 162
leaf_count=976 202 136 216 85 93 89 71 93 377 77 284 206 74 162
internal_value=0 -0.0013849 -0.00205839 0.0100624 0.00357321 -0.0035359 -0.00175308 -0.000975148 -0.00695424 0.00318588 0.0047819 -0.00178855 -0.00416716 -0.0119621
internal_weight=0 2761 2625 380 178 2048 1346 1275 702 577 500 1182 451 251
internal_count=3141 2761 2625 380 178 2048 1346 1275 702 577 500 1182 451 251
shrinkage=0.05


Tree=44
num_leaves=15
num_cat=0
split_feature=49 2 47 47 2 17 25 46 214 160 47 25 51 203
split_gain=16.3088 12.1841 7.39413 5.31738 6.01824 5.01136 3.81688 4.47911 3.59526 3.68141 3.55819 4.81372 3.4534 3.40431
threshold=940.00000000000011 2.5000000000000004 1.0000000180025095e-35 1.0000000180025095e-35 1.5000000000000002 1.0000000180025095e-35 1.0000000180025095e-35 39.500000000000007 0.084888115875936795 0.14415251469637186 18.500000000000004 1.0000000180025095e-35 3.5000000000000004 0.14101758564878739
decision_type=2 2 2 2 2 2 2 2 2 2 2 2 2 2
left_child=1 3 5 4 -1 12 7 13 -2 -10 11 -4 -3 -6
right_child=8 2 10 -5 6 -7 -8 -9 9 -11 -12 -13 -14 -15
leaf_value=-0.015422608533853225 0.023000295681258043 0.0040279819026709856 -0.0014061125031530602 -0.011418987747246596 0.0003404235411066216 0.010612148283919516 -0.0061790447044800627 0.010731226056024711 -0.00041377260069431809 0.018414560256525877 0.0056988240639785186 -0.013604641530089015 -0.0056065353730462772 -0.0087398219010090487
leaf_weight=89 75 634 291 215 571 266 361 87 54 50 101 112 109 126
leaf_count=89 75 634 291 215 571 266 361 87 54 50 101 112 109 126
internal_value=0 -0.000885688 0.00225257 -0.00416256 -0.00289827 0.00472295 -0.00192476 3.41594e-05 0.0146559 0.00863831 -0.00269309 -0.00479627 0.00261457 -0.00130106
internal_weight=0 2962 1513 1449 1234 1009 1145 784 179 104 504 403 743 697
internal_count=3141 2962 1513 1449 1234 1009 1145 784 179 104 504 403 743 697
shrinkage=0.05


Tree=45
num_leaves=15
num_cat=0
split_feature=48 2 22 0 0 3 46 152 0 49 1 196 223 242
split_gain=14.9291 9.35951 5.33596 5.32574 5.37573 5.26523 4.96583 5.68608 4.8641 3.75819 3.47696 3.42764 3.37456 3.16091
threshold=35.500000000000007 2.5000000000000004 1.0000000180025095e-35 44.832356719700009 44.851459308300008 1.5000000000000002 1.0000000180025095e-35 0.12387537840816508 44.841251122150005 490.00000000000006 -0.56861107029999991 0.2660292578653316 0.05070903397093076 1.0000000180025095e-35
decision_type=2 2 2 2 2 2 2 2 2 2 2 2 2 2
left_child=1 3 5 12 9 11 -2 -8 -7 -5 -4 13 -1 -3
right_child=6 2 10 4 -6 8 7 -9 -10 -11 -12 -13 -14 -15
leaf_value=-0.0032545982387808849 0.014657148033309045 -0.00036914696387181883 -0.0012015820504297481 -0.0014801790638276067 -0.0082866448835862885 0.0035786832720721452 -0.0061448017895386065 0.011746231187635693 0.021057933609699833 0.0090479757627184246 -0.015239365125836974 0.011369190080068916 -0.013090277921080804 0.0085363860693433435
leaf_weight=142 202 791 133 672 276 89 85 93 72 97 66 83 226 114
leaf_count=142 202 791 133 672 276 89 85 93 72 97 66 83 226 114
internal_value=0 -0.00127882 0.00170168 -0.00412222 -0.00230061 0.00301085 0.00929167 0.00320276 0.0113955 -0.00015218 -0.00585733 0.00164453 -0.00929499 0.000752655
internal_weight=0 2761 1348 1413 1045 1149 380 178 161 769 199 988 368 905
internal_count=3141 2761 1348 1413 1045 1149 380 178 161 769 199 988 368 905
shrinkage=0.05


Tree=46
num_leaves=15
num_cat=0
split_feature=2 25 15 48 51 152 154 16 50 2 195 5 40 38
split_gain=13.7405 8.07461 7.66549 5.72744 4.76874 4.26144 4.25293 3.94034 4.08561 3.64443 3.26643 3.06753 2.81098 2.62511
threshold=4.5000000000000009 1.0000000180025095e-35 1.0000000180025095e-35 35.500000000000007 4.5000000000000009 1.0000000180025095e-35 1.0000000180025095e-35 1.0000000180025095e-35 1.0000000180025095e-35 7.5000000000000009 0.16124764691191987 1.5000000000000002 1.0000000180025095e-35 1.0000000180025095e-35
decision_type=2 2 2 2 2 2 2 2 2 2 2 2 2 2
left_child=1 2 3 4 6 -4 11 8 13 12 -9 -1 -2 -3
right_child=9 7 5 -5 -6 -7 -8 10 -10 -11 -12 -13 -14 -15
leaf_value=-0.0025828462635244672 0.0038680046705545194 -0.010411940086175622 0.0021214501642120571 0.0088878158095045661 -0.012881677018391879 0.019507067603990437 0.0070087300584974824 -0.0056988755602708323 -0.00092349313518466202 0.017175705201014965 0.0028013315183037595 0.0049516386657499018 0.014917860832740215 -0.023169967593322141
leaf_weight=1154 347 112 65 147 86 77 157 397 73 83 158 153 69 63
leaf_count=1154 347 112 65 147 86 77 157 397 73 83 158 153 69 63
internal_value=0 -0.00143721 0.000389337 -0.00054446 -0.001439 0.0115489 -0.000766826 -0.0056203 -0.0108599 0.00760945 -0.003279 -0.00170084 0.00570079 -0.0150048
internal_weight=0 2642 1839 1697 1550 142 1464 803 248 499 555 1307 416 175
internal_count=3141 2642 1839 1697 1550 142 1464 803 248 499 555 1307 416 175
shrinkage=0.05


Tree=47
num_leaves=15
num_cat=0
split_feature=49 12 20 51 45 124 2 39 6 136 49 45 1 71
split_gain=13.2087 8.68411 7.9507 6.94767 6.23204 6.21175 4.79406 4.15976 5.34222 5.15252 4.08091 3.0384 4.04259 3.30103
threshold=675.00000000000011 1.0000000180025095e-35 1.0000000180025095e-35 4.5000000000000009 26.500000000000004 1.0000000180025095e-35 4.5000000000000009 1.0000000180025095e-35 1.5000000000000002 0.36032595344403467 1275.0000000000002 16.500000000000004 -0.56763293764999989 0.25996792633423332
decision_type=2 2 2 2 2 2 2 2 2 2 2 2 2 2
left_child=1 2 3 11 5 6 7 9 -9 -3 -2 12 13 -1
right_child=10 4 -4 -5 -6 -7 -8 8 -10 -11 -12 -13 -14 -15
leaf_value=-0.0018533101927395359 0.0068794062940425995 0.0054007784156426177 0.010730853040610821 -0.024778159180190416 0.018196894061751664 -0.013065158861060909 0.0069232023961711816 -0.0090754364623821214 -0.00019110103828664637 -0.0095443904816144808 0.020819595533664276 0.0025840482909698041 -0.013324980620026784 -0.011791296598925215
leaf_weight=338 210 457 71 50 50 83 282 210 871 66 70 100 172 111
leaf_count=338 210 457 71 50 50 83 282 210 871 66 70 100 172 111
internal_value=0 -0.00101435 -0.00528 -0.00675441 0.000764594 0.000321925 0.00091107 -0.000145926 -0.00191701 0.00351477 0.0103645 -0.0055045 -0.006807 -0.00431014
internal_weight=0 2861 842 771 2019 1969 1886 1604 1081 523 280 721 621 449
internal_count=3141 2861 842 771 2019 1969 1886 1604 1081 523 280 721 621 449
shrinkage=0.05


Tree=48
num_leaves=15
num_cat=0
split_feature=17 51 48 0 86 26 0 48 21 168 50 4 2 51
split_gain=12.36 8.00281 7.57412 5.88113 5.18236 4.26105 5.65402 4.50348 5.04116 4.82099 4.53173 4.15641 4.07029 6.65502
threshold=1.0000000180025095e-35 6.5000000000000009 23.500000000000004 44.831207004950009 0.34705444122767343 1.0000000180025095e-35 44.834992639300005 1.0000000180025095e-35 1.0000000180025095e-35 0.17139702396755899 1.0000000180025095e-35 2.5000000000000004 2.5000000000000004 1.5000000000000002
decision_type=2 2 2 2 2 2 2 2 2 2 2 2 2 2
left_child=1 2 4 -2 5 6 -1 8 12 -10 -9 -5 -8 -14
right_child=3 -3 -4 11 -6 -7 7 10 9 -11 -12 -13 13 -15
leaf_value=-0.0050325814030223017 -0.0047159336858947597 -0.017976565691738149 0.0048963865087565473 0.0058665215965133704 -0.01351282884781612 -0.011472081669836964 -0.0027549101522176983 -0.0083107032905181139 0.018571586832775131 0.00057841518927099448 0.0027826736279855835 0.016692705107895538 0.01657091952487123 -0.00027140114131863371
leaf_weight=637 110 73 423 475 101 109 318 215 91 63 161 109 91 165
leaf_count=637 110 73 423 475 101 109 318 215 91 63 161 109 91 165
internal_value=0 -0.00167035 -0.00116894 0.00588955 -0.00248397 -0.00188186 -0.00128144 0.000882948 0.00317797 0.0112107 -0.00356061 0.00788716 0.00102284 0.00571552
internal_weight=0 2447 2374 694 1951 1850 1741 1104 728 154 376 584 574 256
internal_count=3141 2447 2374 694 1951 1850 1741 1104 728 154 376 584 574 256
shrinkage=0.05


Tree=49
num_leaves=15
num_cat=0
split_feature=31 12 20 51 17 1 46 8 51 26 186 2 51 0
split_gain=11.6922 10.0519 7.93109 6.61881 6.53771 6.1329 4.57171 4.19477 3.82837 3.77874 3.35586 3.16598 4.45013 3.07579
threshold=1.0000000180025095e-35 1.0000000180025095e-35 1.0000000180025095e-35 4.5000000000000009 1.0000000180025095e-35 -0.5938798301499999 49.500000000000007 1.5000000000000002 5.5000000000000009 1.0000000180025095e-35 0.059668909852363623 4.5000000000000009 1.5000000000000002 44.831769362250007
decision_type=2 2 2 2 2 2 2 2 2 2 2 2 2 2
left_child=1 2 3 10 6 -6 7 -3 9 11 -1 -9 -13 -7
right_child=-2 4 -4 -5 5 13 -8 8 -10 -11 -12 12 -14 -15
leaf_value=-0.0037918622054898747 0.017968235979788007 -0.012523229424171915 0.010226044370550906 -0.024006858320824585 -0.01044123220284853 -0.0020876326375668321 0.012613809465388346 -1.3306094488998653e-05 -0.012418420710450699 -0.0093703863309010076 -0.012567763102391414 0.017818562939785242 0.0014314567504743162 0.0093729703425957361
leaf_weight=602 88 73 77 51 51 68 66 1170 62 95 133 63 121 421
leaf_count=602 88 73 77 51 51 68 66 1170 62 95 133 63 121 421
internal_value=0 -0.000517918 -0.00508825 -0.0065885 0.00128308 0.00605844 -0.000279761 -0.000816993 -0.000251437 0.000269166 -0.00537988 0.0009455 0.00704226 0.00777927
internal_weight=0 3053 863 786 2190 540 1650 1584 1511 1449 735 1354 184 489
internal_count=3141 3053 863 786 2190 540 1650 1584 1511 1449 735 1354 184 489
shrinkage=0.05


Tree=50
num_leaves=15
num_cat=0
split_feature=49 108 25 1 15 12 46 0 2 2 241 47 51 111
split_gain=11.074 8.11731 8.2297 6.43623 5.1745 4.33426 5.94517 4.83249 4.1162 3.84819 3.29197 3.11346 3.46162 3.05053
threshold=940.00000000000011 1.0000000180025095e-35 1.0000000180025095e-35 -0.55832385764999992 1.0000000180025095e-35 1.0000000180025095e-35 1.0000000180025095e-35 44.833042413300007 2.5000000000000004 4.5000000000000009 0.031033971160073687 1.0000000180025095e-35 4.5000000000000009 0.42201377405369922
decision_type=2 2 2 2 2 2 2 2 2 2 2 2 2 2
left_child=1 2 3 4 8 7 9 -4 11 -7 13 12 -1 -10
right_child=-2 -3 5 -5 -6 6 -8 -9 10 -11 -12 -13 -14 -15
leaf_value=0.00036296953122062542 0.012076888224870935 0.017956292490768983 -0.019706467292701785 -0.0092453647458904404 0.010734913403355925 -0.0013093948332842797 -0.0097723402335057226 -0.0056329209832165867 0.0078726702981244626 0.012425108490666997 0.00021335017061711607 -0.0095655476751354794 -0.012793062249181308 -0.0050606813845941083
leaf_weight=675 179 57 92 152 139 340 202 181 370 60 476 112 54 52
leaf_count=675 179 57 92 152 139 340 202 181 370 60 476 112 54 52
internal_value=0 -0.000729832 -0.00109648 0.00065073 0.00145169 -0.00515 -0.00278023 -0.0103757 0.000709675 0.000750781 0.00306379 -0.001804 -0.000611551 0.00627899
internal_weight=0 2962 2905 2030 1878 875 602 273 1739 400 898 841 729 422
internal_count=3141 2962 2905 2030 1878 875 602 273 1739 400 898 841 729 422
shrinkage=0.05


Tree=51
num_leaves=15
num_cat=0
split_feature=31 12 20 45 49 51 8 86 39 6 1 1 136 186
split_gain=10.3484 8.46371 6.94737 6.50721 6.23053 5.81606 4.76711 3.57546 3.32602 4.5432 3.32879 3.63328 3.03248 2.97117
threshold=1.0000000180025095e-35 1.0000000180025095e-35 1.0000000180025095e-35 27.500000000000004 675.00000000000011 4.5000000000000009 1.5000000000000002 0.35902747112658046 1.0000000180025095e-35 1.5000000000000002 -0.57939649929999992 -0.55832385764999992 0.30222328779567448 0.059668909852363623
decision_type=2 2 2 2 2 2 2 2 2 2 2 2 2 2
left_child=1 2 5 4 6 13 -3 8 12 -10 -11 -12 -8 -1
right_child=-2 3 -4 -5 -6 -7 7 -9 9 10 11 -13 -14 -15
leaf_value=-0.003457951194467874 0.016904164791445842 -0.011388294832367037 0.0096521087142022021 0.018641580545450922 0.0088972705308242011 -0.022413091131659481 0.0052097786586122593 -0.010445887081652772 -0.0076791704219459538 -0.0039376047380831041 0.0036397334449421964 -0.0085046574014567729 -0.0068520865900891618 -0.011715546459146894
leaf_weight=602 88 90 77 52 211 51 513 73 193 279 653 68 58 133
leaf_count=602 88 90 77 52 211 51 513 73 193 279 653 68 58 133
internal_value=0 -0.000487247 -0.00468101 0.00116536 0.000740309 -0.00608514 -0.000152851 0.000397607 0.000846345 -0.000655694 0.000699838 0.00249435 0.00398458 -0.00495218
internal_weight=0 3053 863 2190 2138 786 1927 1837 1764 1193 1000 721 571 735
internal_count=3141 3053 863 2190 2138 786 1927 1837 1764 1193 1000 721 571 735
shrinkage=0.05


Tree=52
num_leaves=15
num_cat=0
split_feature=48 47 2 47 2 47 48 15 192 1 187 191 210 15
split_gain=9.6531 7.56066 8.4748 7.11053 4.81933 3.73047 4.32756 3.3515 3.22145 3.58588 2.96169 4.45522 3.31306 3.67908
threshold=62.500000000000007 1.0000000180025095e-35 2.5000000000000004 9.5000000000000018 1.5000000000000002 18.500000000000004 1.0000000180025095e-35 1.0000000180025095e-35 0.10161940724678825 -0.55796123089999983 0.23903224262269651 0.13117876950245688 1.0000000180025095e-35 1.0000000180025095e-35
decision_type=2 2 2 2 2 2 2 2 2 2 2 2 2 2
left_child=1 2 4 -3 -1 -5 -7 -6 9 10 11 12 13 -4
right_child=-2 3 8 5 7 6 -8 -9 -10 -11 -12 -13 -14 -15
leaf_value=-0.013062357781140994 0.016929814260646065 -0.013465555454089784 0.0046212796988815757 -0.0045004396326727173 -0.0016912771355300821 0.015710545301304332 -0.0019553487508936407 0.009306715642152406 -0.00428431840373738 -0.0058019680222163783 0.016775605937276603 -0.0030988993194221298 0.018342101743052664 0.018139466347003527
leaf_weight=89 82 181 593 413 1084 56 91 74 101 70 59 136 57 55
leaf_count=89 82 181 593 413 1084 56 91 74 101 70 59 136 57 55
internal_value=0 -0.000453823 0.000951617 -0.00485033 -0.0018502 -0.00206576 0.00477452 -0.000988469 0.00421386 0.00509872 0.00594656 0.00518685 0.00678523 0.00576866
internal_weight=0 3059 2318 741 1247 560 147 1158 1071 970 900 841 705 648
internal_count=3141 3059 2318 741 1247 560 147 1158 1071 970 900 841 705 648
shrinkage=0.05


Tree=53
num_leaves=15
num_cat=0
split_feature=49 47 2 47 2 204 7 168 49 51 45 45 46 72
split_gain=8.82402 6.59142 7.20281 6.02709 4.3017 3.95568 3.62809 4.6364 4.04159 3.58888 3.22456 3.06315 2.80761 2.51765
threshold=1275.0000000000002 1.0000000180025095e-35 2.5000000000000004 9.5000000000000018 1.5000000000000002 0.094754652244522716 2.5000000000000004 0.12440336165147468 135.00000000000003 1.5000000000000002 1.5000000000000002 5.5000000000000009 5.5000000000000009 0.31220035796994711
decision_type=2 2 2 2 2 2 2 2 2 2 2 2 2 2
left_child=1 2 4 -3 -1 10 8 13 -6 -4 -5 12 -11 -8
right_child=-2 3 9 5 6 -7 7 -9 -10 11 -12 -13 -14 -15
leaf_value=-0.012195734789646749 0.017553360228360234 -0.012364773480145292 0.0086386631669760176 -0.013146625462893361 -0.0049650026351994699 0.0018738523326277162 0.020530414083972576 -0.0039992540290145441 0.001489359201520732 0.00066394873069999881 -0.0017851670261006805 0.0052896915865549704 -0.011916672662996196 0.0050941735115234872
leaf_weight=90 70 183 293 107 536 310 50 73 443 340 150 389 51 56
leaf_count=90 70 183 293 107 536 310 50 73 443 340 150 389 51 56
internal_value=0 -0.000400109 0.000916669 -0.0044751 -0.00166604 -0.00192869 -0.000847674 0.00569748 -0.00204439 0.00392061 -0.00651542 0.00214831 -0.000977002 0.0123754
internal_weight=0 3071 2321 750 1248 567 1158 179 979 1073 257 780 391 106
internal_count=3141 3071 2321 750 1248 567 1158 179 979 1073 257 780 391 106
shrinkage=0.05


Tree=54
num_leaves=15
num_cat=0
split_feature=31 0 17 51 86 45 49 51 57 153 47 152 195 20
split_gain=8.90653 7.71804 6.40191 5.16585 4.79085 5.90535 4.86802 4.31018 3.77569 2.84627 2.58496 2.89723 2.65573 2.56407
threshold=1.0000000180025095e-35 44.834162788650005 1.0000000180025095e-35 3.5000000000000004 0.35902747112658046 15.500000000000002 490.00000000000006 1.5000000000000002 0.36557495031936765 0.25879107938515472 1.0000000180025095e-35 0.28438036424793395 0.072201709977842032 1.0000000180025095e-35
decision_type=2 2 2 2 2 2 2 2 2 2 2 2 2 2
left_child=1 3 4 8 5 6 13 -8 9 10 11 -1 -12 -3
right_child=-2 2 -4 -5 -6 -7 7 -9 -10 -11 12 -13 -14 -15
leaf_value=-0.00053238075750285791 0.015682395292573016 -0.0034949330406953347 0.006215551086280185 -0.01445128853954033 -0.011637242916251789 0.0080214937798532282 0.017809865560001609 0.0018869211440308291 -0.016197167534381152 -0.012585549382887529 -0.00092572146436063264 0.011620034400204366 -0.012122552145913405 0.0028566775884306464
leaf_weight=453 88 878 493 109 88 216 55 187 50 59 123 55 93 194
leaf_count=453 88 878 493 109 88 216 55 187 50 59 123 55 93 194
internal_value=0 -0.000452031 0.00122732 -0.00421542 -0.000292579 0.000359924 -0.000899512 0.00550577 -0.00287603 -0.00202538 -0.00116482 0.000783333 -0.00574658 -0.00234548
internal_weight=0 3053 2111 942 1618 1530 1314 242 833 783 724 508 216 1072
internal_count=3141 3053 2111 942 1618 1530 1314 242 833 783 724 508 216 1072
shrinkage=0.05


Tree=55
num_leaves=15
num_cat=0
split_feature=48 17 51 15 45 0 1 1 26 154 205 48 20 0
split_gain=8.1623 6.26266 5.42543 5.15908 4.16403 4.10485 4.83248 3.54345 3.5414 3.33508 3.09769 3.03888 2.57053 2.63996
threshold=62.500000000000007 1.0000000180025095e-35 5.5000000000000009 1.0000000180025095e-35 10.500000000000002 44.829243161100003 -0.59431189959999986 -0.56653553764999998 1.0000000180025095e-35 0.012318997167716747 0.25920812066106497 23.500000000000004 1.0000000180025095e-35 44.851459308300008
decision_type=2 2 2 2 2 2 2 2 2 2 2 2 2 2
left_child=1 2 3 7 -5 -3 -7 8 9 10 12 -9 13 -1
right_child=-2 5 -4 4 -6 6 -8 11 -10 -11 -12 -13 -14 -15
leaf_value=-0.0012918967692935662 0.015567723832025036 -0.0065140928111959073 -0.012651619059472997 0.0016658617063917012 0.018369831216394933 -0.0078400706521189606 0.0070571942879655491 -0.0076059462230908363 -0.010187719761829903 0.0070588097053890424 0.0098524537323100968 0.0051254832263415064 0.0034004391056426269 -0.0076520952794891907
leaf_weight=999 82 82 106 108 57 61 506 355 94 144 64 54 234 195
leaf_count=999 82 82 106 108 57 61 506 355 94 144 64 54 234 195
internal_value=0 -0.000417311 -0.00159133 -0.00108247 0.00743632 0.00394228 0.00545449 -0.00173961 -0.000750104 -0.000207845 -0.000909185 -0.00592502 -0.0013915 -0.00233062
internal_weight=0 3059 2410 2304 165 649 567 2139 1730 1636 1492 409 1428 1194
internal_count=3141 3059 2410 2304 165 649 567 2139 1730 1636 1492 409 1428 1194
shrinkage=0.05


Tree=56
num_leaves=15
num_cat=0
split_feature=31 0 49 12 45 26 0 39 136 6 54 152 20 164
split_gain=7.94632 6.69806 5.86596 4.88651 4.46473 4.27406 3.1603 3.91191 3.48897 2.68407 4.52784 2.39152 2.17051 3.10806
threshold=1.0000000180025095e-35 44.834162788650005 675.00000000000011 1.0000000180025095e-35 27.500000000000004 1.0000000180025095e-35 44.85218766065001 1.0000000180025095e-35 0.42165009692352867 1.5000000000000002 0.23224685133073963 0.28438036424793395 1.0000000180025095e-35 0.1669109119041369
decision_type=2 2 2 2 2 2 2 2 2 2 2 2 2 2
left_child=1 3 4 -1 5 6 8 -8 12 -9 -11 -5 -3 -14
right_child=-2 2 -4 11 -6 -7 7 9 -10 10 -12 -13 13 -15
leaf_value=-0.0089299002870547109 0.014812937231115278 0.0013204394631913484 0.0092179510893823195 -0.0025070234989420671 0.015021800216287374 -0.0094986914989963322 0.0037565895402461623 -0.01369182376604941 -0.007471938639112826 0.0014769461672668432 -0.015085762920628848 0.0069087846156258084 0.0035627172331922485 0.016665658504091973
leaf_weight=322 88 957 203 543 50 114 136 90 96 143 58 77 206 58
leaf_count=322 88 957 203 543 50 114 136 90 96 143 58 77 206 58
internal_value=0 -0.00042697 0.00113748 -0.00393287 0.000277769 -0.000119003 0.000494119 -0.00324389 0.00170606 -0.00651558 -0.00330234 -0.00133764 0.00242767 0.00644139
internal_weight=0 3053 2111 942 1908 1858 1744 427 1317 291 201 620 1221 264
internal_count=3141 3053 2111 942 1908 1858 1744 427 1317 291 201 620 1221 264
shrinkage=0.05


Tree=57
num_leaves=15
num_cat=0
split_feature=31 12 20 124 136 6 187 225 0 49 47 0 233 46
split_gain=7.17156 6.14389 5.41602 4.20287 4.14997 4.31656 3.05374 2.91734 2.78127 3.45147 3.37429 3.23951 2.75743 2.35329
threshold=1.0000000180025095e-35 1.0000000180025095e-35 1.0000000180025095e-35 1.0000000180025095e-35 0.35232161735186696 1.5000000000000002 0.28159846061719168 1.0000000180025095e-35 44.835134806550009 165.00000000000003 1.0000000180025095e-35 44.853588140000006 0.15425677049779926 1.0000000180025095e-35
decision_type=2 2 2 2 2 2 2 2 2 2 2 2 2 2
left_child=1 2 8 4 5 -3 7 12 9 10 -1 -10 13 -7
right_child=-2 3 -4 -5 -6 6 -8 -9 11 -11 -12 -13 -14 -15
leaf_value=-0.0088183781592284932 0.014072290303143251 -0.0030008356418470225 0.0086765306146041332 -0.0096399718330482422 -0.0059418987133540218 0.0045791797135965803 0.015374935433268547 0.013185476086174068 -0.00047900754870266749 -0.0012584028487271142 -0.023267832670782536 -0.010657909946516157 -0.0056543957922840496 0.00032268490322719307
leaf_weight=170 88 339 77 89 174 846 50 65 358 105 53 100 100 527
leaf_count=170 88 339 77 89 174 846 50 65 358 105 53 100 100 527
internal_value=0 -0.000405621 -0.00397872 0.00100241 0.00145323 0.00212098 0.00321436 0.00281902 -0.00521848 -0.00873308 -0.0122526 -0.00270148 0.00236158 0.0029454
internal_weight=0 3053 863 2190 2101 1927 1588 1538 786 328 223 458 1473 1373
internal_count=3141 3053 863 2190 2101 1927 1588 1538 786 328 223 458 1473 1373
shrinkage=0.05


Tree=58
num_leaves=15
num_cat=0
split_feature=49 108 48 1 46 46 48 48 49 7 16 6 0 136
split_gain=6.79306 5.63271 4.91765 5.29697 4.69839 4.73219 3.65317 4.93141 4.50377 4.79617 7.92206 5.95967 3.2403 3.1179
threshold=1275.0000000000002 1.0000000180025095e-35 23.500000000000004 -0.56653553764999998 47.500000000000007 1.0000000180025095e-35 1.0000000180025095e-35 8.5000000000000018 265.00000000000006 1.0000000180025095e-35 1.0000000180025095e-35 1.5000000000000002 44.840508092350007 0.43035625795488069
decision_type=2 2 2 2 2 2 2 2 2 2 2 2 2 2
left_child=1 2 3 6 5 -4 8 -8 9 11 -11 -1 -12 -13
right_child=-2 -3 4 -5 -6 -7 7 -9 -10 10 12 13 -14 -15
leaf_value=-0.0092998899147690578 0.015401382032515749 0.014445384722080595 0.006080445565602526 -0.0065136766144773504 0.017815649999743877 -0.0030041733606793416 -0.012200483412103714 -0.0013788127076828226 0.006231843210551649 0.01790773671056654 -0.0107589626767884 0.001814478138027222 0.0064155065529224167 -0.009414596593951885
leaf_weight=225 70 63 318 461 51 261 133 505 311 84 57 478 53 71
leaf_count=225 70 63 318 461 51 261 133 505 311 84 57 478 53 71
internal_value=0 -0.000351057 -0.000660956 -0.00170153 0.00326681 0.00198531 -0.00054431 -0.00363474 0.000997282 -0.000684484 0.00634542 -0.0024465 -0.00248399 0.000362266
internal_weight=0 3071 3008 2378 630 579 1917 638 1279 968 194 774 110 549
internal_count=3141 3071 3008 2378 630 579 1917 638 1279 968 194 774 110 549
shrinkage=0.05


Tree=59
num_leaves=15
num_cat=0
split_feature=48 47 2 47 48 2 51 47 45 7 241 45 12 177
split_gain=6.39882 5.68952 5.48727 5.29921 3.99885 3.4553 3.20237 2.91875 2.82571 2.57161 4.30693 2.29781 2.24165 2.76406
threshold=62.500000000000007 1.0000000180025095e-35 2.5000000000000004 18.500000000000004 1.0000000180025095e-35 1.5000000000000002 1.5000000000000002 9.5000000000000018 11.500000000000002 2.5000000000000004 0.12616516197156713 1.5000000000000002 1.0000000180025095e-35 0.089884029150587408
decision_type=2 2 2 2 2 2 2 2 2 2 2 2 2 2
left_child=1 2 5 7 -5 -1 -4 -3 -8 12 -11 -9 13 -7
right_child=-2 3 6 4 -6 9 8 11 -10 10 -12 -13 -14 -15
leaf_value=-0.010898592079847528 0.013783790319362974 -0.011581139517463236 0.0079403860359739727 0.01482878033194928 -0.0021529383798754151 -0.0013240942742586846 -0.00031219779748391089 -0.0087288920493992228 0.0060925299836936909 0.01032993233390446 -0.0061921354288519449 -0.0010458638756745131 -0.00015179712657080582 -0.011359137576876274
leaf_weight=89 82 181 292 56 91 168 522 157 257 119 59 256 696 116
leaf_count=89 82 181 292 56 91 168 522 157 257 119 59 256 696 116
internal_value=0 -0.00036949 0.000849697 -0.00418336 0.00431629 -0.00140482 0.0034747 -0.00628681 0.00180079 -0.000675158 0.00485352 -0.00396653 -0.00167935 -0.00542291
internal_weight=0 3059 2318 741 147 1247 1071 594 779 1158 178 413 980 284
internal_count=3141 3059 2318 741 147 1247 1071 594 779 1158 178 413 980 284
shrinkage=0.05


Tree=60
num_leaves=15
num_cat=0
split_feature=17 51 45 154 38 7 6 5 7 24 46 4 1 203
split_gain=6.28463 5.12598 4.23907 4.46278 3.44417 5.11199 3.53479 3.29141 3.18833 3.4567 3.66225 2.88647 2.86904 2.79966
threshold=1.0000000180025095e-35 6.5000000000000009 14.500000000000002 0.012318997167716747 1.0000000180025095e-35 2.5000000000000004 1.5000000000000002 1.0000000180025095e-35 8.5000000000000018 1.0000000180025095e-35 1.0000000180025095e-35 1.0000000180025095e-35 -0.5594787041999999 0.27257418276660222
decision_type=2 2 2 2 2 2 2 2 2 2 2 2 2 2
left_child=1 2 3 4 5 6 -1 -7 9 10 -6 -8 -13 -2
right_child=13 -3 -4 -5 8 7 11 -9 -10 -11 -12 12 -14 -15
leaf_value=-0.0087321153811049899 0.0050940307591568167 -0.014241375654859291 0.003067002902507672 0.0063454622284027963 -0.00014608501059882031 0.0020913473683266113 -0.0078833775848518913 0.016330835044036731 -0.014399481763724575 -0.016696001449599863 -0.0094642360185583432 0.0018555601971220166 -0.010603082322460764 -0.0070765733344516912
leaf_weight=182 643 73 548 149 355 130 120 59 88 50 150 492 51 51
leaf_count=182 643 73 548 149 355 130 120 59 88 50 150 492 51 51
internal_value=0 -0.00119107 -0.000789779 -0.00194724 -0.00268404 -0.000897174 -0.00255985 0.00653648 -0.00555747 -0.00415549 -0.00291385 -0.000865501 0.000685411 0.00419965
internal_weight=0 2447 2374 1826 1677 1034 845 189 643 555 505 663 543 694
internal_count=3141 2447 2374 1826 1677 1034 845 189 643 555 505 663 543 694
shrinkage=0.05


Tree=61
num_leaves=15
num_cat=0
split_feature=31 25 45 1 1 12 2 187 47 45 192 4 204 225
split_gain=6.07611 5.15383 5.75494 4.50936 5.09429 3.57306 3.73183 3.30611 3.55567 3.48375 3.19489 2.76466 2.74103 2.63312
threshold=1.0000000180025095e-35 1.0000000180025095e-35 28.500000000000004 -0.59528171379999983 -0.55832385764999992 1.0000000180025095e-35 4.5000000000000009 0.23559631727562 1.0000000180025095e-35 8.5000000000000018 0.079337995346745072 1.0000000180025095e-35 0.1255061486634054 1.0000000180025095e-35
decision_type=2 2 2 2 2 2 2 2 2 2 2 2 2 2
left_child=1 2 3 -1 7 -3 -7 8 10 12 11 -5 -10 -13
right_child=-2 5 -4 4 -6 6 -8 -9 9 -11 -12 13 -14 -15
leaf_value=-0.0074026595900493972 0.012953016054598266 -0.0082797770630850861 0.017556439176676611 -0.0023371136226342059 -0.007490925655803074 -0.0030488375215799823 0.0078483912015698196 0.0095406450965413968 -0.014162067663115029 0.0017024471939258352 -0.0046596489913229436 0.0039530180497224336 -0.0019753785506274896 0.015524814703027147
leaf_weight=164 88 276 51 170 154 538 92 134 88 204 133 900 97 52
leaf_count=164 88 276 51 170 154 538 92 134 88 204 133 900 97 52
internal_value=0 -0.000373359 0.000961144 0.000557346 0.00123304 -0.00353581 -0.0014575 0.00198866 0.00137311 -0.00280353 0.0026677 0.00353627 -0.00777229 0.00458509
internal_weight=0 3053 2147 2096 1932 906 630 1778 1644 389 1255 1122 185 952
internal_count=3141 3053 2147 2096 1932 906 630 1778 1644 389 1255 1122 185 952
shrinkage=0.05


Tree=62
num_leaves=15
num_cat=0
split_feature=108 49 25 1 46 12 15 1 7 0 0 16 49 187
split_gain=5.5826 5.36752 5.71469 4.1898 3.49177 3.95652 3.32376 3.36358 4.36536 6.60815 3.01134 3.40864 3.23791 3.10314
threshold=1.0000000180025095e-35 940.00000000000011 1.0000000180025095e-35 -0.55832385764999992 5.5000000000000009 1.0000000180025095e-35 1.0000000180025095e-35 -0.58039239879999993 2.5000000000000004 44.846949759900006 44.831207004950009 1.0000000180025095e-35 135.00000000000003 0.24741637506380151
decision_type=2 2 2 2 2 2 2 2 2 2 2 2 2 2
left_child=1 2 3 6 5 -4 7 8 -1 -10 -9 12 -12 -13
right_child=-2 -3 4 -5 -6 -7 -8 10 9 -11 11 13 -14 -15
leaf_value=-0.0059935745384968589 0.014170368690461413 0.0083759217748593084 -0.0080727214790860449 -0.0073445712918232611 -0.0087266834985826672 0.00076922465745290678 0.0087262232893434693 -0.0024791088743021839 0.012374065300779573 -0.0080871114312712818 -0.0066283738614133685 0.0043120903730419586 0.0040880956042474914 0.01640792979963188
leaf_weight=339 68 168 184 152 286 405 139 279 96 67 139 618 143 58
leaf_count=339 68 168 184 152 286 405 139 279 96 67 139 618 143 58
internal_value=0 -0.000313565 -0.000816089 0.00063987 -0.00419392 -0.00199295 0.00128611 0.000691412 -0.00276045 0.00396364 0.00209225 0.00342358 -0.00119414 0.0053499
internal_weight=0 3073 2905 2030 875 589 1878 1739 502 163 1237 958 282 676
internal_count=3141 3073 2905 2030 875 589 1878 1739 502 163 1237 958 282 676
shrinkage=0.05


Tree=63
num_leaves=15
num_cat=0
split_feature=31 0 86 51 49 1 1 7 57 47 0 136 17 41
split_gain=5.37291 5.017 4.49803 4.38958 4.17697 3.39611 3.73886 3.80311 3.10389 2.54712 3.58139 3.03489 2.54107 2.76328
threshold=1.0000000180025095e-35 44.834162788650005 0.35902747112658046 3.5000000000000004 940.00000000000011 -0.56035940164999987 -0.59528171379999983 2.5000000000000004 0.36557495031936765 1.0000000180025095e-35 44.850206812600007 0.35657918616923084 1.0000000180025095e-35 1.0000000180025095e-35
decision_type=2 2 2 2 2 2 2 2 2 2 2 2 2 2
left_child=1 3 4 8 5 6 7 -3 -1 11 -11 12 13 -8
right_child=-2 2 -4 -5 -6 -7 9 -9 -10 10 -12 -13 -14 -15
leaf_value=-0.0013793875228915137 0.012180442967854272 -0.012693717511071043 -0.0091360890594212561 -0.012820821927663862 0.010654725557512811 -0.005740144736469225 0.0039452902333228469 0.00329247273845025 -0.014228702092543245 0.0017692775247102688 -0.0093132217124215159 -0.0040793588396627464 0.0087218643341213462 -0.0055689500852981041
leaf_weight=783 88 87 104 109 118 172 747 65 50 262 101 120 250 85
leaf_count=783 88 87 104 109 118 172 747 65 50 262 101 120 250 85
internal_value=0 -0.00035109 0.00100288 -0.00338531 0.00152827 0.000958169 0.00162917 -0.00585752 -0.00215065 0.00235631 -0.00131428 0.00346482 0.00430151 0.00297328
internal_weight=0 3053 2111 942 2007 1889 1717 152 833 1565 363 1202 1082 832
internal_count=3141 3053 2111 942 2007 1889 1717 152 833 1565 363 1202 1082 832
shrinkage=0.05


Tree=64
num_leaves=15
