tree
version=v3
num_class=1
num_tree_per_iteration=1
label_index=0
max_feature_idx=251
objective=regression
feature_names=Column_0 Column_1 Column_2 Column_3 Column_4 Column_5 Column_6 Column_7 Column_8 Column_9 Column_10 Column_11 Column_12 Column_13 Column_14 Column_15 Column_16 Column_17 Column_18 Column_19 Column_20 Column_21 Column_22 Column_23 Column_24 Column_25 Column_26 Column_27 Column_28 Column_29 Column_30 Column_31 Column_32 Column_33 Column_34 Column_35 Column_36 Column_37 Column_38 Column_39 Column_40 Column_41 Column_42 Column_43 Column_44 Column_45 Column_46 Column_47 Column_48 Column_49 Column_50 Column_51 Column_52 Column_53 Column_54 Column_55 Column_56 Column_57 Column_58 Column_59 Column_60 Column_61 Column_62 Column_63 Column_64 Column_65 Column_66 Column_67 Column_68 Column_69 Column_70 Column_71 Column_72 Column_73 Column_74 Column_75 Column_76 Column_77 Column_78 Column_79 Column_80 Column_81 Column_82 Column_83 Column_84 Column_85 Column_86 Column_87 Column_88 Column_89 Column_90 Column_91 Column_92 Column_93 Column_94 Column_95 Column_96 Column_97 Column_98 Column_99 Column_100 Column_101 Column_102 Column_103 Column_104 Column_105 Column_106 Column_107 Column_108 Column_109 Column_110 Column_111 Column_112 Column_113 Column_114 Column_115 Column_116 Column_117 Column_118 Column_119 Column_120 Column_121 Column_122 Column_123 Column_124 Column_125 Column_126 Column_127 Column_128 Column_129 Column_130 Column_131 Column_132 Column_133 Column_134 Column_135 Column_136 Column_137 Column_138 Column_139 Column_140 Column_141 Column_142 Column_143 Column_144 Column_145 Column_146 Column_147 Column_148 Column_149 Column_150 Column_151 Column_152 Column_153 Column_154 Column_155 Column_156 Column_157 Column_158 Column_159 Column_160 Column_161 Column_162 Column_163 Column_164 Column_165 Column_166 Column_167 Column_168 Column_169 Column_170 Column_171 Column_172 Column_173 Column_174 Column_175 Column_176 Column_177 Column_178 Column_179 Column_180 Column_181 Column_182 Column_183 Column_184 Column_185 Column_186 Column_187 Column_188 Column_189 Column_190 Column_191 Column_192 Column_193 Column_194 Column_195 Column_196 Column_197 Column_198 Column_199 Column_200 Column_201 Column_202 Column_203 Column_204 Column_205 Column_206 Column_207 Column_208 Column_209 Column_210 Column_211 Column_212 Column_213 Column_214 Column_215 Column_216 Column_217 Column_218 Column_219 Column_220 Column_221 Column_222 Column_223 Column_224 Column_225 Column_226 Column_227 Column_228 Column_229 Column_230 Column_231 Column_232 Column_233 Column_234 Column_235 Column_236 Column_237 Column_238 Column_239 Column_240 Column_241 Column_242 Column_243 Column_244 Column_245 Column_246 Column_247 Column_248 Column_249 Column_250 Column_251
feature_infos=[44.811244963599997:44.885275470100005] [-0.63688293559999998:-0.53869390569999998] [1:16] [0:35] [0:10] [0:7] [0:2] [0:10] [0:2] none [0:1] [0:1] [0:1] [0:1] [0:1] [0:1] [0:1] [0:1] [0:1] [0:1] [0:1] [0:1] [0:1] [0:1] [0:1] [0:1] [0:1] [0:1] [0:1] [0:1] none [0:1] none none [0:1] [0:1] [0:1] [0:1] [0:1] [0:1] [0:1] [0:1] [0:1] [0:1] [0:1] [0:69] [0:75] [0:100] [0:200] [0:4501] [0:2] [1:27] none none [0:1] [0:1] none none [0:1] [0:0.86039667789230001] [0:1] none none [0:0.84275462545422763] [0:0.86977666382559449] [0:0.90156852836112589] none [0:1] none none [0:1] none none [0:1] [0:1] [0:1] [0:1] none [0:1] [0:1] none [0:1] none [0:1] [0:0.81802447526609967] [0:0.84475786379172901] [0:1] none [0:1] [0:1] none [0:1] [0:1] none none none [0:0.83489172373818565] [0:1] none [0:0.88437752553751725] [0:0.87054795908652582] [0:1] [0:1] none [0:0.90310783936610683] none [0:1] [0:1] none [0:1] [0:1] [0:1] [0:1] [0:0.7227721107069629] none [0:1] none none none none none [0:0.85274842394520911] none [0:0.90087750868039285] [0:0.86514581738526586] none none [0:0.88719807276086038] none none none [0:1] none none none [0:0.90056064022730764] [0:1] none [0:0.88165821069383643] none [0:1] [0:1] none [0:1] none none none none none [0:0.82380155157567359] [0:0.8925882817933869] none [0:0.68843558045935194] [0:0.68506454112913207] [0:0.53118525136971995] [0:0.51133607528244329] [0:0.59666444820615328] [0:0.66655379882761512] [0:0.58739358237767958] [0:0.57343659706492434] [0:0.68565326195060894] [0:0.74737333396288508] [0:0.4822501968570278] [0:1] [0:1] [0:0.44149777909509424] [0:0.62496453183985645] [0:0.72467715018148604] none [0:0.46780433886280159] [0:0.68756661851932155] [0:0.89037274480305773] [0:0.77930398802512957] none [0:0.64974825807057368] [0:0.5405356245889118] [0:0.63432236096671857] [0:0.47824173284106747] [0:0.48142654669755108] [0:0.66458951967365576] [0:0.79430760553647206] [0:0.5076547735048722] [0:0.69969943829403403] [0:0.47101709031138639] [0:0.80415465866302438] [0:0.48166658941573226] [0:0.78778050081185269] [0:0.59466393267328488] [0:0.38382364737429592] [0:0.76761388432100186] [0:1] [0:0.93799466528872233] [0:0.43831786071323753] [0:0.84934305499419915] [0:0.71142269247837997] [0:0.92933937796282484] [0:0.52066397852873225] [0:0.45356668184997406] [0:0.70240244963761955] [0:0.75868306036050182] [0:0.85845994770034029] [0:0.71663860203426821] [0:1] [0:0.68386841848926949] [0:0.53324749936780103] [0:0.41207107063666021] none [0:1] [0:0.78621743494005825] [0:0.56280585318476295] [0:0.74625020707642664] [0:0.65572531495269371] [0:0.53774922207332709] [0:0.50748434199639114] [0:0.43697425331550477] [0:0.90557225323518131] none [0:1] [0:0.72428750676034259] [0:0.76670728146255507] [0:0.73904340843809957] [0:0.62975832306209356] [0:0.7314026407980222] [0:0.87159838582516658] [0:1] [0:0.57630198242607344] [0:0.66776699571385012] [0:0.58072195899703338] [0:0.70724400826898348] none [0:0.86234475237956942] [0:1] [0:0.72137857667369565] [0:0.65750622858499541] [0:0.51142699527620572] [0:1] [0:0.81136642154422989] none [0:0.44642187979346359] [0:0.61503397839301732] [0:0.66480628765060323] [0:0.52088246654537695] [0:0.83330481459904648] [0:0.61777455668915016] [0:0.90819702632947086] [0:0.48100738871918503] [0:0.57616131513823798] [0:0.56847600376978424] [0:0.61893965435585374] [0:1] [0:0.62478565264478603] [0:0.92557858880355237]
tree_sizes=1435 1425 1434 1440 1427 1436 1425 1436 1436 1427 1423 1432 1450 1443 1446 1428 1438 1442 1445 1441 1438 1435 1447 1436 1439 1435 1433 1437 1445 1448 1453 1455 1450 1449 1444 1444 1450 1449 1455 1446 1456 1442 1456 1455 1460 1451 1467 1449 1448 1471 1439 1491 1467 1475 1458 1465 1473 1465 1441 1478 1454 1481 1481 1481 1458 1468 1471 1482 1457 1464 1475 1473 1465 1476 1471 1481 1477 1488 1488 1466 1468 1478 1476 1486 1472 1476 1488 1472 1466 1471 1493 1468 1464 1466 1486 1489 1484 1472 1469 1491 1473 1476 1466 1472 1466 1463 1472 1475 1479 1480 1470 1483 1473 1464 1470 1490 1478 1470 1462 1469 1497 1485 1472 1477 1470 1480 1486 1476 1492 1489 1479 1475 1485 1492 1489 1467 1476 1468 1471 1487 1491 1478 1484 1479 1466 1478 1476 1480 1453 1484 1482 1482 1489 1487 1502 1476 1481 1501 1474 1477 1473 1465 1478 1487 1478 1498 1486 1477 1493 1468 1473 1514 1494 1481 1486 1488 1480 1473 1489 1468 1491 1455 1485 1480 1486 1479 1478 1467 1489 1488 1494 1469 1487 1486 1477 1482 1480 1499 1477 1483 1470 1467 1487 1475 1491 1490 1472 1493 1468 1466 1484 1490 1489 1490 1466 1498 1504 1499 1489 1483 1490 1481 1482 1476 1471 1491 1486 1480 1479 1486 1475 1480 1486 1479 1472 1491 1477 1482 1484 1474 1499 1458 1474 1487 1498 1480 1498 1463 1484 1493 1478 1491 1482 1493 1501 1475 1482 1498 1494 1478 1488 1473 1477 1485 1467 1474 1472 1494 1489 1475 1478 1474 1481 1469 1477 1483 1488 1487 1491 1461

Tree=0
num_leaves=15
num_cat=0
split_feature=4 6 3 4 4 10 49 49 49 0 7 48 48 178
split_gain=1079.35 212.147 156.187 54.2055 41.6848 36.7502 28.7368 28.4107 23.4322 22.6699 16.9408 14.68 13.8767 9.3975
threshold=1.5000000000000002 1.5000000000000002 1.5000000000000002 1.0000000180025095e-35 3.5000000000000004 1.0000000180025095e-35 675.00000000000011 465.00000000000006 675.00000000000011 44.832776447950003 1.0000000180025095e-35 24.500000000000004 28.500000000000004 0.16019543335062833
decision_type=2 2 2 2 2 2 2 2 2 2 2 2 2 2
left_child=1 5 7 11 8 10 9 13 -4 -5 -1 -3 -11 -2
right_child=2 3 4 6 -6 -7 -8 -9 -10 12 -12 -13 -14 -15
leaf_value=-0.040905311096594621 0.017843898939098754 -0.030193243175105473 0.054034004824197811 -0.016376095420078545 0.10541388624240966 -0.045480003664176372 0.026755514472200665 0.047769759491411955 0.088753894917985396 -0.0032546004175725085 -0.0069627521955135429 -0.0014028709265385274 0.013393720278153838 0.03581275843788808
leaf_weight=56 237 269 154 295 89 583 79 183 71 709 107 53 152 105
leaf_count=56 237 269 154 295 89 583 79 183 71 709 107 53 152 105
internal_value=-2.57937e-09 -0.0176882 0.0485528 -0.00718386 0.0764478 -0.039612 -0.00242019 0.031869 0.0649901 -0.00441403 -0.018624 -0.0254545 -0.000315524 0.0233607
internal_weight=0 2303 839 1557 314 746 1235 525 225 1156 163 322 861 342
internal_count=3142 2303 839 1557 314 746 1235 525 225 1156 163 322 861 342
shrinkage=1


Tree=1
num_leaves=15
num_cat=0
split_feature=4 6 3 136 2 10 49 49 49 2 2 0 47 2
split_gain=974.115 191.463 140.958 60.3979 51.4585 33.1671 27.8392 25.6406 18.6224 15.2611 12.868 11.4933 9.8844 14.4321
threshold=1.5000000000000002 1.5000000000000002 1.5000000000000002 1.0000000180025095e-35 7.5000000000000009 1.0000000180025095e-35 372.00000000000006 465.00000000000006 775.00000000000011 2.5000000000000004 2.5000000000000004 44.832212049000013 1.0000000180025095e-35 1.5000000000000002
decision_type=2 2 2 2 2 2 2 2 2 2 2 2 2 2
left_child=1 5 7 6 8 -1 10 -2 -4 12 -3 -8 13 -7
right_child=2 3 4 -5 -6 9 11 -9 -10 -11 -12 -13 -14 -15
leaf_value=-0.017692796248325541 0.022192624199329415 -0.013194306936274443 0.052628625545185062 -0.028568944305814099 0.10907756011631038 -0.066637306156403883 -0.011251025318199675 0.045381273215260011 0.083536864904796379 -0.021989578849359141 -0.0013179504750187258 0.012765549046926027 -0.057491982737424931 -0.037973118056484234
leaf_weight=163 342 444 172 265 74 51 59 183 68 74 469 320 142 316
leaf_count=163 342 444 172 265 74 51 59 183 68 74 469 320 142 316
internal_value=0 -0.0168037 0.0461252 -0.00682466 0.0726254 -0.0376314 -0.00236473 0.0302755 0.061386 -0.043206 -0.00709353 0.00902682 -0.0462905 -0.0419564
internal_weight=0 2303 839 1557 314 746 1292 525 240 583 913 379 509 367
internal_count=3142 2303 839 1557 314 746 1292 525 240 583 913 379 509 367
shrinkage=0.05


Tree=2
num_leaves=15
num_cat=0
split_feature=4 3 2 48 2 74 25 48 136 154 2 17 2 7
split_gain=879.139 127.215 116.972 56.1866 46.4413 36.7097 17.3199 16.8472 12.5817 10.7062 10.2541 9.21016 7.84636 7.79864
threshold=1.5000000000000002 1.5000000000000002 2.5000000000000004 24.500000000000004 7.5000000000000009 1.0000000180025095e-35 1.0000000180025095e-35 38.000000000000007 1.0000000180025095e-35 1.0000000180025095e-35 5.5000000000000009 1.0000000180025095e-35 3.5000000000000004 1.5000000000000002
decision_type=2 2 2 2 2 2 2 2 2 2 2 2 2 2
left_child=2 7 3 5 11 6 -1 10 9 12 -2 -3 -4 -7
right_child=1 4 8 -5 -6 13 -8 -9 -10 -11 -12 -13 -14 -15
leaf_value=-0.016974550678270122 0.019841471093241126 0.047668532268567522 -0.010119960721522148 0.003293520189177843 0.10362368452589255 -0.04549897946292919 -0.031433210903892943 0.045864406710210366 -0.024393648697339274 0.01699017416209575 0.038782278010520442 0.067326618138199248 0.0017612804134321267 -0.031141114458945154
leaf_weight=568 320 110 192 162 74 262 326 113 54 88 92 130 503 148
leaf_count=568 320 110 192 162 74 262 326 113 54 88 92 130 503 148
internal_value=0 0.0438189 -0.0159636 -0.0244781 0.0689941 -0.0279282 -0.0222469 0.0287617 -0.00105045 0.000559421 0.024071 0.0583167 -0.00152102 -0.0403161
internal_weight=0 839 2303 1466 314 1304 894 525 837 783 412 240 695 410
internal_count=3142 839 2303 1466 314 1304 894 525 837 783 412 240 695 410
shrinkage=0.05


Tree=3
num_leaves=15
num_cat=0
split_feature=4 3 2 48 2 47 2 47 25 48 197 74 4 2
split_gain=793.423 114.811 105.567 50.7084 41.9133 39.0949 40.3232 23.5999 19.5865 15.2046 12.5329 10.3152 9.43003 9.25432
threshold=1.5000000000000002 1.5000000000000002 2.5000000000000004 24.500000000000004 7.5000000000000009 1.0000000180025095e-35 1.5000000000000002 1.0000000180025095e-35 1.0000000180025095e-35 38.000000000000007 1.0000000180025095e-35 0.25325624711012668 1.0000000180025095e-35 5.5000000000000009
decision_type=2 2 2 2 2 2 2 2 2 2 2 2 2 2
left_child=2 9 3 5 -3 6 -1 10 11 13 -4 12 -8 -2
right_child=1 4 7 -5 -6 -7 8 -9 -10 -11 -12 -13 -14 -15
leaf_value=-0.057835132422807967 0.018849397025624059 0.055400828974476707 0.0024321173700321483 0.00312884415982774 0.098442497738712553 -0.046125389761706825 -0.023501720160887647 -0.010828932446725113 -0.029207811127942535 0.043571185578583888 0.023480949547855175 -0.026126417864321006 -0.0073259826006513403 0.03684316383543141
leaf_weight=76 320 240 398 162 74 213 119 353 372 113 86 153 371 92
leaf_count=76 320 240 398 162 74 213 119 353 372 113 86 153 371 92
internal_value=0 0.041628 -0.0151654 -0.0232542 0.0655444 -0.0265318 -0.0227065 -0.000997932 -0.0200761 0.0273237 0.0061722 -0.0147931 -0.0112544 0.0228674
internal_weight=0 839 2303 1466 314 1304 1091 837 1015 525 484 643 490 412
internal_count=3142 839 2303 1466 314 1304 1091 837 1015 525 484 643 490 412
shrinkage=0.05


Tree=4
num_leaves=15
num_cat=0
split_feature=4 6 3 136 2 10 0 49 49 49 7 2 48 178
split_gain=716.064 149.714 103.617 49.4137 37.8267 29.299 24.0546 22.454 20.299 16.6187 14.3724 10.4304 9.12453 8.03235
threshold=1.5000000000000002 1.5000000000000002 1.5000000000000002 1.0000000180025095e-35 7.5000000000000009 1.0000000180025095e-35 44.832212049000013 465.00000000000006 372.00000000000006 775.00000000000011 1.0000000180025095e-35 2.5000000000000004 32.500000000000007 0.16019543335062833
decision_type=2 2 2 2 2 2 2 2 2 2 2 2 2 2
left_child=1 5 7 6 9 10 -3 13 12 -4 -1 -7 -8 -2
right_child=2 3 4 -5 -6 11 8 -9 -10 -11 -12 -13 -14 -15
leaf_value=-0.034607524770711155 0.013293176539092941 -0.014979514927550589 0.044357988830699135 -0.025250719302808339 0.093520374764763825 -0.040614017935136741 -0.0045734933076801805 0.040093412580408078 0.012365360291005345 0.073556104357189997 -0.0033436619961703913 -0.02052403143858789 0.015508612470641251 0.029905701085614661
leaf_weight=56 237 265 172 265 74 509 645 183 320 68 107 74 62 105
leaf_count=56 237 265 172 265 74 509 645 183 320 68 107 74 62 105
internal_value=0 -0.0144071 0.0395466 -0.00558283 0.0622672 -0.0328245 -0.00154878 0.0259575 0.00191679 0.0526308 -0.0140846 -0.038064 -0.0028124 0.0183935
internal_weight=0 2303 839 1557 314 746 1292 525 1027 240 163 583 707 342
internal_count=3142 2303 839 1557 314 746 1292 525 1027 240 163 583 707 342
shrinkage=0.05


Tree=5
num_leaves=15
num_cat=0
split_feature=4 6 4 136 49 2 10 49 0 7 2 47 49 12
split_gain=646.248 135.117 95.2765 44.5959 30.5334 29.7249 26.4424 21.957 18.0663 12.9711 9.46059 13.2623 9.20587 8.31947
threshold=1.5000000000000002 1.5000000000000002 2.5000000000000004 1.0000000180025095e-35 675.00000000000011 7.5000000000000009 1.0000000180025095e-35 675.00000000000011 44.832212049000013 1.0000000180025095e-35 1.5000000000000002 1.0000000180025095e-35 226.00000000000003 1.0000000180025095e-35
decision_type=2 2 2 2 2 2 2 2 2 2 2 2 2 2
left_child=1 6 4 7 12 -4 9 8 -3 -1 -8 -12 -2 -10
right_child=2 3 5 -5 -6 -7 10 -9 13 -11 11 -13 -14 -15
leaf_value=-0.032877148574750339 0.012976462057770484 -0.01489443544807389 0.050966033952061056 -0.023988183476096724 0.050980343029486265 0.086872840981657928 -0.056732287666961256 0.023731801364524865 -0.00910198989963968 -0.0031764785402289063 -0.028448315792256731 -0.045045583834112418 0.027080881739699386 0.0024128588274451258
leaf_weight=56 220 258 194 265 99 82 51 81 198 107 348 184 244 755
leaf_count=56 220 258 194 265 99 82 51 81 198 107 348 184 244 755
internal_value=0 -0.0136868 0.0375692 -0.00530369 0.025772 0.061634 -0.0311833 -0.00147134 -0.0031571 -0.0133804 -0.0361608 -0.0341887 0.0203934 2.04768e-05
internal_weight=0 2303 839 1557 563 276 746 1292 1211 163 583 532 464 953
internal_count=3142 2303 839 1557 563 276 746 1292 1211 163 583 532 464 953
shrinkage=0.05


Tree=6
num_leaves=15
num_cat=0
split_feature=4 6 4 136 49 2 7 49 16 1 0 0 0 17
split_gain=583.239 121.943 85.987 40.2478 27.5564 26.8267 21.7533 19.9903 13.2086 13.2213 10.2383 9.5494 8.9162 8.53572
threshold=1.5000000000000002 1.5000000000000002 2.5000000000000004 1.0000000180025095e-35 675.00000000000011 7.5000000000000009 2.5000000000000004 372.00000000000006 1.0000000180025095e-35 -0.57141319424999992 44.832547099800003 44.831836794000004 44.834181949950008 1.0000000180025095e-35
decision_type=2 2 2 2 2 2 2 2 2 2 2 2 2 2
left_child=1 6 4 7 12 -4 11 10 9 -8 -3 -1 -2 -12
right_child=2 3 5 -5 -6 -7 8 -9 -10 -11 13 -13 -14 -15
leaf_value=-0.049288703297713288 0.0077690673509200467 -0.014718565350866171 0.048417732129761588 -0.022788774096143414 0.048431325176109874 0.082529198603204845 0.0054329131522940265 0.0082552690434570322 -0.028844026930081531 -0.027065852163907361 -0.0046440083863238 -0.03232039652063045 0.023513458000716608 0.011355307100091092
leaf_weight=108 122 223 194 265 99 82 81 379 149 51 593 357 342 97
leaf_count=108 122 223 194 265 99 82 81 379 149 51 593 357 342 97
internal_value=0 -0.0130024 0.0356908 -0.0050385 0.0244834 0.0585523 -0.0296241 -0.00139777 -0.0186408 -0.00712343 -0.0054049 -0.0362614 0.0193738 -0.00239483
internal_weight=0 2303 839 1557 563 276 746 1292 281 132 913 465 464 690
internal_count=3142 2303 839 1557 563 276 746 1292 281 132 913 465 464 690
shrinkage=0.05


Tree=7
num_leaves=15
num_cat=0
split_feature=4 6 3 136 2 10 49 49 48 49 7 0 4 2
split_gain=526.373 110.053 82.4139 36.3236 26.5937 22.4925 19.0253 17.3967 16.2612 13.4415 10.8152 9.66598 9.47428 9.44362
threshold=1.5000000000000002 1.5000000000000002 1.5000000000000002 1.0000000180025095e-35 7.5000000000000009 1.0000000180025095e-35 675.00000000000011 465.00000000000006 24.500000000000004 775.00000000000011 1.0000000180025095e-35 44.832878933700009 1.0000000180025095e-35 2.5000000000000004
decision_type=2 2 2 2 2 2 2 2 2 2 2 2 2 2
left_child=1 5 7 6 9 10 8 -2 11 -4 -1 -3 -13 -7
right_child=2 3 4 -5 -6 13 -8 -9 -10 -11 -12 12 -14 -15
leaf_value=-0.029526369333533305 0.015129136134957491 -0.014401577867290405 0.038649300931544089 -0.021649335558912807 0.080374252516776323 -0.035160033548825326 0.022132447607999234 0.034229645663058091 0.0083493127606765142 0.064908413023359202 -0.002406046037327185 -0.020111412724751671 -0.00097785485714241911 -0.016043952984634686
leaf_weight=56 342 247 172 265 74 509 81 183 254 68 107 72 638 74
leaf_count=56 342 247 172 265 74 509 81 183 254 68 107 72 638 74
internal_value=0 -0.0123523 0.0339062 -0.00478658 0.0541693 -0.0281429 -0.00132789 0.021787 -0.00289707 0.0460894 -0.0117235 -0.00588201 -0.00291816 -0.0327336
internal_weight=0 2303 839 1557 314 746 1292 525 1211 240 163 957 710 583
internal_count=3142 2303 839 1557 314 746 1292 525 1211 240 163 957 710 583
shrinkage=0.05


Tree=8
num_leaves=15
num_cat=0
split_feature=2 3 74 47 2 48 47 2 47 0 0 0 154 25
split_gain=433.641 140.907 38.382 28.3883 28.3101 22.4543 15.5023 14.9983 12.6981 12.4151 12.1943 11.7996 9.48158 8.95266
threshold=3.5000000000000004 1.5000000000000002 1.0000000180025095e-35 1.0000000180025095e-35 7.5000000000000009 24.500000000000004 1.0000000180025095e-35 4.5000000000000009 18.500000000000004 44.835357607700011 44.830237334700008 44.835791510350006 1.0000000180025095e-35 1.0000000180025095e-35
decision_type=2 2 2 2 2 2 2 2 2 2 2 2 2 2
left_child=2 3 5 7 11 6 10 9 -5 -2 -1 -3 -11 -12
right_child=1 4 -4 8 -6 -7 -8 -9 -10 12 13 -13 -14 -15
leaf_value=-0.025160257328805405 0.002375276937354578 0.024568907408664624 -0.029631266846152922 -0.0040820123736304628 0.076355540002318659 0.0032198185030342151 -0.02847357925379386 0.030928224966316142 0.018958882582684359 0.015586017579015588 -0.0059694117384802813 0.04813590109767904 0.038760383653582309 -0.017385051898032931
leaf_weight=159 168 75 435 295 74 194 184 164 75 328 495 182 51 263
leaf_count=159 168 75 435 295 74 194 184 164 75 328 495 182 51 263
internal_value=0 0.0205607 -0.0167813 0.0118205 0.0491049 -0.0124649 -0.0152287 0.0176656 0.000588439 0.0136893 -0.012571 0.0412584 0.0187045 -0.00993025
internal_weight=0 1412 1730 1081 331 1295 1101 711 370 547 917 257 379 758
internal_count=3142 1412 1730 1081 331 1295 1101 711 370 547 917 257 379 758
shrinkage=0.05


Tree=9
num_leaves=15
num_cat=0
split_feature=2 2 6 49 49 0 47 7 49 2 48 0 47 16
split_gain=391.361 123.962 67.378 46.0013 27.7642 19.8756 18.8584 16.5613 14.9189 12.8352 10.2991 9.81808 9.81327 8.81368
threshold=3.5000000000000004 5.5000000000000009 1.5000000000000002 675.00000000000011 999.50000000000011 44.832212049000013 1.0000000180025095e-35 2.5000000000000004 372.00000000000006 7.5000000000000009 35.500000000000007 44.831565395800006 1.0000000180025095e-35 1.0000000180025095e-35
decision_type=2 2 2 2 2 2 2 2 2 2 2 2 2 2
left_child=2 3 7 6 9 -4 10 11 -7 -3 -2 -1 13 -9
right_child=1 4 5 -5 -6 8 -8 12 -10 -11 -12 -13 -14 -15
leaf_value=-0.048299950050810975 0.009299323299383818 0.032225097825677694 -0.021286058161313293 0.038602602995860463 0.071039656050598782 -0.0082912522786609405 -0.0030427293425054243 -0.00025912200005471028 0.0070788964585653535 0.058895498231452494 0.027732655057733292 -0.029994971877220424 -0.033034565889178531 -0.022221084441009321
leaf_weight=93 510 232 217 130 78 602 317 88 214 56 89 345 76 95
leaf_count=93 510 232 217 130 78 602 317 88 214 56 89 345 76 95
internal_value=0 0.0195327 -0.0159423 0.0107693 0.0445778 -0.00783691 0.00681912 -0.0279549 -0.00426036 0.037411 0.0120382 -0.0338816 -0.0179322 -0.0116601
internal_weight=0 1412 1730 1046 366 1033 916 697 816 288 599 438 259 183
internal_count=3142 1412 1730 1046 366 1033 916 697 816 288 599 438 259 183
shrinkage=0.05


Tree=10
num_leaves=15
num_cat=0
split_feature=2 3 6 49 49 47 0 10 49 2 2 0 47 2
split_gain=353.203 118.57 60.8086 29.3563 25.3072 18.1206 17.9377 17.4534 13.4643 12.4424 11.1537 9.33541 7.7636 10.2792
threshold=3.5000000000000004 1.5000000000000002 1.5000000000000002 625.00000000000011 775.00000000000011 1.0000000180025095e-35 44.832212049000013 1.0000000180025095e-35 372.00000000000006 5.5000000000000009 5.5000000000000009 44.84124703345001 1.0000000180025095e-35 1.5000000000000002
decision_type=2 2 2 2 2 2 2 2 2 2 2 2 2 2
left_child=2 3 7 5 9 10 -4 -1 -8 -3 -2 -11 13 -9
right_child=1 4 6 -5 -6 -7 8 12 -10 11 -12 -13 -14 -15
leaf_value=-0.011575193434500282 0.0099903051508842197 0.020621788635346389 -0.020221755174868461 0.033533751608887157 0.065904529720093266 -0.0017273838355925113 -0.0078766897252677288 -0.047711336503134055 0.0067249518037973861 0.032461809217439672 0.02948821643175667 0.057769785653799782 -0.039831522999121238 -0.023591776956296107
leaf_weight=152 535 86 217 123 99 338 602 51 214 76 85 70 164 330
leaf_count=152 535 86 217 123 99 338 602 51 214 76 85 70 164 330
internal_value=0 0.018556 -0.0151452 0.0105385 0.0447402 0.00758607 -0.00744506 -0.0265572 -0.00404734 0.0357089 0.0126634 0.0445958 -0.0307357 -0.0268204
internal_weight=0 1412 1730 1081 331 958 1033 697 816 232 620 146 545 381
internal_count=3142 1412 1730 1081 331 958 1033 697 816 232 620 146 545 381
shrinkage=0.05


Tree=11
num_leaves=15
num_cat=0
split_feature=4 6 4 136 49 10 49 49 48 7 4 12 2 47
split_gain=365.789 72.4112 56.449 29.1747 18.9127 17.626 16.9356 13.3587 9.519 8.84879 8.81419 7.83737 7.3695 10.6687
threshold=1.5000000000000002 1.5000000000000002 2.5000000000000004 1.0000000180025095e-35 999.50000000000011 1.0000000180025095e-35 675.00000000000011 324.50000000000006 35.500000000000007 1.0000000180025095e-35 3.5000000000000004 1.0000000180025095e-35 1.5000000000000002 1.0000000180025095e-35
decision_type=2 2 2 2 2 2 2 2 2 2 2 2 2 2
left_child=1 5 6 7 10 9 8 11 -2 -1 -4 -3 -7 -14
right_child=2 3 4 -5 -6 12 -8 -9 -10 -11 -12 -13 13 -15
leaf_value=-0.024673929955211601 0.011617147290982309 -0.012533137741414544 0.031977920436548242 -0.019272723211994712 0.069241293567631923 -0.045325770623543683 0.037958317228376566 0.0063964934420499319 0.029579335007229413 -0.00014267710611990124 0.054055421454692956 -0.0017522133177569324 -0.020280408535213557 -0.035166583108999165
leaf_weight=56 372 227 139 265 70 51 99 410 92 107 67 655 348 184
leaf_count=56 372 227 139 265 70 51 99 410 92 107 67 655 348 184
internal_value=0 -0.0102971 0.0282649 -0.0041602 0.0467882 -0.0231057 0.0191843 -0.0010605 0.0151786 -0.00857059 0.0391585 -0.0045269 -0.0271696 -0.025429
internal_weight=0 2303 839 1557 276 746 563 1292 464 163 206 882 583 532
internal_count=3142 2303 839 1557 276 746 563 1292 464 163 206 882 583 532
shrinkage=0.05


Tree=12
num_leaves=15
num_cat=0
split_feature=4 6 3 136 49 10 17 4 49 0 154 7 48 4
split_gain=330.124 65.3511 50.9745 26.3301 18.4428 15.9075 14.1841 12.9889 12.0147 9.01429 8.27268 7.98603 7.06981 7.80383
threshold=1.5000000000000002 1.5000000000000002 1.5000000000000002 1.0000000180025095e-35 1275.0000000000002 1.0000000180025095e-35 1.0000000180025095e-35 3.5000000000000004 465.00000000000006 44.832547099800003 0.012432404246066675 1.0000000180025095e-35 24.500000000000004 1.0000000180025095e-35
decision_type=2 2 2 2 2 2 2 2 2 2 2 2 2 2
left_child=1 5 8 6 7 11 9 -4 -2 -3 12 -1 13 -11
right_child=2 3 4 -5 -6 -7 -8 -9 -10 10 -12 -13 -14 -15
leaf_value=-0.023440233701174814 0.011787432164964076 -0.01142476763569553 0.030787454343309213 -0.018309087282099394 0.070632017329335217 -0.025811072829236177 0.010918130209077927 0.055799583849352852 0.027660762876923619 -0.022233683137415812 0.014223252199534103 -0.00013554324308915117 0.0076053336338126956 -0.0029333984301882555
leaf_weight=56 342 260 193 265 50 583 209 71 183 58 83 107 142 540
leaf_count=56 342 260 193 265 50 583 209 71 183 58 83 107 142 540
internal_value=0 -0.00978227 0.0268517 -0.00395219 0.0427877 -0.0219504 -0.00100747 0.0375142 0.0173204 -0.0033089 -0.000744959 -0.00814206 -0.00242383 -0.00480533
internal_weight=0 2303 839 1557 314 746 1292 264 525 1083 823 163 740 598
internal_count=3142 2303 839 1557 314 746 1292 264 525 1083 823 163 740 598
shrinkage=0.05


Tree=13
num_leaves=15
num_cat=0
split_feature=4 4 2 47 2 25 47 2 48 17 197 8 47 48
split_gain=297.937 47.7114 45.9578 26.681 27.7783 21.5229 14.6055 14.0963 11.8818 11.2024 7.93289 7.53493 6.55545 6.55192
threshold=1.5000000000000002 2.5000000000000004 2.5000000000000004 1.0000000180025095e-35 1.5000000000000002 1.0000000180025095e-35 1.0000000180025095e-35 7.5000000000000009 24.500000000000004 1.0000000180025095e-35 1.0000000180025095e-35 1.5000000000000002 7.5000000000000009 38.000000000000007
decision_type=2 2 2 2 2 2 2 2 2 2 2 2 2 2
left_child=2 9 3 4 -1 8 10 -3 11 13 -4 -6 -8 -2
right_child=1 7 6 -5 5 -7 12 -9 -10 -11 -12 -13 -14 -15
leaf_value=-0.040826309096164907 0.009269878988756329 0.035192140665780823 0.0027196669345604606 -0.030389116802929786 -0.025299602717028132 -0.01940823540194463 -0.022021798670578463 0.059918992857380615 0.0087980614516597524 0.027662668977015921 0.019465919487384086 -0.0061039873432951908 -0.0044423377942116029 0.025808123495182769
leaf_weight=77 314 194 398 227 56 389 65 82 130 175 86 587 288 74
leaf_count=77 314 194 398 227 56 389 65 82 130 175 86 587 288 74
internal_value=0 0.0255091 -0.00929316 -0.0146302 -0.0117429 -0.00981573 5.45834e-05 0.0425385 -0.00498845 0.0171608 0.00569524 -0.00777577 -0.00767935 0.0124241
internal_weight=0 839 2303 1466 1239 1162 837 276 773 563 484 643 353 388
internal_count=3142 839 2303 1466 1239 1162 837 276 773 563 484 643 353 388
shrinkage=0.05


Tree=14
num_leaves=15
num_cat=0
split_feature=4 6 4 136 49 49 10 17 0 12 154 7 4 48
split_gain=268.888 54.8676 43.0595 22.7071 15.7154 14.2607 14.1329 12.5547 7.99737 7.74924 7.27212 7.10562 6.51012 5.88874
threshold=1.5000000000000002 1.5000000000000002 2.5000000000000004 1.0000000180025095e-35 999.50000000000011 226.00000000000003 1.0000000180025095e-35 1.0000000180025095e-35 44.832547099800003 1.0000000180025095e-35 0.012432404246066675 1.0000000180025095e-35 3.5000000000000004 24.500000000000004
decision_type=2 2 2 2 2 2 2 2 2 2 2 2 2 2
left_child=1 6 5 7 12 -2 11 8 -3 -7 13 -1 -4 -10
right_child=2 3 4 -5 -6 9 -8 -9 10 -11 -12 -13 -14 -15
leaf_value=-0.021392937915931859 0.0063664941981286657 -0.010561445313416278 0.027285569501544933 -0.016819078894848235 0.060879028812050817 0.0058414008329508082 -0.023616956911933582 0.0104679205331508 -0.00424963209108293 0.026030930360922445 0.013531804491530162 0.00058964613224510287 0.046259326533303224 0.0070770354566006902
leaf_weight=56 220 260 139 265 70 57 583 209 598 286 83 107 67 142
leaf_count=56 220 260 139 265 70 57 583 209 598 286 83 107 67 142
internal_value=0 -0.0088285 0.0242337 -0.00348647 0.0404116 0.0163027 -0.019978 -0.000751843 -0.00291706 0.0226758 -0.000502067 -0.00696265 0.0334566 -0.00207614
internal_weight=0 2303 839 1557 276 563 746 1292 1083 343 823 163 206 740
internal_count=3142 2303 839 1557 276 563 746 1292 1083 343 823 163 206 740
shrinkage=0.05


Tree=15
num_leaves=15
num_cat=0
split_feature=4 6 4 136 49 49 7 49 48 47 74 48 0 48
split_gain=242.672 49.518 38.8612 20.4932 14.1832 13.1465 12.8619 11.6994 9.6493 9.3131 10.644 7.43411 7.43238 9.22262
threshold=1.5000000000000002 1.5000000000000002 2.5000000000000004 1.0000000180025095e-35 999.50000000000011 675.00000000000011 2.5000000000000004 675.00000000000011 24.500000000000004 1.0000000180025095e-35 0.24844126124880914 35.500000000000007 44.831836794000004 8.5000000000000018
decision_type=2 2 2 2 2 2 2 2 2 2 2 2 2 2
left_child=1 6 5 7 -4 11 12 8 -3 10 -8 -2 -1 -14
right_child=2 3 4 -5 -6 -7 9 -9 -10 -11 -12 -13 13 -15
leaf_value=-0.035575650282704312 0.0088109938798801492 -0.0042441388540181103 0.031783813585355446 -0.015978125067568332 0.057835077090255385 0.032028603264027171 0.0097436309450223482 0.017682919258619718 0.0067185508031017659 -0.023903238331229332 -0.014179647689013261 0.02468469021183884 -0.023886758255851428 -0.00092075491488418162
leaf_weight=108 372 957 206 265 70 99 79 81 254 89 113 92 306 51
leaf_count=108 372 957 206 265 70 99 79 81 254 89 113 92 306 51
internal_value=0 -0.00838708 0.023022 -0.00331215 0.038391 0.0154876 -0.0189791 -0.000714251 -0.00194478 -0.0105336 -0.00433622 0.0119584 -0.0240827 -0.0206059
internal_weight=0 2303 839 1557 276 563 746 1292 1211 281 192 464 465 357
internal_count=3142 2303 839 1557 276 563 746 1292 1211 281 192 464 465 357
shrinkage=0.05


Tree=16
num_leaves=15
num_cat=0
split_feature=4 6 3 4 49 17 7 49 4 47 74 49 74 22
split_gain=219.011 44.69 37.8231 18.5623 14.3054 11.8707 11.6078 9.13766 9.10931 8.40508 9.60623 6.58932 6.11319 6.10818
threshold=1.5000000000000002 1.5000000000000002 1.5000000000000002 1.0000000180025095e-35 1275.0000000000002 1.0000000180025095e-35 2.5000000000000004 465.00000000000006 3.5000000000000004 1.0000000180025095e-35 0.24844126124880914 191.00000000000003 0.42133167263334553 1.0000000180025095e-35
decision_type=2 2 2 2 2 2 2 2 2 2 2 2 2 2
left_child=1 6 7 -3 8 13 11 -2 -4 10 -8 -1 -12 -5
right_child=2 3 4 5 -6 -7 9 -9 -10 -11 12 -13 -14 -15
leaf_value=-0.025591788004974941 0.0088354319211487713 -0.013838263546472405 0.025320321439712315 -0.0010530363437114439 0.060121004154905677 0.010825903924537739 0.0092564493618151056 0.022678380645811558 0.046266599967018179 -0.022708076718420293 -0.02499779659086479 -0.0098214309429749853 -0.0017376920224965683 -0.012642676940707205
leaf_weight=385 342 322 193 906 50 199 79 183 71 89 57 80 56 130
leaf_count=385 342 322 193 906 50 199 79 183 71 89 57 80 56 130
internal_value=0 -0.00796772 0.0218709 -0.00314654 0.0355981 -0.000358902 -0.0180302 0.0136607 0.0309536 -0.0100069 -0.0041194 -0.0228786 -0.0134707 -0.00250733
internal_weight=0 2303 839 1557 314 1235 746 525 264 281 192 465 113 1036
internal_count=3142 2303 839 1557 314 1235 746 525 264 281 192 465 113 1036
shrinkage=0.05


Tree=17
num_leaves=15
num_cat=0
split_feature=4 6 3 136 0 0 7 4 48 1 154 16 1 154
split_gain=197.658 40.3327 34.1354 17.2745 12.1617 11.1958 10.4761 10.0686 8.88212 8.50095 8.02152 7.67704 11.149 7.14424
threshold=1.5000000000000002 1.5000000000000002 1.5000000000000002 1.0000000180025095e-35 44.834535063100013 44.832212049000013 2.5000000000000004 3.5000000000000004 35.500000000000007 -0.56664556589999993 1.0000000180025095e-35 1.0000000180025095e-35 -0.57141319424999992 1.0000000180025095e-35
decision_type=2 2 2 2 2 2 2 2 2 2 2 2 2 2
left_child=1 6 9 5 -4 -3 -1 -6 10 13 -7 12 -8 -2
right_child=2 3 4 -5 7 8 11 -9 -10 -11 -12 -13 -14 -15
leaf_value=-0.021734677863517599 0.013862749119514331 -0.0097668387309564637 0.016988943684264086 -0.014618068666171003 0.033686085472358289 -0.0013631438287050246 0.010804297568069565 0.057848388769484144 0.016583909088765961 0.00082885489832049445 0.013184647267318775 -0.01728528236357758 -0.019038986201014588 0.034025849873200058
leaf_weight=465 362 265 80 265 177 828 81 57 92 113 107 149 51 50
leaf_count=465 362 265 80 265 177 828 81 57 92 113 107 149 51 50
internal_value=0 -0.00756934 0.0207773 -0.00298921 0.0338182 -0.000604039 -0.0171286 0.0395718 0.00176027 0.0129777 0.000301684 -0.00950657 -0.000726062 0.0163097
internal_weight=0 2303 839 1557 314 1292 746 234 1027 525 935 281 132 412
internal_count=3142 2303 839 1557 314 1292 746 234 1027 525 935 281 132 412
shrinkage=0.05


Tree=18
num_leaves=15
num_cat=0
split_feature=4 2 4 0 48 49 49 49 2 47 47 17 22 214
split_gain=178.386 32.9919 30.9959 20.6555 15.2106 14.5289 11.6269 11.2423 10.8118 13.1173 7.91476 6.74933 5.7926 6.63111
threshold=1.5000000000000002 2.5000000000000004 2.5000000000000004 44.831836794000004 24.500000000000004 675.00000000000011 999.50000000000011 226.00000000000003 1.5000000000000002 1.0000000180025095e-35 1.0000000180025095e-35 1.0000000180025095e-35 1.0000000180025095e-35 0.11927626356070611
decision_type=2 2 2 2 2 2 2 2 2 2 2 2 2 2
left_child=1 3 7 -1 8 10 -4 -2 -5 12 -3 -9 13 -10
right_child=2 5 6 4 -6 -7 -8 11 9 -11 -12 -13 -14 -15
leaf_value=-0.022330597782107928 0.0041873380322199824 0.0034285132942705604 0.027482142296248992 -0.033234985567629341 0.0071452891452413432 0.025568937911990691 0.051069212455934446 0.01332367264423176 -0.00048471605905073853 -0.022852977332335263 -0.0067085692494409837 0.027872639848288916 -0.019493257231370083 -0.010232593913679013
leaf_weight=349 220 439 206 50 138 55 70 217 354 151 343 126 80 344
leaf_count=349 220 439 206 50 138 55 70 217 354 151 343 126 80 344
internal_value=0 -0.00719087 0.0197385 -0.0117128 -0.00839531 0.000729235 0.0334644 0.0130096 -0.0105859 -0.00936691 -0.0010178 0.0186682 -0.00674944 -0.00528883
internal_weight=0 2303 839 1466 1117 837 276 563 979 929 782 343 778 698
internal_count=3142 2303 839 1466 1117 837 276 563 979 929 782 343 778 698
shrinkage=0.05


Tree=19
num_leaves=15
num_cat=0
split_feature=4 2 3 0 48 49 49 2 47 0 25 1 47 154
split_gain=160.993 29.7752 28.9596 18.6416 13.7275 13.1188 11.918 9.75764 11.8383 8.72254 8.12053 7.66518 7.21082 6.33859
threshold=1.5000000000000002 2.5000000000000004 1.5000000000000002 44.831836794000004 24.500000000000004 625.00000000000011 1275.0000000000002 1.5000000000000002 1.0000000180025095e-35 44.834535063100013 1.0000000180025095e-35 -0.56664556589999993 1.0000000180025095e-35 1.0000000180025095e-35
decision_type=2 2 2 2 2 2 2 2 2 2 2 2 2 2
left_child=1 3 11 -1 7 12 9 -5 10 -4 -9 13 -3 -2
right_child=2 5 6 4 -6 -7 -8 8 -10 -11 -12 -13 -14 -15
leaf_value=-0.021214067887776349 0.012426634662407092 0.0032570877117519843 0.011539467219443678 -0.031573236845433714 0.0067880247410832227 0.024069643424341591 0.053146406363695865 -0.0026029754873365166 -0.02171032833743421 0.032036245219081334 -0.013262667162230797 3.1323857251060222e-05 -0.0064266382645368327 0.031418850849382583
leaf_weight=349 362 439 71 50 138 56 50 500 151 193 278 113 342 50
leaf_count=349 362 439 71 50 138 56 50 500 151 193 278 113 342 50
internal_value=0 -0.00683133 0.0187515 -0.0111271 -0.00797554 0.000692773 0.0307631 -0.0100566 -0.00889857 0.0265239 -0.00641197 0.0115675 -0.000983417 0.0147315
internal_weight=0 2303 839 1466 1117 837 314 979 929 264 778 525 781 412
internal_count=3142 2303 839 1466 1117 837 314 979 929 264 778 525 781 412
shrinkage=0.05


Tree=20
num_leaves=15
num_cat=0
split_feature=4 6 4 4 49 17 49 2 47 0 46 1 12 0
split_gain=145.297 31.2217 26.7903 14.6232 9.86416 9.82678 9.78553 8.5508 11.815 7.1345 7.06808 7.43683 6.09143 5.66066
threshold=1.5000000000000002 1.5000000000000002 2.5000000000000004 1.0000000180025095e-35 226.00000000000003 1.0000000180025095e-35 999.50000000000011 1.5000000000000002 1.0000000180025095e-35 44.829778696500007 20.500000000000004 -0.57192191629999989 1.0000000180025095e-35 44.835102992650008
decision_type=2 2 2 2 2 2 2 2 2 2 2 2 2 2
left_child=1 7 4 9 -2 13 -4 -1 10 -3 11 -9 -6 -5
right_child=2 3 6 5 12 -7 -8 8 -10 -11 -12 -13 -14 -15
leaf_value=-0.03268052135113507 0.0032943954221313606 -0.028530089784827496 0.025086636850565166 -0.0068474487428863851 0.001933176531926157 0.010190639523297886 0.046725485214431373 0.00087408570554851689 -0.022461114018244254 -0.0086088917060901157 -0.021764061665050238 -0.013379513123592396 0.019833305738605821 0.0008432739592948435
leaf_weight=62 220 54 206 375 57 199 70 201 232 268 83 168 286 661
leaf_count=62 220 54 206 375 57 199 70 201 232 268 83 168 286 661
internal_value=0 -0.00648976 0.017814 -0.00246003 0.0115582 1.4209e-05 0.0305748 -0.0149003 -0.0132887 -0.0119497 -0.00858072 -0.00561536 0.0168586 -0.00194053
internal_weight=0 2303 839 1557 563 1235 276 746 684 322 452 369 343 1036
internal_count=3142 2303 839 1557 563 1235 276 746 684 322 452 369 343 1036
shrinkage=0.05


Tree=21
num_leaves=15
num_cat=0
split_feature=2 2 6 49 2 10 0 49 4 48 0 214 1 47
split_gain=133.885 43.0212 21.2732 18.1382 11.147 9.61165 9.47999 9.35538 7.01275 6.79991 6.58195 5.32879 4.28277 4.21957
threshold=3.5000000000000004 5.5000000000000009 1.5000000000000002 675.00000000000011 7.5000000000000009 1.0000000180025095e-35 44.835357607700011 372.00000000000006 1.0000000180025095e-35 35.500000000000007 44.834181949950008 0.19582885724633989 -0.56934701824999989 1.0000000180025095e-35
decision_type=2 2 2 2 2 2 2 2 2 2 2 2 2 2
left_child=2 3 5 6 10 -1 -2 8 -4 -8 -3 -9 -12 -7
right_child=1 4 7 -5 -6 13 9 11 -10 -11 12 -13 -14 -15
leaf_value=-0.0049563833407630323 -0.0031270963361183825 0.010047065323769032 -0.01471861262204697 0.023739360260974188 0.0420442875200773 -0.016288802000179733 0.0051341530709054714 0.0090831991524604784 -0.0043743032205927944 0.019488874277231671 0.031489216865330537 -0.0062748982943059209 0.015322091632475289 -0.025880998631403536
leaf_weight=152 322 88 233 130 85 381 495 161 552 99 134 87 59 164
leaf_count=152 322 88 233 130 85 381 495 161 552 99 134 87 59 164
internal_value=0 0.0114245 -0.00932454 0.00626195 0.0261789 -0.0160744 0.00378153 -0.00477016 -0.00744465 0.00752661 0.0213797 0.00369548 0.0265469 -0.0191753
internal_weight=0 1412 1730 1046 366 697 916 1033 785 594 281 248 193 545
internal_count=3142 1412 1730 1046 366 697 916 1033 785 594 281 248 193 545
shrinkage=0.05


Tree=22
num_leaves=15
num_cat=0
split_feature=2 2 49 0 49 2 47 25 0 0 0 47 162 20
split_gain=120.831 38.8266 16.3697 15.6389 12.3658 10.0601 8.72219 7.41379 8.39307 5.94021 5.65023 4.97359 4.61521 4.46561
threshold=3.5000000000000004 5.5000000000000009 675.00000000000011 44.832212049000013 372.00000000000006 7.5000000000000009 1.0000000180025095e-35 1.0000000180025095e-35 44.851701568750009 44.834181949950008 44.836097526750009 1.0000000180025095e-35 0.15306431750586849 1.0000000180025095e-35
decision_type=2 2 2 2 2 2 2 2 2 2 2 2 2 2
left_child=3 2 6 11 7 9 10 8 13 -3 -2 -1 -6 -5
right_child=1 5 -4 4 12 -7 -8 -9 -10 -11 -12 -13 -14 -15
leaf_value=-0.014392545582780737 0.00055669173885189817 0.0095447119367732258 0.022552392190465564 -0.0040872910376621666 0.0084325182929819147 0.039942073017249217 -0.0031144027248864456 -0.01405202525356799 -0.014659608179552469 0.025219588295358759 0.010722909917480063 -0.027599754154549114 -0.0065720355942923483 0.0088629679984259836
leaf_weight=329 211 88 130 423 172 85 317 384 179 193 388 91 73 79
leaf_count=329 211 88 130 423 172 85 317 384 179 193 388 91 73 79
internal_value=0 0.0108533 0.00594885 -0.00885832 -0.00616654 0.0248699 0.00359245 -0.00849652 -0.00536391 0.0203107 0.00714182 -0.0172541 0.00396177 -0.0020493
internal_weight=0 1412 1046 1730 1310 366 916 1065 681 281 599 420 245 502
internal_count=3142 1412 1046 1730 1310 366 916 1065 681 281 599 420 245 502
shrinkage=0.05


Tree=23
num_leaves=15
num_cat=0
split_feature=2 4 6 47 10 0 4 0 15 154 48 152 47 4
split_gain=109.05 36.4862 18.3479 13.9645 8.58045 8.1386 8.74969 7.89179 7.74532 6.61703 4.99205 5.14992 4.99039 4.80552
threshold=3.5000000000000004 2.5000000000000004 1.5000000000000002 1.0000000180025095e-35 1.0000000180025095e-35 44.831743539400001 3.5000000000000004 44.833591090750005 1.0000000180025095e-35 1.0000000180025095e-35 24.500000000000004 0.14105572712986875 18.500000000000004 1.0000000180025095e-35
decision_type=2 2 2 2 2 2 2 2 2 2 2 2 2 2
left_child=2 3 4 8 -1 -3 -7 13 9 -2 -9 -12 -5 -4
right_child=1 5 7 12 -6 6 -8 10 -10 -11 11 -13 -14 -15
leaf_value=-0.004179315152884412 0.0067091775074606735 0.012431117309559439 -0.022019369980054243 -0.0041700381586489864 -0.017613809567773631 0.024482569457549189 0.046584882043560955 -0.0036037303055032237 0.025246683153538754 0.021637274933540646 -0.001703370194665568 0.016635062525455251 0.010122379858818788 -0.0073192865730961794
leaf_weight=152 586 74 77 311 545 135 67 601 78 85 86 69 76 200
leaf_count=152 586 74 77 311 545 135 67 601 78 85 86 69 76 200
internal_value=0 0.0103107 -0.0084154 0.00634895 -0.014684 0.0266168 0.0318135 -0.00418573 0.0103338 0.00860022 -0.00154036 0.00646019 -0.00136326 -0.0114056
internal_weight=0 1412 1730 1136 697 276 202 1033 749 671 756 155 387 277
internal_count=3142 1412 1730 1136 697 276 202 1033 749 671 756 155 387 277
shrinkage=0.05


Tree=24
num_leaves=15
num_cat=0
split_feature=4 49 49 2 4 47 15 2 48 1 2 154 1 0
split_gain=99.3493 20.732 19.3787 14.7554 13.5147 10.0451 11.2932 10.6365 8.57359 7.32036 7.19473 6.44174 5.5183 5.71721
threshold=1.5000000000000002 372.00000000000006 1450.0000000000002 1.5000000000000002 3.5000000000000004 1.0000000180025095e-35 1.0000000180025095e-35 2.5000000000000004 35.500000000000007 -0.56746730689999991 3.5000000000000004 1.0000000180025095e-35 -0.59983321379999988 44.838080815050013
decision_type=2 2 2 2 2 2 2 2 2 2 2 2 2 2
left_child=1 3 4 -1 8 6 10 -7 9 -2 12 -3 -5 -14
right_child=2 11 -4 5 -6 7 -8 -9 -10 -11 -12 -13 13 -15
leaf_value=-0.029775030197406651 0.010554148768759238 0.0015599861625320566 0.042359933939020517 -0.023336892761290074 0.032385059234757839 -0.021819195368637644 0.013367246777364394 -0.006503566912097785 0.019683901872926367 -0.0032306887342201662 0.0021909302871218803 0.017834477662432215 -0.010742824825185539 -0.0029501762055391951
leaf_weight=73 389 391 59 53 78 201 82 260 185 128 229 72 460 482
leaf_count=73 389 391 59 53 78 201 82 260 185 128 229 72 460 482
internal_value=0 -0.0053664 0.0147304 -0.00774612 0.0126405 -0.00683604 -0.00459625 -0.0131813 0.0104467 0.00714127 -0.00579969 0.00409079 -0.00763873 -0.0067555
internal_weight=0 2303 839 1840 780 1767 1306 461 702 517 1224 463 995 942
internal_count=3142 2303 839 1840 780 1767 1306 461 702 517 1224 463 995 942
shrinkage=0.05


Tree=25
num_leaves=15
num_cat=0
split_feature=4 6 49 16 4 7 154 0 47 74 55 0 48 46
split_gain=89.6628 19.0401 17.6454 11.1958 9.5929 8.54686 6.20406 6.05169 6.02628 7.45121 5.39458 5.37382 7.6504 6.67388
threshold=1.5000000000000002 1.5000000000000002 775.00000000000011 1.0000000180025095e-35 3.5000000000000004 2.5000000000000004 1.0000000180025095e-35 44.834181949950008 1.0000000180025095e-35 0.24844126124880914 0.32917756394352099 44.831836794000004 8.5000000000000018 14.500000000000002
decision_type=2 2 2 2 2 2 2 2 2 2 2 2 2 2
left_child=1 5 4 -3 7 11 -5 -2 9 -7 -9 -1 13 -13
right_child=2 3 -4 6 -6 8 -8 10 -10 -11 -12 12 -14 -15
leaf_value=-0.025598968336729474 0.00045724770639914218 -0.008134013665049903 0.028760623362779899 -0.00041177789508504731 0.028851922346984794 0.011984093320302524 0.011661701573078366 0.014227442081383844 -0.015536171976958266 -0.0080320862911031701 8.7086852437940005e-05 -0.01165069413202053 0.0050588684494369757 -0.028817260057975847
leaf_weight=108 169 498 163 939 64 79 120 360 89 113 83 231 51 75
leaf_count=108 169 498 163 939 64 79 120 360 89 113 83 231 51 75
internal_value=0 -0.00509808 0.0139939 -0.00195118 0.0104333 -0.0116661 0.000956322 0.00850716 -0.0047815 0.000203738 0.0115781 -0.0158264 -0.01287 -0.0158582
internal_weight=0 2303 839 1557 676 746 1059 612 281 192 443 465 357 306
internal_count=3142 2303 839 1557 676 746 1059 612 281 192 443 465 357 306
shrinkage=0.05


Tree=26
num_leaves=15
num_cat=0
split_feature=2 2 6 49 1 4 10 0 48 47 49 45 214 205
split_gain=82.7763 28.0396 13.7983 12.3105 8.05065 7.38197 7.3642 6.72231 6.54341 5.56094 5.30567 4.17664 4.10315 3.93618
threshold=3.5000000000000004 5.5000000000000009 1.5000000000000002 555.00000000000011 -0.56757712914999991 3.5000000000000004 1.0000000180025095e-35 44.832212049000013 35.500000000000007 1.0000000180025095e-35 372.00000000000006 2.5000000000000004 0.18422811378837556 0.17570540031685677
decision_type=2 2 2 2 2 2 2 2 2 2 2 2 2 2
left_child=2 3 6 8 5 13 -1 -4 9 -2 -9 -11 -12 -3
right_child=1 4 7 -5 -6 -7 -8 10 -10 11 12 -13 -14 -15
leaf_value=-0.0030362503774660201 0.0040312907928850535 0.015856114427472902 -0.011485468952104875 0.018021060284365908 0.006873401808552445 0.038169431975141999 -0.015482229321955816 -0.00398771464586818 0.013348637741310981 -0.013376729004580449 0.0105278017086241 -0.00037327640741649602 -0.0037821507398621184 0.031335825429830169
leaf_weight=152 499 154 217 151 80 76 545 602 122 94 134 180 80 56
leaf_count=152 499 154 217 151 80 76 545 602 122 94 134 180 80 56
internal_value=0 0.00898309 -0.00733186 0.00481523 0.0208945 0.0248165 -0.012768 -0.00366389 0.0025872 0.00088876 -0.00158389 -0.00483431 0.00517829 0.019984
internal_weight=0 1412 1730 1046 366 286 697 1033 895 773 816 274 214 210
internal_count=3142 1412 1730 1046 366 286 697 1033 895 773 816 274 214 210
shrinkage=0.05


Tree=27
num_leaves=15
num_cat=0
split_feature=2 3 2 47 47 15 49 1 188 0 46 49 0 47
split_gain=74.7057 25.7802 11.9837 13.2162 10.3033 10.1738 8.28661 7.62903 6.76022 6.59993 6.21914 5.99436 5.709 5.70103
threshold=3.5000000000000004 1.5000000000000002 1.5000000000000002 1.0000000180025095e-35 1.0000000180025095e-35 1.0000000180025095e-35 1275.0000000000002 -0.59983321379999988 0.23430681833836497 44.835791510350006 36.500000000000007 675.00000000000011 44.834535063100013 18.500000000000004
decision_type=2 2 2 2 2 2 2 2 2 2 2 2 2 2
left_child=2 4 -1 5 8 7 12 -4 11 -9 -5 -2 -3 -6
right_child=1 6 3 10 13 -7 -8 9 -10 -11 -12 -13 -14 -15
leaf_value=-0.026246466845661016 0.0051221641413272219 0.0058059638819669369 -0.021415674814314986 -0.017893035369974917 -0.0051007156534972837 0.012496111099869851 0.039498160049319275 -0.009023620118253823 0.026043641515076162 -0.0012115098886676385 0.0012456044848659078 0.01920618692295219 0.021784713921278679 0.010337816099325816
leaf_weight=77 574 77 67 281 295 89 50 426 50 740 50 87 204 75
leaf_count=77 574 77 67 281 295 89 50 426 50 740 50 87 204 75
internal_value=0 0.00853394 -0.00696527 -0.00606711 0.00479544 -0.00383001 0.0207434 -0.00500846 0.0083168 -0.00406568 -0.015002 0.00697589 0.0174062 -0.00197128
internal_weight=0 1412 1730 1653 1081 1322 331 1233 711 1166 331 661 281 370
internal_count=3142 1412 1730 1653 1081 1322 331 1233 711 1166 331 661 281 370
shrinkage=0.05


Tree=28
num_leaves=15
num_cat=0
split_feature=2 4 25 49 47 15 177 0 0 49 2 48 49 20
split_gain=67.4219 24.0651 12.2329 11.3562 9.21967 8.29964 7.32543 6.70795 6.68294 6.5529 5.59609 4.95533 4.51101 5.63723
threshold=3.5000000000000004 2.5000000000000004 1.0000000180025095e-35 555.00000000000011 1.0000000180025095e-35 1.0000000180025095e-35 0.22034788105458644 44.831743539400001 44.834051177300005 999.50000000000011 2.5000000000000004 35.500000000000007 372.00000000000006 1.0000000180025095e-35
decision_type=2 2 2 2 2 2 2 2 2 2 2 2 2 2
left_child=2 3 4 8 5 6 12 -3 -2 -9 -6 -10 13 -1
right_child=1 7 -4 -5 10 -7 -8 9 11 -11 -12 -13 -14 -15
leaf_value=-0.0045545687361879901 -0.0033327879553421793 0.0084714485495980523 -0.01251439506276994 0.016889768724684558 -0.018919846007082006 0.014472422462111958 -0.010598919301425661 0.020834322395851677 0.0037250397492181748 0.041563827690997111 -0.0018990836283223501 0.015473222240118016 0.0080714722120647734 0.010154068676827404
leaf_weight=423 304 74 583 168 139 75 226 151 557 51 74 107 133 77
leaf_count=423 304 74 583 168 139 75 226 151 557 51 74 107 133 77
internal_value=0 0.00810724 -0.00661701 0.00488978 -0.00361947 -0.00147873 -0.00287144 0.0213501 0.00280714 0.026068 -0.0130065 0.0056182 -0.000112502 -0.00228944
internal_weight=0 1412 1730 1136 1147 934 859 276 968 202 213 664 633 500
internal_count=3142 1412 1730 1136 1147 934 859 276 968 202 213 664 633 500
shrinkage=0.05


Tree=29
num_leaves=15
num_cat=0
split_feature=4 49 49 2 2 47 25 223 47 162 49 48 1 48
split_gain=61.0309 14.5785 13.3994 9.83063 9.68997 8.01985 7.14643 8.01645 6.57319 6.07556 8.00791 5.56123 5.32619 5.19513
threshold=1.5000000000000002 191.00000000000003 1450.0000000000002 5.5000000000000009 1.5000000000000002 1.0000000180025095e-35 1.0000000180025095e-35 0.088858589004051178 9.5000000000000018 0.038024753852992733 675.00000000000011 32.500000000000007 -0.56757712914999991 9.5000000000000018
decision_type=2 2 2 2 2 2 2 2 2 2 2 2 2 2
left_child=1 4 3 -2 -1 6 7 -6 -7 10 11 -3 -5 -10
right_child=2 9 -4 12 5 8 -8 -9 13 -11 -12 -13 -14 -15
leaf_value=-0.025455960145013203 0.005297439595225625 -0.00080879160927371438 0.034520214331983511 0.020452850439653406 0.0052256014905527814 -0.023705791710724372 -0.0098197636541859437 -0.0064930137332827103 -0.013535820831478175 -0.0057715111911015964 0.018488716684294412 0.012889775436718105 0.0049016187205173393 0.0041532356765563204
leaf_weight=72 474 535 59 234 279 106 365 306 140 281 74 86 72 59
leaf_count=72 474 535 59 234 279 106 365 306 140 281 74 86 72 59
internal_value=0 -0.00420606 0.0115454 0.00980753 -0.00761775 -0.00659436 -0.00432961 -0.000904136 -0.0136485 0.000432569 0.00294098 0.00108827 0.0167937 -0.00829133
internal_weight=0 2303 839 780 1327 1255 950 585 305 976 695 621 306 199
internal_count=3142 2303 839 780 1327 1255 950 585 305 976 695 621 306 199
shrinkage=0.05


Tree=30
num_leaves=15
num_cat=0
split_feature=2 2 25 47 49 47 3 1 47 48 2 223 1 1
split_gain=56.1863 19.9558 10.3632 9.30224 8.68241 7.65768 6.53567 5.32523 5.26933 5.17887 4.86703 4.83709 4.70865 4.75383
threshold=3.5000000000000004 5.5000000000000009 1.0000000180025095e-35 1.0000000180025095e-35 675.00000000000011 1.0000000180025095e-35 2.5000000000000004 -0.56757712914999991 1.0000000180025095e-35 32.500000000000007 2.5000000000000004 1.0000000180025095e-35 -0.56776571354999983 -0.59983321379999988
decision_type=2 2 2 2 2 2 2 2 2 2 2 2 2 2
left_child=2 3 5 4 11 9 7 8 -3 12 -7 -2 13 -1
right_child=1 6 -4 -5 -6 10 -8 -9 -10 -11 -12 -13 -14 -15
leaf_value=-0.014795087525656201 0.011248381611025954 0.023089989031094216 -0.011468574485837803 -0.0028949282976356268 0.020354485204047965 -0.017351273649620066 0.031189233419884527 0.0020363588193161547 0.0067207477676371743 0.012282823051970738 -0.0014779232308658697 0.0016846106825825014 -0.0093537782787337913 0.00079855408477704458
leaf_weight=53 197 155 583 341 106 139 70 69 72 65 74 402 188 628
leaf_count=53 197 155 583 341 106 139 70 69 72 65 74 402 188 628
internal_value=0 0.00740095 -0.00604055 0.00388485 0.00716414 -0.00328158 0.0174497 0.0142005 0.017898 -0.00133059 -0.0118366 0.00482996 -0.00234886 -0.000415048
internal_weight=0 1412 1730 1046 705 1147 366 296 227 934 213 599 869 681
internal_count=3142 1412 1730 1046 705 1147 366 296 227 934 213 599 869 681
shrinkage=0.05


Tree=31
num_leaves=15
num_cat=0
split_feature=2 3 6 7 49 49 4 152 169 154 17 1 162 45
split_gain=50.7081 18.3491 9.84395 6.41362 6.11112 5.96813 5.83026 5.37862 4.3856 4.12475 3.95381 3.67304 3.51779 3.40952
threshold=3.5000000000000004 1.5000000000000002 1.5000000000000002 1.5000000000000002 775.00000000000011 465.00000000000006 1.0000000180025095e-35 0.26189824537205947 0.13334203088492333 0.23301809390873277 1.0000000180025095e-35 -0.55830540524999983 0.17151344735705498 6.5000000000000009
decision_type=2 2 2 2 2 2 2 2 2 2 2 2 2 2
left_child=2 5 3 -1 10 9 13 12 -5 11 -3 -2 -8 -4
right_child=1 4 6 8 -6 -7 7 -9 -10 -11 -12 -13 -14 -15
leaf_value=-0.014041060316998517 0.0015839860775789323 0.0064776692302183289 -0.013656405496847216 0.00097696646304673844 0.027731643613860615 0.0097893479635697053 -0.00028460383046215041 0.0096980860221933217 -0.012354922581464053 0.015432448200997899 0.019534213633456254 -0.012087927219229487 -0.009548329478457164 -0.0024769633424390728
leaf_weight=436 672 118 158 161 99 306 514 113 100 50 114 53 128 120
leaf_count=436 672 118 158 161 99 306 514 113 100 50 114 53 128 120
internal_value=0 0.00703091 -0.00573852 -0.0103301 0.0173314 0.00387691 -0.0026404 -0.000361045 -0.00413104 0.00154245 0.0128934 0.000584522 -0.00213158 -0.00883075
internal_weight=0 1412 1730 697 331 1081 1033 755 261 775 232 725 642 278
internal_count=3142 1412 1730 697 331 1081 1033 755 261 775 232 725 642 278
shrinkage=0.05


Tree=32
num_leaves=15
num_cat=0
split_feature=48 49 20 8 49 220 6 48 217 17 0 203 47 29
split_gain=37.8534 18.3819 9.92801 7.41866 6.99383 6.50879 6.78266 6.3768 4.95439 4.82652 4.45492 4.35894 4.25947 5.46426
threshold=35.500000000000007 372.00000000000006 1.0000000180025095e-35 1.5000000000000002 940.00000000000011 0.25430984276947738 1.5000000000000002 62.500000000000007 0.20361994809122899 1.0000000180025095e-35 44.83678383525001 0.15774123324791553 1.0000000180025095e-35 1.0000000180025095e-35
decision_type=2 2 2 2 2 2 2 2 2 2 2 2 2 2
left_child=1 2 3 -1 -3 6 11 8 10 -8 -2 -5 13 -4
right_child=7 4 12 5 -6 -7 9 -9 -10 -11 -12 -13 -14 -15
leaf_value=-0.018341291423987698 -0.00095034011119846681 0.002988115820006459 0.018371906016978461 -0.008469925106072012 0.016926302969309123 0.010645218323043083 -0.0045966979164490203 0.027038357724583281 0.024472375743990318 0.0054351776638793745 0.013160349501413295 -0.022012145658407145 -0.0052627023601903924 0.002079709036793758
leaf_weight=111 86 540 74 471 108 64 914 82 58 138 160 68 99 169
leaf_count=111 86 540 74 471 108 64 914 82 58 138 160 68 99 169
internal_value=0 -0.00205387 -0.00431788 -0.0058279 0.00531115 -0.00498864 -0.00561753 0.0146644 0.0113267 -0.00328073 0.00822734 -0.0101784 0.00347949 0.00704112
internal_weight=0 2756 2108 1766 648 1655 1591 386 304 1052 246 539 342 243
internal_count=3142 2756 2108 1766 648 1655 1591 386 304 1052 246 539 342 243
shrinkage=0.05


Tree=33
num_leaves=15
num_cat=0
split_feature=4 0 0 4 49 47 0 1 0 51 1 25 1 17
split_gain=42.6397 11.753 10.4471 10.2005 8.84297 7.48778 7.13851 7.33753 6.928 5.98789 5.63009 5.03347 4.95494 5.93653
threshold=1.5000000000000002 44.832212049000013 44.852135796100008 3.5000000000000004 372.00000000000006 1.0000000180025095e-35 44.837948821750011 -0.55956609949999991 44.834181949950008 3.5000000000000004 -0.56703946384999993 1.0000000180025095e-35 -0.59470921249999986 1.0000000180025095e-35
decision_type=2 2 2 2 2 2 2 2 2 2 2 2 2 2
left_child=1 9 4 8 6 -4 -3 -8 -2 11 12 -1 -10 -14
right_child=3 2 5 -5 -6 -7 7 -9 10 -11 -12 -13 13 -15
leaf_value=-0.0044535438499808538 -0.00056836606861141174 -0.0069578281133580062 -0.0047560806599095257 0.024987938806104164 0.0080263635509728298 -0.020819155130731432 0.0034290206253798612 -0.014416679104033393 -0.00086432265591595268 -0.025626283485649361 -4.6538800742585683e-05 -0.014866618943587987 0.010134144523513638 0.02281705327961292
leaf_weight=330 190 387 307 96 311 95 576 64 57 54 103 179 245 148
leaf_count=330 190 387 307 96 311 95 576 64 57 54 103 179 245 148
internal_value=0 -0.00351567 -0.00148389 0.00965028 0.000639737 -0.00855208 -0.00159711 0.00164445 0.00766856 -0.00979505 0.0104986 -0.00811551 0.0129123 0.0149104
internal_weight=0 2303 1740 839 1338 402 1027 640 743 563 553 509 450 393
internal_count=3142 2303 1740 839 1338 402 1027 640 743 563 553 509 450 393
shrinkage=0.05


Tree=34
num_leaves=15
num_cat=0
split_feature=2 2 2 47 15 47 1 49 1 4 0 0 0 0
split_gain=40.0654 14.7265 9.28406 8.73758 8.14039 7.69846 6.44506 6.40016 5.27755 4.76546 4.74854 3.91045 4.297 3.8172
threshold=3.5000000000000004 5.5000000000000009 1.5000000000000002 1.0000000180025095e-35 1.0000000180025095e-35 1.0000000180025095e-35 -0.59983321379999988 675.00000000000011 -0.56776571354999983 3.5000000000000004 44.831836794000004 44.850868176450007 44.831427518550008 44.853817263800011
decision_type=2 2 2 2 2 2 2 2 2 2 2 2 2 2
left_child=2 5 -1 4 6 7 -4 -2 9 -3 -8 12 -7 -12
right_child=1 8 3 -5 -6 11 10 -9 -10 -11 13 -13 -14 -15
leaf_value=-0.022071867167054643 0.004208371524084111 0.014237462045723357 -0.018625915680191854 -0.011575267992548299 0.012112350183214701 -0.010904324756767085 -0.0087251289238682115 0.017537251239168054 0.0037953492314330341 0.028938678761633738 0.00046870613052685662 -0.014186071285641651 0.0032854333241753853 -0.0081437331323902448
leaf_weight=77 599 208 67 331 89 72 254 106 83 75 757 63 206 155
leaf_count=77 599 208 67 331 89 72 254 106 83 75 757 63 206 155
internal_value=0 0.00624967 -0.00510089 -0.00431035 -0.00249137 0.00322919 -0.00354549 0.00621243 0.014882 0.0181335 -0.00267895 -0.00293852 -0.000389612 -0.000995031
internal_weight=0 1412 1730 1653 1322 1046 1233 705 366 283 1166 341 278 912
internal_count=3142 1412 1730 1653 1322 1046 1233 705 366 283 1166 341 278 912
shrinkage=0.05


Tree=35
num_leaves=15
num_cat=0
split_feature=2 4 2 47 15 47 1 49 46 49 223 47 49 7
split_gain=36.159 13.4548 8.37886 7.88567 7.3467 6.9902 5.81666 5.68516 5.31894 4.59292 4.54189 3.81721 3.62769 3.18918
threshold=3.5000000000000004 2.5000000000000004 1.5000000000000002 1.0000000180025095e-35 1.0000000180025095e-35 1.0000000180025095e-35 -0.59983321379999988 555.00000000000011 36.500000000000007 999.50000000000011 1.0000000180025095e-35 9.5000000000000018 372.00000000000006 2.5000000000000004
decision_type=2 2 2 2 2 2 2 2 2 2 2 2 2 2
left_child=2 5 -1 4 6 7 -4 10 -5 -3 -2 -7 13 -8
right_child=1 9 3 8 -6 11 12 -9 -10 -11 -12 -13 -14 -15
leaf_value=-0.020968273877129927 0.010355104575393766 0.01207935609120098 -0.017694619947126997 -0.013670129826361996 0.011506732415114896 -0.012137840023560047 -0.0050175597042933992 0.015945614485099215 0.0040292687118053437 0.026904071759033418 0.0013164541858997323 0.00048946729809501042 0.0034933847986252571 0.0031713802762758391
leaf_weight=77 210 206 67 281 89 74 822 128 50 70 411 313 205 139
leaf_count=77 210 206 67 281 89 74 822 128 50 70 411 313 205 139
internal_value=0 0.00593719 -0.00484584 -0.00409483 -0.0023668 0.00353141 -0.00336821 0.0063507 -0.0109965 0.0158392 0.004373 -0.00192506 -0.002545 -0.0038331
internal_weight=0 1412 1730 1653 1322 1136 1233 749 331 276 621 387 1166 961
internal_count=3142 1412 1730 1653 1322 1136 1233 749 331 276 621 387 1166 961
shrinkage=0.05


Tree=36
num_leaves=15
num_cat=0
split_feature=2 49 20 15 0 12 0 4 17 153 7 17 74 192
split_gain=33.1042 13.4469 9.07131 7.32067 6.17456 6.63031 5.87607 7.77066 5.34791 4.69691 3.74085 4.05761 3.63191 2.9979
threshold=4.5000000000000009 226.00000000000003 1.0000000180025095e-35 1.0000000180025095e-35 44.837445349500008 1.0000000180025095e-35 44.828878792350004 3.5000000000000004 1.0000000180025095e-35 0.24723352990322553 2.5000000000000004 1.0000000180025095e-35 0.27332299554167133 0.016580510075919028
decision_type=2 2 2 2 2 2 2 2 2 2 2 2 2 2
left_child=1 2 4 8 5 -1 -2 -8 9 -3 11 -6 -12 -4
right_child=6 3 13 -5 10 -7 7 -9 -10 -11 12 -13 -14 -15
leaf_value=-0.015924778971459073 -0.00044312655701928423 0.0002765389377142906 0.00083890200286354543 0.015590699202073935 -0.0069724663610774883 -0.0056966071795775666 0.010884983026760199 0.028519057574387836 0.0082388759838364911 -0.013197505091213519 0.012230380546343305 0.0044821483331251438 -0.0036418101392113249 0.014051292793426132
leaf_weight=283 84 636 184 94 514 360 351 76 196 72 67 91 78 56
leaf_count=283 84 636 184 94 514 360 351 76 196 72 67 91 78 56
internal_value=0 -0.00226182 -0.00505625 0.00231063 -0.00660308 -0.0101983 0.0116455 0.0140236 0.000929732 -0.0010937 -0.0035208 -0.00524954 0.00369224 0.00392179
internal_weight=0 2631 1633 998 1393 643 511 427 904 708 750 605 145 240
internal_count=3142 2631 1633 998 1393 643 511 427 904 708 750 605 145 240
shrinkage=0.05


Tree=37
num_leaves=15
num_cat=0
split_feature=2 49 25 0 4 15 0 0 215 165 49 174 0 223
split_gain=30.1742 11.1384 7.96331 6.80581 7.02923 5.65535 5.46024 6.8126 4.14457 3.92133 3.38557 3.2495 3.07562 3.09434
threshold=3.5000000000000004 625.00000000000011 1.0000000180025095e-35 44.828435065600011 2.5000000000000004 1.0000000180025095e-35 44.829608718950006 44.852135796100008 0.27212038944948885 0.30453304390703778 1450.0000000000002 0.29629066328647224 44.838080815050013 0.36197166750786475
decision_type=2 2 2 2 2 2 2 2 2 2 2 2 2 2
left_child=2 3 5 -2 9 6 -1 12 11 -5 -3 -4 13 -8
right_child=1 10 8 4 -6 -7 7 -9 -10 -11 -12 -13 -14 -15
leaf_value=-0.011100434570706317 -0.0058843930586677572 0.011812743336843429 -0.0092199725403564192 0.0023683681397745271 0.014884605787822284 0.010023715026262734 -0.00044251995157161404 -0.0099034793848323741 0.0045794208543375138 0.016050737925771892 0.025494748959317803 -0.022610061006620528 0.0036787659449360704 -0.013181249568879139
leaf_weight=175 167 167 483 807 153 90 232 187 50 56 62 50 403 60
leaf_count=175 167 167 483 807 153 90 232 187 50 56 62 50 403 60
internal_value=0 0.00542363 -0.00442669 0.00346979 0.00500734 -0.00200819 -0.00303266 -0.00143191 -0.00918487 0.00325622 0.015517 -0.0104761 0.000847486 -0.00306007
internal_weight=0 1412 1730 1183 1016 1147 1057 882 583 863 229 533 695 292
internal_count=3142 1412 1730 1183 1016 1147 1057 882 583 863 229 533 695 292
shrinkage=0.05


Tree=38
num_leaves=15
num_cat=0
split_feature=2 25 15 1 241 0 0 12 0 47 35 45 12 2
split_gain=27.6307 12.6804 9.77428 6.40611 6.72162 6.52565 7.11798 5.23378 5.1647 4.89695 4.25522 4.18714 4.15249 4.03629
threshold=4.5000000000000009 1.0000000180025095e-35 1.0000000180025095e-35 -0.56231239969999991 0.022797564124820761 44.853432451400003 44.838080815050013 1.0000000180025095e-35 44.832356719700009 1.0000000180025095e-35 1.0000000180025095e-35 9.5000000000000018 1.0000000180025095e-35 2.5000000000000004
decision_type=2 2 2 2 2 2 2 2 2 2 2 2 2 2
left_child=1 2 3 4 9 6 -6 -2 12 -1 -8 -4 -3 -11
right_child=7 8 11 -5 5 -7 10 -9 -10 13 -12 -13 -14 -15
leaf_value=0.0058865736916569799 -0.00085150345462845661 -0.023616776885050161 0.003837577940579743 -0.00951066797623705 -0.0062063858666121189 -0.015067762762488685 -0.0054262137270554723 0.012867644254526064 -0.0048916875293768544 -0.015559126269251395 0.007722771588292824 0.020068281567023127 -0.008871103681672864 0.0017372353308019229
leaf_weight=560 83 73 78 190 344 98 84 428 607 52 230 81 138 96
leaf_count=560 83 73 78 190 344 98 84 428 607 52 230 81 138 96
internal_value=0 -0.00206639 0.000265204 -0.000873064 0.000247937 -0.00303069 -0.00123793 0.0106393 -0.0072341 0.00374884 0.00420521 0.012106 -0.0139727 -0.00433986
internal_weight=0 2631 1813 1654 1464 756 658 511 818 708 314 159 211 148
internal_count=3142 2631 1813 1654 1464 756 658 511 818 708 314 159 211 148
shrinkage=0.05


Tree=39
num_leaves=15
num_cat=0
split_feature=4 0 0 1 4 49 0 1 1 17 51 6 7 25
split_gain=24.5886 8.11014 8.04473 7.94739 6.88934 6.60795 7.13571 6.60042 6.34284 5.51572 5.41394 4.60267 4.11621 3.94497
threshold=1.5000000000000002 44.832212049000013 44.852135796100008 -0.56757712914999991 3.5000000000000004 110.00000000000001 44.8386359235 -0.58365495784999999 -0.59470921249999986 1.0000000180025095e-35 3.5000000000000004 1.5000000000000002 1.0000000180025095e-35 1.0000000180025095e-35
decision_type=2 2 2 2 2 2 2 2 2 2 2 2 2 2
left_child=1 10 5 4 8 6 -3 -7 -2 -10 13 -4 -8 -1
right_child=3 2 11 -5 -6 7 12 -9 9 -11 -12 -13 -14 -15
leaf_value=-0.0030470288803123614 -0.0055567699788759157 -0.0089525447155321455 -0.013466417719575595 -0.0018214034717262573 0.023662592669279548 -0.0073867202500248544 -0.0010954116131133083 0.0062642995182357599 0.0061066568945784645 0.017066896860565804 -0.022939370204780804 -0.0026279825874596292 0.011616833271776759 -0.012265680040695899
leaf_weight=330 75 271 169 185 80 104 285 596 320 179 54 233 82 179
leaf_count=330 75 271 169 185 80 104 285 596 320 179 54 233 82 179
internal_value=0 -0.00266973 -0.00098195 0.00732824 0.00991644 0.000881578 -0.00279898 0.00423615 0.0080006 0.0100383 -0.00788597 -0.00718444 0.00174493 -0.00628895
internal_weight=0 2303 1740 839 654 1338 638 700 574 499 563 402 367 509
internal_count=3142 2303 1740 839 654 1338 638 700 574 499 563 402 367 509
shrinkage=0.05


Tree=40
num_leaves=15
num_cat=0
split_feature=4 49 49 12 8 4 12 10 28 188 55 154 48 223
split_gain=22.1912 6.98269 6.91829 5.81654 5.50777 4.88057 4.42459 7.31371 4.67285 4.34862 4.08981 3.84891 3.72842 3.22558
threshold=1.5000000000000002 1450.0000000000002 372.00000000000006 1.0000000180025095e-35 1.5000000000000002 3.5000000000000004 1.0000000180025095e-35 1.0000000180025095e-35 1.0000000180025095e-35 0.054959771363767347 0.47385555133263885 1.0000000180025095e-35 57.000000000000007 0.057921493782869655
decision_type=2 2 2 2 2 2 2 2 2 2 2 2 2 2
left_child=2 3 4 9 -1 12 7 13 10 -2 -8 -4 -5 -6
right_child=1 -3 11 5 6 -7 8 -9 -10 -11 -12 -13 -14 -15
leaf_value=-0.014043652036041021 -0.010096384851882856 0.023547066875804469 0.00097061902042859429 0.0050744650309542741 0.013869767699553743 0.020993991586239269 -0.0027384297279084663 -0.0093103493963571666 0.013021908579739156 0.0075536484642183049 0.011908220655284824 0.013550444684612254 0.019369429223239421 -0.0033392080114156546
leaf_weight=125 90 59 391 520 53 63 1019 483 54 57 50 72 50 56
leaf_count=125 90 59 391 520 53 63 1019 483 54 57 50 72 50 56
internal_value=0 0.00696183 -0.00253625 0.00570731 -0.00391093 0.00778802 -0.0031724 -0.00667026 -0.00132846 -0.00325249 -0.00205337 0.00292688 0.00632841 0.00502846
internal_weight=0 839 2303 780 1840 633 1715 592 1123 147 1069 463 570 109
internal_count=3142 839 2303 780 1840 633 1715 592 1123 147 1069 463 570 109
shrinkage=0.05


Tree=41
num_leaves=15
num_cat=0
split_feature=2 47 2 47 1 55 2 47 15 1 15 51 51 0
split_gain=21.9381 8.4023 7.16068 6.5022 6.00399 6.3353 5.89543 5.87285 5.15943 5.34661 4.09752 4.67294 3.88996 3.68462
threshold=3.5000000000000004 1.0000000180025095e-35 1.5000000000000002 1.0000000180025095e-35 -0.56757712914999991 0.26187531812623416 5.5000000000000009 21.000000000000004 1.0000000180025095e-35 -0.59983321379999988 1.0000000180025095e-35 1.5000000000000002 2.5000000000000004 44.841477764600008
decision_type=2 2 2 2 2 2 2 2 2 2 2 2 2 2
left_child=2 4 -1 8 6 -6 10 -3 9 -4 11 -2 -8 -14
right_child=1 7 3 -5 5 -7 12 -9 -10 -11 -12 -13 13 -15
leaf_value=-0.018678934231714964 0.012853481961253414 -0.0031732086968318351 -0.016085639700237939 -0.0093473179593211633 0.0051123478704331714 -0.01478630007144862 0.023428438170173885 0.014560244545199962 0.010115206972015707 -0.0015610456656498673 0.018226528091099002 0.002068428153034495 0.00012948818267414383 0.019230515983421358
leaf_weight=77 139 392 67 331 140 56 102 53 89 1166 67 362 51 50
leaf_count=77 139 392 67 331 140 56 102 53 89 1166 67 362 51 50
internal_value=0 0.00462458 -0.00377451 -0.00308023 0.00724106 -0.00057298 0.00922751 -0.00106113 -0.00151109 -0.0023503 0.0066137 0.00506069 0.016541 0.00958544
internal_weight=0 1412 1730 1653 967 196 771 445 1322 1233 568 501 203 101
internal_count=3142 1412 1730 1653 967 196 771 445 1322 1233 568 501 203 101
shrinkage=0.05


Tree=42
num_leaves=15
num_cat=0
split_feature=48 12 20 4 0 10 8 1 0 0 1 0 6 16
split_gain=19.4715 9.69623 7.97684 7.5926 5.67223 5.65152 5.46775 5.06996 4.66577 4.85854 6.54649 4.61398 4.43152 4.01588
threshold=35.500000000000007 1.0000000180025095e-35 1.0000000180025095e-35 1.5000000000000002 44.837445349500008 1.0000000180025095e-35 1.5000000000000002 -0.55830540524999983 44.852135796100008 44.837858185550004 -0.57958757869999988 44.832212049000013 1.5000000000000002 1.0000000180025095e-35
decision_type=2 2 2 2 2 2 2 2 2 2 2 2 2 2
left_child=1 2 4 6 -1 -6 -3 8 9 -8 -11 -2 -10 -12
right_child=11 3 -4 -5 5 -7 7 -9 12 10 13 -13 -14 -15
leaf_value=-0.011999785178995611 -0.0010972118424251674 -0.013243180742073391 0.0097157182991632254 0.0060426674576101276 0.0087143291711795322 -0.0064248756269550556 -0.0014566977380734781 -0.011256984044688152 -0.015856817294541119 -0.0010690757014460608 0.0004516960099365001 0.013090390771040931 -0.0012873891455029358 0.014134960624822737
leaf_weight=369 70 90 73 462 78 294 554 102 77 220 73 316 162 202
leaf_count=369 70 90 73 462 78 294 554 102 77 220 73 316 162 202
internal_value=0 -0.00147306 -0.00605389 0.000447019 -0.00760744 -0.00325053 -0.00129973 -0.000526414 0.000323367 0.0017598 0.00535968 0.0105175 -0.00598131 0.0105027
internal_weight=0 2756 814 1942 741 372 1480 1390 1288 1049 495 386 239 275
internal_count=3142 2756 814 1942 741 372 1480 1390 1288 1049 495 386 239 275
shrinkage=0.05


Tree=43
num_leaves=15
num_cat=0
split_feature=2 25 15 1 241 0 0 0 4 1 0 35 0 152
split_gain=18.3554 10.0464 7.63271 5.303 5.93723 5.60989 6.19207 4.30447 5.25712 4.09641 4.42853 4.01177 3.97082 3.94815
threshold=4.5000000000000009 1.0000000180025095e-35 1.0000000180025095e-35 -0.56231239969999991 0.022797564124820761 44.852446422150003 44.838301338400008 44.828878792350004 3.5000000000000004 -0.57896543389999988 44.835357607700011 1.0000000180025095e-35 44.832356719700009 1.0000000180025095e-35
decision_type=2 2 2 2 2 2 2 2 2 2 2 2 2 2
left_child=1 2 3 4 9 6 -6 -2 -9 -1 -11 -8 -3 -4
right_child=7 12 13 -5 5 -7 11 8 -10 10 -12 -13 -14 -15
leaf_value=-0.0014522561792284251 -0.0016749153384894488 -0.012192624851937684 0.0025164046796659631 -0.0084735476334677328 -0.0052770834303198511 -0.012793099529768244 -0.0048972012315061878 0.0081253983865755223 0.022629729488031256 -0.00036880104036460964 0.010021912976780525 0.0082868520523632933 -0.0042300889527730982 0.018299600353375786
leaf_weight=250 84 211 75 190 353 116 80 351 76 155 303 207 607 84
leaf_count=250 84 211 75 190 353 116 80 351 76 155 303 207 607 84
internal_value=0 -0.00168422 0.000391134 -0.000614734 0.000405194 -0.0026762 -0.000842513 0.00867159 0.010707 0.0036955 0.0065054 0.00461185 -0.00628399 0.0108547
internal_weight=0 2631 1813 1654 1464 756 640 511 427 708 458 287 818 159
internal_count=3142 2631 1813 1654 1464 756 640 511 427 708 458 287 818 159
shrinkage=0.05


Tree=44
num_leaves=15
num_cat=0
split_feature=2 47 2 47 47 7 17 154 46 51 46 6 45 4
split_gain=17.1938 7.37326 6.36082 5.69619 5.01522 4.57199 4.51548 4.46405 4.43361 4.03466 3.56054 3.53029 2.96611 3.76786
threshold=3.5000000000000004 1.0000000180025095e-35 1.5000000000000002 1.0000000180025095e-35 21.000000000000004 2.5000000000000004 1.0000000180025095e-35 1.0000000180025095e-35 36.500000000000007 1.5000000000000002 9.5000000000000018 1.5000000000000002 13.500000000000002 1.0000000180025095e-35
decision_type=2 2 2 2 2 2 2 2 2 2 2 2 2 2
left_child=2 6 -1 5 -3 11 7 9 -5 -2 -7 -4 13 -13
right_child=1 4 3 8 -6 10 -8 -9 -10 -11 -12 12 -14 -15
leaf_value=-0.01738889671842471 0.0091917574828969222 -0.0031838498318244759 -0.0075042162811107781 -0.010993990600539962 0.013203695166926339 0.0098788595899451243 0.011554836282500518 0.017339092718784588 0.0051653868015855559 0.00024772368154694235 -0.0053853002573864966 -0.0087560526300987079 0.0039804094597619992 -0.00021894726648811352
leaf_weight=77 180 392 264 281 53 144 307 59 50 421 52 181 229 452
leaf_count=77 180 392 264 281 53 144 307 59 50 421 52 181 229 452
internal_value=0 0.0040941 -0.00334155 -0.00268719 -0.00123207 -0.00121852 0.00654514 0.00421487 -0.008553 0.00292647 0.00582918 -0.0024453 -0.000895935 -0.00266005
internal_weight=0 1412 1730 1653 445 1322 967 660 331 601 196 1126 862 633
internal_count=3142 1412 1730 1653 445 1322 967 660 331 601 196 1126 862 633
shrinkage=0.05


Tree=45
num_leaves=15
num_cat=0
split_feature=48 2 124 0 48 15 0 0 48 174 0 1 45 51
split_gain=15.8459 9.18822 6.38667 5.73194 5.32253 5.11364 4.22374 3.92164 3.52332 3.51389 3.50317 4.03978 3.29827 3.26854
threshold=35.500000000000007 2.5000000000000004 0.36785793357380564 44.831836794000004 1.0000000180025095e-35 1.0000000180025095e-35 44.852135796100008 44.832212049000013 14.500000000000002 0.22020708817125487 44.835895425850005 -0.57007776254999987 15.500000000000002 1.5000000000000002
decision_type=2 2 2 2 2 2 2 2 2 2 2 2 2 2
left_child=1 3 4 -1 5 10 9 -2 -6 12 -3 13 -5 -12
right_child=7 2 -4 6 8 -7 -8 -9 -10 -11 11 -13 -14 -15
leaf_value=-0.0097648707510187283 -0.0012199940319572175 -0.0014344403574315674 -0.013757067671394908 -0.00099721331708133238 -0.0081182896477846999 0.01729692220923644 -0.0080068405702250958 0.011859916699858666 0.0010654532231434307 -0.012826662568629466 0.016357873977077279 -0.0015292539702647407 0.0087754782924259252 0.0055687393290446792
leaf_weight=342 70 212 64 675 139 79 252 316 420 55 110 115 99 194
leaf_count=342 70 212 64 675 139 79 252 316 420 55 110 115 99 194
internal_value=0 -0.00132886 0.001654 -0.00412307 0.00243124 0.0053045 -0.00233815 0.00948791 -0.00121816 -0.000614974 0.00380307 0.00645307 0.000252782 0.0094727
internal_weight=0 2756 1333 1423 1269 710 1081 386 559 829 631 419 774 304
internal_count=3142 2756 1333 1423 1269 710 1081 386 559 829 631 419 774 304
shrinkage=0.05


Tree=46
num_leaves=15
num_cat=0
split_feature=2 25 15 1 241 47 37 49 51 26 0 12 40 45
split_gain=14.5884 8.60645 6.41251 4.61197 4.767 4.14977 4.04181 5.24573 4.00894 4.17947 3.97785 3.848 3.6581 3.4443
threshold=4.5000000000000009 1.0000000180025095e-35 1.0000000180025095e-35 -0.55830540524999983 0.022797564124820761 1.0000000180025095e-35 1.0000000180025095e-35 97.500000000000014 3.5000000000000004 1.0000000180025095e-35 44.836097526750009 1.0000000180025095e-35 1.0000000180025095e-35 9.5000000000000018
decision_type=2 2 2 2 2 2 2 2 2 2 2 2 2 2
left_child=1 2 3 4 5 -1 7 -6 9 10 -3 -2 -13 -4
right_child=11 8 13 -5 6 -7 -8 -9 -10 -11 -12 12 -14 -15
leaf_value=0.0050632148029169073 -0.0021220700001815355 -0.0082015736147038817 0.0025109359137833309 -0.010072081186808647 -0.01558597425007195 -0.0041431539788308941 0.00033554290077459411 -0.0019699583898121396 -0.016696013238795691 -0.018451457241020514 -0.00047853813597523582 0.0077210156402027566 0.020767777947901144 0.017231671739927273
leaf_weight=582 83 281 78 117 112 155 496 192 76 51 410 365 63 81
leaf_count=582 83 281 78 117 112 155 496 192 76 51 410 365 63 81
internal_value=0 -0.00150149 0.000419391 -0.000502578 0.000225875 0.003127 -0.00244679 -0.00698639 -0.00575888 -0.00463863 -0.00361916 0.00773074 0.00964145 0.0100102
internal_weight=0 2631 1813 1654 1537 737 800 304 818 742 691 511 428 159
internal_count=3142 2631 1813 1654 1537 737 800 304 818 742 691 511 428 159
shrinkage=0.05


Tree=47
num_leaves=15
num_cat=0
split_feature=49 45 49 20 12 2 0 7 48 0 1 40 0 1
split_gain=13.8 7.46792 7.32378 6.42461 6.7138 4.33433 4.22604 4.46265 3.47733 3.50779 3.33102 3.66984 3.26875 3.19256
threshold=372.00000000000006 27.500000000000004 1450.0000000000002 1.0000000180025095e-35 1.0000000180025095e-35 3.5000000000000004 44.837445349500008 2.5000000000000004 35.500000000000007 44.846406434650014 -0.55830540524999983 1.0000000180025095e-35 44.833315544800008 -0.58569150714999985
decision_type=2 2 2 2 2 2 2 2 2 2 2 2 2 2
left_child=1 3 8 4 6 10 -1 -8 9 12 11 13 -2 -6
right_child=2 -3 -4 -5 5 -7 7 -9 -10 -11 -12 -13 -14 -15
leaf_value=-0.011761100285509293 -0.0018688392756437814 0.016489252282904005 0.020967925153398528 0.0034619096282559139 -0.011959515327499027 0.0022899747276886925 -0.0072255863667755804 0.0061942043559004871 0.0099086994900196602 -0.0037008981867175969 -0.014982419522599348 0.0089295745361596349 0.007495005219117769 -0.0023640684148064119
leaf_weight=331 135 53 69 375 105 464 236 84 190 180 62 60 301 497
leaf_count=331 135 53 69 375 105 464 236 84 190 180 62 60 301 497
internal_value=0 -0.00205866 0.00533369 -0.00250267 -0.00371894 -0.00148256 -0.00780008 -0.00370289 0.00399528 0.00217133 -0.00390031 -0.00286241 0.00459565 -0.00403769
internal_weight=0 2267 875 2214 1839 1188 651 320 806 616 724 662 436 602
internal_count=3142 2267 875 2214 1839 1188 651 320 806 616 724 662 436 602
shrinkage=0.05


Tree=48
num_leaves=15
num_cat=0
split_feature=48 12 20 8 1 0 0 0 1 6 7 10 0 217
split_gain=12.512 6.78259 6.2252 5.51297 5.04523 4.71476 4.55459 4.50108 4.74487 4.41703 4.09869 3.85794 3.50727 3.20954
threshold=35.500000000000007 1.0000000180025095e-35 1.0000000180025095e-35 1.5000000000000002 -0.55830540524999983 44.852135796100008 44.829046547650009 44.837858185550004 -0.57958757869999988 1.5000000000000002 2.5000000000000004 1.0000000180025095e-35 44.832212049000013 0.20447345576517631
decision_type=2 2 2 2 2 2 2 2 2 2 2 2 2 2
left_child=1 2 6 -3 5 7 -1 -5 10 -7 -9 -8 -2 -14
right_child=12 3 -4 4 -6 9 11 8 -10 -11 -12 -13 13 -15
leaf_value=-0.01443558718433643 -0.0016954666070107902 -0.011589849219596077 0.0089189181732227518 0.00033063667196358659 -0.0078391480159798691 -0.014135690690804418 0.004177871183560884 -0.001785591093167845 0.0097974090025032094 -0.00037267453270033006 0.012888524739537388 -0.0063365296799621556 0.0083609613728882586 0.021651214373043993
leaf_weight=142 70 91 73 727 148 77 106 230 369 240 60 493 261 55
leaf_count=142 70 91 73 727 148 77 106 230 369 240 60 493 261 55
internal_value=0 -0.00118082 -0.00501207 0.000425068 0.00101575 0.00178529 -0.00638449 0.00304346 0.00603622 -0.00371574 0.00125043 -0.00447588 0.00843095 0.0106741
internal_weight=0 2756 814 1942 1851 1703 741 1386 659 317 290 599 386 316
internal_count=3142 2756 814 1942 1851 1703 741 1386 659 317 290 599 386 316
shrinkage=0.05


Tree=49
num_leaves=15
num_cat=0
split_feature=49 48 2 47 47 45 4 156 49 0 43 161 20 49
split_gain=11.9393 7.0474 6.04606 6.13751 5.74386 5.31409 4.51386 4.06667 3.50783 3.29426 3.28034 3.6195 3.19974 3.65477
threshold=675.00000000000011 28.500000000000004 1.5000000000000002 1.0000000180025095e-35 9.5000000000000018 1.0000000180025095e-35 1.0000000180025095e-35 0.14870550209009523 1450.0000000000002 44.848543831550003 1.0000000180025095e-35 0.037554281773034597 1.0000000180025095e-35 125.00000000000001
decision_type=2 2 2 2 2 2 2 2 2 2 2 2 2 2
left_child=1 2 -1 6 -5 -6 -4 12 -2 -7 11 -3 -8 -14
right_child=8 10 3 4 5 9 7 -9 -10 -11 -12 -13 13 -15
leaf_value=-0.016067563389117519 0.0066415939305170041 0.0085277937953467439 -0.0065594281220221597 -0.014062394926261249 -0.0095838162079754322 0.0051993579450616704 -0.00068061659336009044 0.013651914530588935 0.019613369376199535 -0.007913723502737972 0.015437481462334594 -0.00081102326410416705 0.011329086494538211 -0.0014796054828347762
leaf_weight=75 213 174 235 162 178 182 1185 60 69 65 60 257 129 98
leaf_count=75 213 174 235 162 178 182 1185 60 69 65 60 257 129 98
internal_value=0 -0.000967826 -0.00209778 -0.00164105 -0.00605134 -0.00299771 -0.000124447 0.000902877 0.00981554 0.00174855 0.00448402 0.00295917 0.000361133 0.00579934
internal_weight=0 2860 2369 2294 587 425 1707 1472 282 247 491 431 1412 227
internal_count=3142 2860 2369 2294 587 425 1707 1472 282 247 491 431 1412 227
shrinkage=0.05


Tree=50
num_leaves=15
num_cat=0
split_feature=2 46 49 2 1 0 4 1 1 45 0 51 0 1
split_gain=11.0767 6.24027 5.85155 4.58537 3.59571 3.17598 4.12538 3.2251 3.56131 3.15699 2.96188 6.42419 5.79332 4.88333
threshold=4.5000000000000009 51.500000000000007 324.50000000000006 1.5000000000000002 -0.55830540524999983 44.828878792350004 3.5000000000000004 -0.59321918704999987 -0.56746730689999991 9.5000000000000018 44.838390634900001 3.5000000000000004 44.851701568750009 -0.57129758199999991
decision_type=2 2 2 2 2 2 2 2 2 2 2 2 2 2
left_child=1 2 3 -1 10 -2 7 -7 -9 -4 11 -5 -12 -14
right_child=5 -3 9 4 -6 6 -8 8 -10 -11 12 -13 13 -15
leaf_value=-0.015439577004225512 -0.0021510464322221068 0.01476923674897496 -0.0010723277774598936 -0.0026509778554690139 -0.010109976766398177 -0.0055616396432742483 0.019046380183365394 0.011451244988129475 -0.00081197356900062278 0.0059130409212711336 0.0031454340493853963 -0.017791901372203774 -0.011072483576542131 0.0019325168941923905
leaf_weight=72 84 59 322 777 146 50 76 220 81 325 558 77 169 126
leaf_count=72 84 59 322 777 146 50 76 220 81 325 558 77 169 126
internal_value=0 -0.00130835 -0.00167716 -0.00305979 -0.00257876 0.00673632 0.00848465 0.00619778 0.00815118 0.00243655 -0.00193461 -0.00401614 0.000149355 -0.00551781
internal_weight=0 2631 2572 1925 1853 511 427 351 301 647 1707 854 853 295
internal_count=3142 2631 2572 1925 1853 511 427 351 301 647 1707 854 853 295
shrinkage=0.05


Tree=51
num_leaves=15
num_cat=0
split_feature=49 109 25 1 43 46 12 1 47 0 214 12 45 0
split_gain=10.1622 6.20232 6.57229 5.55618 5.11774 3.96493 4.52703 3.86612 3.39945 6.92144 4.50807 5.89612 3.96306 3.68864
threshold=675.00000000000011 1.0000000180025095e-35 1.0000000180025095e-35 -0.55830540524999983 1.0000000180025095e-35 1.0000000180025095e-35 1.0000000180025095e-35 -0.5955928386999999 1.0000000180025095e-35 44.851888803800001 1.0000000180025095e-35 1.0000000180025095e-35 8.5000000000000018 44.837297681300008
decision_type=2 2 2 2 2 2 2 2 2 2 2 2 2 2
left_child=1 2 3 4 7 6 -4 -1 10 12 -9 -12 13 -10
right_child=-2 -3 5 -5 -6 -7 -8 8 9 -11 11 -13 -14 -15
leaf_value=-0.0074385378146065231 0.0090556241682951885 0.016217533982126043 -0.0089354749147117895 -0.0089090040218097726 0.011132499412537269 -0.0094591045668311682 0.00055816476888678691 0.006183356818484192 -0.012585083847121476 -0.019299186197194187 -0.0079147010456948556 0.0027736089359274504 0.0055674424144338559 0.0025460123488058647
leaf_weight=141 282 52 182 147 121 299 405 492 87 55 178 469 157 75
leaf_count=141 282 52 182 147 121 299 405 492 87 55 178 469 157 75
internal_value=0 -0.000892897 -0.00120976 0.000432609 0.00120625 -0.00477254 -0.00238535 0.000480088 0.00121804 -0.00291796 0.00257613 -0.000166915 -9.36141e-05 -0.00557995
internal_weight=0 2860 2808 1922 1775 886 587 1654 1513 374 1139 647 319 162
internal_count=3142 2860 2808 1922 1775 886 587 1654 1513 374 1139 647 319 162
shrinkage=0.05


Tree=52
num_leaves=15
num_cat=0
split_feature=2 47 2 47 1 1 28 193 140 0 10 12 205 0
split_gain=9.67948 5.5644 4.36985 4.05689 3.8018 3.78677 3.77219 3.67695 3.75952 3.48075 3.4354 3.22218 2.99919 2.92013
threshold=3.5000000000000004 1.0000000180025095e-35 1.5000000000000002 1.0000000180025095e-35 -0.56757712914999991 -0.59983321379999988 1.0000000180025095e-35 0.076478397155941055 0.28585835054594416 44.852135796100008 1.0000000180025095e-35 1.0000000180025095e-35 0.25363225003493195 44.854433338700005
decision_type=2 2 2 2 2 2 2 2 2 2 2 2 2 2
left_child=2 4 -1 5 7 -4 13 8 -2 -6 -7 -12 -13 -3
right_child=1 6 3 -5 9 10 -8 -9 -10 -11 11 12 -14 -15
leaf_value=-0.014150356569678172 0.0092026635139113612 -0.001537651974194887 -0.012042649920497623 -0.0069151341528251907 -0.0061500891600167612 0.0084316559058303635 0.011383867998141797 -0.0036599100429540207 -0.0026496256124228239 0.007632174674016487 -0.0050385047972930164 2.3616358987973583e-05 0.012665300883818419 -0.014358170271175459
leaf_weight=77 620 344 70 331 123 108 50 76 75 73 333 761 50 51
leaf_count=77 620 344 70 331 123 108 50 76 75 73 333 761 50 51
internal_value=0 0.00307184 -0.00250719 -0.00196483 0.0052011 -0.000725379 -0.00155511 0.00678181 0.00792364 -0.0010169 -9.26247e-05 -0.000897365 0.000803005 -0.00319296
internal_weight=0 1412 1730 1653 967 1322 445 771 695 196 1252 1144 811 395
internal_count=3142 1412 1730 1653 967 1322 445 771 695 196 1252 1144 811 395
shrinkage=0.05


Tree=53
num_leaves=15
num_cat=0
split_feature=2 25 45 203 47 196 7 205 1 51 26 12 0 37
split_gain=9.09218 6.32213 4.47181 4.97303 4.0196 4.88714 4.84317 4.14338 3.40751 3.39661 3.61782 3.22893 3.17506 2.98733
threshold=4.5000000000000009 1.0000000180025095e-35 12.500000000000002 0.16644010781870003 1.0000000180025095e-35 0.10982552194613567 6.5000000000000009 0.098512883988554942 -0.57958757869999988 3.5000000000000004 1.0000000180025095e-35 1.0000000180025095e-35 44.836097526750009 1.0000000180025095e-35
decision_type=2 2 2 2 2 2 2 2 2 2 2 2 2 2
left_child=1 2 3 4 5 6 8 -6 -1 10 12 -7 -3 -14
right_child=-2 9 -4 -5 7 11 -8 -9 -10 -11 -12 -13 13 -15
leaf_value=-0.0047395066229985391 0.0061031048860836733 -0.0069486047212926026 0.0043609074782301896 -0.0085215019712054328 -0.01217939198103209 -0.010110817587253853 0.016745839124495114 0.0013798741580239523 0.0055005342328171385 -0.014901531494443157 -0.016654386469984756 0.00028534111443836736 -0.0037686291467018684 0.0048480325449510656
leaf_weight=109 511 281 523 193 119 104 74 107 319 76 51 265 233 177
leaf_count=109 511 281 523 193 119 104 74 107 319 76 51 265 233 177
internal_value=0 -0.00118536 0.000460976 -0.00112016 0.000181992 0.0017237 0.00493477 -0.00575974 0.00289267 -0.00483427 -0.00380313 -0.00264474 -0.00285463 -4.87532e-05
internal_weight=0 2631 1813 1290 1097 871 502 226 428 818 742 369 691 410
internal_count=3142 2631 1813 1290 1097 871 502 226 428 818 742 369 691 410
shrinkage=0.05


Tree=54
num_leaves=15
num_cat=0
split_feature=49 49 20 12 27 10 73 8 1 1 51 48 49 1
split_gain=8.66921 5.12202 4.80935 4.35835 3.28346 3.1064 3.34629 3.08323 2.92138 3.96375 2.91574 3.03932 2.82052 2.69182
threshold=372.00000000000006 1450.0000000000002 1.0000000180025095e-35 1.0000000180025095e-35 1.0000000180025095e-35 1.0000000180025095e-35 0.32867911989685633 1.5000000000000002 -0.56914964029999993 -0.57958757869999988 4.5000000000000009 41.000000000000007 226.00000000000003 -0.56364880779999993
decision_type=2 2 2 2 2 2 2 2 2 2 2 2 2 2
left_child=2 10 3 4 5 -1 -7 -5 9 -9 11 13 -11 -2
right_child=1 -3 -4 7 -6 6 -8 8 -10 12 -12 -13 -14 -15
leaf_value=0.003016629181671714 0.0037155037622102361 0.017302089873566361 0.0034600685190639227 -0.010845741339678533 -0.016076255510200445 -0.0048909259664066049 -0.017774974536804253 -0.0029618226505475696 -0.0043146149116588773 0.0019771578804488061 -0.0072194760413526286 0.011094395902194083 0.010708251507665086 -0.0067624537491887491
leaf_weight=107 549 69 385 73 71 435 57 325 318 373 63 125 123 69
leaf_count=107 549 69 385 73 71 435 57 325 318 373 63 125 123 69
internal_value=0 0.00422745 -0.00163168 -0.0026733 -0.00590949 -0.00470442 -0.00638359 -0.00088431 -0.000245869 0.00133009 0.00310816 0.00398385 0.00414233 0.00254563
internal_weight=0 875 2267 1882 670 599 492 1212 1139 821 806 743 496 618
internal_count=3142 875 2267 1882 670 599 492 1212 1139 821 806 743 496 618
shrinkage=0.05


Tree=55
num_leaves=15
num_cat=0
split_feature=3 46 49 2 138 47 7 136 1 204 45 51 1 153
split_gain=7.97164 5.66833 5.55799 4.26134 4.17993 3.48087 4.89601 4.03595 4.35225 3.96398 3.74408 3.62248 3.44259 3.29539
threshold=1.5000000000000002 51.500000000000007 372.00000000000006 1.5000000000000002 0.36585922500045226 1.0000000180025095e-35 2.5000000000000004 0.42405829012296892 -0.5588424837499999 0.090403855793261725 1.5000000000000002 1.5000000000000002 -0.58765266299999996 0.25754803456992253
decision_type=2 2 2 2 2 2 2 2 2 2 2 2 2 2
left_child=1 2 3 -1 5 6 7 8 12 10 -7 -11 -5 -4
right_child=-2 -3 13 4 -6 9 -8 -9 -10 11 -12 -13 -14 -15
leaf_value=-0.015251212572105802 0.0063078833346160677 0.014191541198330621 0.0037212606393133537 -0.0093653580087109233 0.011748528707315789 -0.018495369121471109 0.0059497350177692629 -0.011461925916778653 -0.012203980241038869 -0.0087690229464090601 -0.0057298733059876969 0.0035024173247875825 0.00033077724611102856 -0.009175180662768307
leaf_weight=65 432 60 599 102 52 96 197 115 89 106 143 139 893 54
leaf_count=65 432 60 599 102 52 96 197 115 89 106 143 139 893 54
internal_value=0 -0.00100554 -0.00134962 -0.00265903 -0.00223538 -0.00262216 -0.00135534 -0.00255559 -0.00161073 -0.00627605 -0.0108574 -0.00180686 -0.000663198 0.00265479
internal_weight=0 2710 2650 1997 1932 1880 1396 1199 1084 484 239 245 995 653
internal_count=3142 2710 2650 1997 1932 1880 1396 1199 1084 484 239 245 995 653
shrinkage=0.05


Tree=56
num_leaves=15
num_cat=0
split_feature=2 47 51 17 1 0 46 47 0 25 46 51 27 25
split_gain=7.52884 5.42764 4.73315 3.86965 4.09263 3.86508 3.65195 3.37873 3.30412 2.46596 3.35905 2.43171 2.39439 2.31547
threshold=2.5000000000000004 1.0000000180025095e-35 1.5000000000000002 1.0000000180025095e-35 -0.58290959599999992 44.831836794000004 49.500000000000007 18.500000000000004 44.852135796100008 1.0000000180025095e-35 9.5000000000000018 1.5000000000000002 1.0000000180025095e-35 1.0000000180025095e-35
decision_type=2 2 2 2 2 2 2 2 2 2 2 2 2 2
left_child=5 2 -2 12 -5 -1 8 9 13 10 -3 -10 -4 -7
right_child=1 7 3 4 -6 6 -8 -9 11 -11 -12 -13 -14 -15
leaf_value=-0.0071809779403053308 0.0094505665787528708 -0.0075757807579391939 0.0014477344035616663 -0.0051869848456520306 0.010534427790292379 0.001529211064981472 0.010332950714689036 0.0050608106896534617 -0.010935787972994149 -0.010398203821439583 0.0030522042968551613 -0.00038981118434390358 -0.0070833463707044358 -0.0040571518385607809
leaf_weight=351 319 134 443 52 203 542 65 136 150 111 167 86 101 282
leaf_count=351 319 134 443 52 203 542 65 136 150 111 167 86 101 282
internal_value=0 0.00230376 0.00430181 0.00224618 0.00732849 -0.00260031 -0.00117114 -0.00177257 -0.00187658 -0.00402825 -0.00167919 -0.00709276 -0.000136161 -0.000382627
internal_weight=0 1666 1118 799 255 1476 1125 548 1060 412 301 236 544 824
internal_count=3142 1666 1118 799 255 1476 1125 548 1060 412 301 236 544 824
shrinkage=0.05


Tree=57
num_leaves=15
num_cat=0
split_feature=49 109 25 1 46 51 2 0 3 204 1 49 51 48
split_gain=7.30007 5.84422 5.03737 4.98502 3.89417 3.42332 3.35021 3.24488 5.10768 4.32639 4.31912 3.8566 3.57359 3.21737
threshold=940.00000000000011 1.0000000180025095e-35 1.0000000180025095e-35 -0.55830540524999983 1.0000000180025095e-35 2.5000000000000004 4.5000000000000009 44.828435065600011 1.5000000000000002 0.11477034270573429 -0.57958757869999988 191.00000000000003 2.5000000000000004 1.0000000180025095e-35
decision_type=2 2 2 2 2 2 2 2 2 2 2 2 2 2
left_child=1 2 3 7 5 6 -4 12 10 -10 -9 -12 -1 -2
right_child=13 -3 4 -5 -6 -7 -8 8 9 -11 11 -13 -14 -15
leaf_value=-0.00075464949910925266 0.018100718467862213 0.01525406452189935 -0.0016102755812128313 -0.0082116196778530912 -0.0086058926867315418 -0.010602650194938019 0.010622737185622101 -0.0029929689769982873 0.016819339305033335 0.0014619243680499495 -0.00061131325954968333 0.0057793041339292278 -0.014859411557662792 0.0044822538230698886
leaf_weight=188 70 57 446 152 305 91 64 456 101 84 427 528 59 114
leaf_count=188 70 57 446 152 305 91 64 456 101 84 427 528 59 114
internal_value=0 -0.000601091 -0.000912619 0.000491457 -0.00400438 -0.00166917 -7.51524e-05 0.00120924 0.00203459 0.00984624 0.00101038 0.00292193 -0.0041238 0.00966319
internal_weight=0 2958 2901 1995 906 601 510 1843 1596 185 1411 955 247 184
internal_count=3142 2958 2901 1995 906 601 510 1843 1596 185 1411 955 247 184
shrinkage=0.05


Tree=58
num_leaves=15
num_cat=0
split_feature=49 88 2 0 47 67 0 0 0 7 1 1 188 174
split_gain=6.73759 5.32326 5.62685 4.0198 3.433 4.78983 4.77637 3.25907 3.51007 3.43857 5.25302 5.72408 3.24616 3.71437
threshold=1450.0000000000002 0.35519691147017818 3.5000000000000004 44.828435065600011 1.0000000180025095e-35 0.42658444648714611 44.850627681750005 44.838080815050013 44.852135796100008 2.5000000000000004 -0.57958757869999988 -0.56797982099999988 0.24118874912327085 0.18660401560103909
decision_type=2 2 2 2 2 2 2 2 2 2 2 2 2 2
left_child=1 2 7 -4 5 12 -6 -1 9 10 -9 -12 13 -5
right_child=-2 -3 3 4 6 -7 -8 8 -10 -11 11 -13 -14 -15
leaf_value=-0.0041989144921208942 0.015451693389753718 -0.010131146970749448 -0.0045442972490618138 0.0045045451343847433 0.0027539039828767499 -0.0093864555470645431 -0.01104924396171959 -0.0053491049517589463 -0.004414169359117058 0.011236847467940823 0.0081680388225058489 -0.010077465915730081 0.018777779868676091 0.017653349924327457
leaf_weight=775 69 133 172 599 277 50 81 207 276 93 248 52 51 59
leaf_count=775 69 133 172 599 277 50 81 207 276 93 248 52 51 59
internal_value=0 -0.000346947 9.5672e-05 0.00257125 0.00366693 0.00557064 -0.000369155 -0.00183711 0.000252394 0.00239901 0.000777871 0.00500548 0.00662544 0.00568354
internal_weight=0 3073 2940 1289 1117 759 358 1651 876 600 507 300 709 658
internal_count=3142 3073 2940 1289 1117 759 358 1651 876 600 507 300 709 658
shrinkage=0.05


Tree=59
num_leaves=15
num_cat=0
split_feature=109 156 12 20 0 10 136 6 155 177 1 4 1 16
split_gain=6.41401 5.5961 4.95717 5.05755 4.36799 4.00263 3.9345 3.72512 3.7733 3.17201 3.15976 3.43778 5.67256 3.06877
threshold=1.0000000180025095e-35 0.093084541474554638 1.0000000180025095e-35 1.0000000180025095e-35 44.837445349500008 1.0000000180025095e-35 1.0000000180025095e-35 1.5000000000000002 0.36743910680081188 0.2589637221914009 -0.55830540524999983 3.5000000000000004 -0.57948403554999983 1.0000000180025095e-35
decision_type=2 2 2 2 2 2 2 2 2 2 2 2 2 2
left_child=1 2 3 4 -1 -6 7 9 10 -4 11 12 -9 -14
right_child=-2 -3 6 -5 5 -7 -8 8 -10 -11 -12 -13 13 -15
leaf_value=-0.0093239120441517068 0.014965570713726006 0.0090124397494180716 -0.0058103545589941489 0.0078108180675189945 0.0088734631605242222 -0.004177238485522366 -0.0067434885157753935 -0.0032585486469437577 0.014079773964476773 0.0051604921455659413 -0.0069494611550724563 0.013433004822052848 -0.0020526078347095542 0.0052854523758552128
leaf_weight=364 70 152 293 80 73 301 174 397 64 85 99 66 176 748
leaf_count=364 70 152 293 80 73 301 174 397 64 85 99 66 176 748
internal_value=0 -0.000341012 -0.000827904 -0.00413035 -0.00542478 -0.00162991 0.000457252 0.00110711 0.00219245 -0.00334337 0.00168048 0.00229646 0.00174006 0.00388773
internal_weight=0 3072 2920 818 738 374 2102 1928 1550 378 1486 1387 1321 924
internal_count=3142 3072 2920 818 738 374 2102 1928 1550 378 1486 1387 1321 924
shrinkage=0.05


Tree=60
num_leaves=15
num_cat=0
split_feature=48 46 1 0 0 51 7 1 178 16 215 1 220 0
split_gain=5.97446 4.67469 4.37748 4.28819 7.38562 5.46001 4.32156 7.57756 5.20601 4.86242 3.59427 4.28128 3.58931 3.40834
threshold=49.500000000000007 52.500000000000007 -0.56468765594999992 44.852135796100008 44.837858185550004 3.5000000000000004 2.5000000000000004 -0.57958757869999988 0.090083410907743355 1.0000000180025095e-35 0.073310913719070683 -0.58242926439999987 0.19673876408276877 44.842190176700008
decision_type=2 2 2 2 2 2 2 2 2 2 2 2 2 2
left_child=1 2 3 4 5 12 7 -6 -8 -9 11 -5 -1 -2
right_child=13 -3 -4 10 6 -7 8 9 -10 -11 -12 -13 -14 -15
leaf_value=-0.00153331058076864 0.0024775299456388017 0.014073079376358469 -0.0055614825515049454 -0.01299847148418171 -0.0030179131981533242 -0.01252969342351027 0.023122659144678811 -0.0019424505138416746 0.0021999968842057317 0.0094677005323723692 -0.010256035866141561 0.0037431676917262131 0.012225887778680772 0.014339060327508308
leaf_weight=911 145 53 430 51 340 111 61 124 58 378 174 152 50 104
leaf_count=911 145 53 430 51 340 111 61 124 58 378 174 152 50 104
internal_value=0 -0.000639649 -0.000914217 -8.50373e-05 0.000823203 -0.00203017 0.00400616 0.00274565 0.0129251 0.00664926 -0.00498279 -0.00046286 -0.000817431 0.00743174
internal_weight=0 2893 2840 2410 2033 1072 961 842 119 502 377 203 961 249
internal_count=3142 2893 2840 2410 2033 1072 961 842 119 502 377 203 961 249
shrinkage=0.05


Tree=61
num_leaves=15
num_cat=0
split_feature=109 156 88 0 51 3 0 47 155 223 154 12 136 35
split_gain=5.71155 5.05204 4.42163 5.39918 7.17715 4.88469 3.78219 3.95531 3.22446 3.40532 3.3326 3.04693 3.16846 2.82873
threshold=1.0000000180025095e-35 0.093084541474554638 0.35519691147017818 44.837858185550004 3.5000000000000004 1.5000000000000002 44.851701568750009 1.0000000180025095e-35 0.12394035852650032 0.35191330759438227 1.0000000180025095e-35 1.0000000180025095e-35 0.30369129274482914 1.0000000180025095e-35
decision_type=2 2 2 2 2 2 2 2 2 2 2 2 2 2
left_child=1 2 3 4 11 6 8 -8 9 10 -5 -1 -13 -7
right_child=-2 -3 -4 5 -6 13 7 -9 -10 -11 -12 12 -14 -15
leaf_value=-0.0053601856196503171 0.014122302139044874 0.0085653512176481605 -0.0098714550241311375 -0.0020805514527037091 -0.013573417939904546 0.015109796731911124 -0.00076368211048034396 -0.012116184686263553 0.010951680427935628 0.0075517010954018055 0.0075381631045516821 0.0013916136875666459 -0.0092480293191515676 0.0035268807969987396
leaf_weight=347 70 152 128 518 138 94 341 99 97 171 109 680 78 120
leaf_count=347 70 152 128 518 138 94 341 99 97 171 109 680 78 120
internal_value=0 -0.000321797 -0.000784416 -0.000367818 -0.00282234 0.00160182 0.000477656 -0.003318 0.00234367 0.00129734 -0.000408399 -0.00147967 0.000296769 0.0086147
internal_weight=0 3072 2920 2792 1243 1549 1335 440 895 798 627 1105 758 214
internal_count=3142 3072 2920 2792 1243 1549 1335 440 895 798 627 1105 758 214
shrinkage=0.05


Tree=62
num_leaves=15
num_cat=0
split_feature=49 47 47 2 15 22 51 210 4 188 192 51 5 19
split_gain=5.39589 4.51216 5.26971 4.95503 5.57779 3.59617 3.38054 3.08374 2.81994 3.26765 3.22789 3.25442 4.011 3.32301
threshold=1450.0000000000002 1.0000000180025095e-35 9.5000000000000018 1.5000000000000002 1.0000000180025095e-35 1.0000000180025095e-35 1.5000000000000002 1.0000000180025095e-35 1.0000000180025095e-35 0.23430681833836497 0.18042430004429791 1.5000000000000002 1.5000000000000002 1.0000000180025095e-35
decision_type=2 2 2 2 2 2 2 2 2 2 2 2 2 2
left_child=1 3 -3 -1 5 7 -4 8 -5 10 11 12 13 -10
right_child=-2 2 6 4 -6 -7 -8 -9 9 -11 -12 -13 -14 -15
leaf_value=-0.011682032303908817 0.013827867100042277 -0.010837726693076852 -0.0057404623869265516 -0.0046806573375628852 0.0094367050559619678 -0.0053881455611541488 0.0020541409397052636 0.0095698609553017816 0.014838680704081156 0.0098456659952514906 -0.0061365634767063613 -0.00042698683176336778 0.017667642390976349 0.0015918942132960485
leaf_weight=77 69 191 241 213 189 233 329 104 54 108 149 747 54 384
leaf_count=77 69 191 241 213 189 233 329 104 54 108 149 747 54 384
internal_value=0 -0.000310486 -0.00364999 0.000788721 0.00121836 0.000459189 -0.00124147 0.00121067 0.000701974 0.00146835 0.000816514 0.00165268 0.00481022 0.00322506
internal_weight=0 3073 761 2312 2235 2046 570 1813 1709 1496 1388 1239 492 438
internal_count=3142 3073 761 2312 2235 2046 570 1813 1709 1496 1388 1239 492 438
shrinkage=0.05


Tree=63
num_leaves=15
num_cat=0
split_feature=109 156 12 136 6 39 124 155 73 177 193 47 10 11
split_gain=5.10206 4.44981 4.35255 3.22336 3.29745 3.81574 3.76167 3.7807 3.12517 3.37493 3.03145 2.53665 4.86464 2.36161
threshold=0.49812746173489925 0.093084541474554638 1.0000000180025095e-35 1.0000000180025095e-35 1.5000000000000002 1.0000000180025095e-35 0.39111184580756025 0.36154643165553463 0.32867911989685633 0.13470976289321571 0.065673796705243356 1.0000000180025095e-35 1.0000000180025095e-35 1.0000000180025095e-35
decision_type=2 2 2 2 2 2 2 2 2 2 2 2 2 2
left_child=1 2 8 4 5 -4 7 -6 9 10 11 12 -1 -14
right_child=-2 -3 3 -5 6 -7 -8 -9 -10 -11 -12 -13 13 -15
leaf_value=0.016764555149420629 0.015531636390817137 0.0080805350755996964 0.0038110831762194807 -0.006011853992789128 0.0020770077744600712 -0.0067380660450233401 -0.010169508199517925 0.014686969132913697 -0.01330027140211314 -0.0067565820823720039 -0.010265644112998835 -0.0053461233862338864 0.0064115715631744771 -0.0040209083308582194
leaf_weight=60 52 152 131 174 1440 248 60 62 78 311 61 94 99 120
leaf_count=60 52 152 131 174 1440 248 60 62 78 311 61 94 99 120
