tree
version=v3
num_class=1
num_tree_per_iteration=1
label_index=0
max_feature_idx=251
objective=regression
feature_names=Column_0 Column_1 Column_2 Column_3 Column_4 Column_5 Column_6 Column_7 Column_8 Column_9 Column_10 Column_11 Column_12 Column_13 Column_14 Column_15 Column_16 Column_17 Column_18 Column_19 Column_20 Column_21 Column_22 Column_23 Column_24 Column_25 Column_26 Column_27 Column_28 Column_29 Column_30 Column_31 Column_32 Column_33 Column_34 Column_35 Column_36 Column_37 Column_38 Column_39 Column_40 Column_41 Column_42 Column_43 Column_44 Column_45 Column_46 Column_47 Column_48 Column_49 Column_50 Column_51 Column_52 Column_53 Column_54 Column_55 Column_56 Column_57 Column_58 Column_59 Column_60 Column_61 Column_62 Column_63 Column_64 Column_65 Column_66 Column_67 Column_68 Column_69 Column_70 Column_71 Column_72 Column_73 Column_74 Column_75 Column_76 Column_77 Column_78 Column_79 Column_80 Column_81 Column_82 Column_83 Column_84 Column_85 Column_86 Column_87 Column_88 Column_89 Column_90 Column_91 Column_92 Column_93 Column_94 Column_95 Column_96 Column_97 Column_98 Column_99 Column_100 Column_101 Column_102 Column_103 Column_104 Column_105 Column_106 Column_107 Column_108 Column_109 Column_110 Column_111 Column_112 Column_113 Column_114 Column_115 Column_116 Column_117 Column_118 Column_119 Column_120 Column_121 Column_122 Column_123 Column_124 Column_125 Column_126 Column_127 Column_128 Column_129 Column_130 Column_131 Column_132 Column_133 Column_134 Column_135 Column_136 Column_137 Column_138 Column_139 Column_140 Column_141 Column_142 Column_143 Column_144 Column_145 Column_146 Column_147 Column_148 Column_149 Column_150 Column_151 Column_152 Column_153 Column_154 Column_155 Column_156 Column_157 Column_158 Column_159 Column_160 Column_161 Column_162 Column_163 Column_164 Column_165 Column_166 Column_167 Column_168 Column_169 Column_170 Column_171 Column_172 Column_173 Column_174 Column_175 Column_176 Column_177 Column_178 Column_179 Column_180 Column_181 Column_182 Column_183 Column_184 Column_185 Column_186 Column_187 Column_188 Column_189 Column_190 Column_191 Column_192 Column_193 Column_194 Column_195 Column_196 Column_197 Column_198 Column_199 Column_200 Column_201 Column_202 Column_203 Column_204 Column_205 Column_206 Column_207 Column_208 Column_209 Column_210 Column_211 Column_212 Column_213 Column_214 Column_215 Column_216 Column_217 Column_218 Column_219 Column_220 Column_221 Column_222 Column_223 Column_224 Column_225 Column_226 Column_227 Column_228 Column_229 Column_230 Column_231 Column_232 Column_233 Column_234 Column_235 Column_236 Column_237 Column_238 Column_239 Column_240 Column_241 Column_242 Column_243 Column_244 Column_245 Column_246 Column_247 Column_248 Column_249 Column_250 Column_251
feature_infos=[44.811866862799995:44.885275470100005] [-0.63688293559999998:-0.5382718796] [1:14] [0:35] [0:6] [0:9] [0:2] [0:12] [0:2] [0:5] [0:1] [0:1] [0:1] [0:1] [0:1] [0:1] [0:1] [0:1] [0:1] [0:1] [0:1] [0:1] [0:1] [0:1] [0:1] [0:1] [0:1] [0:1] [0:1] [0:1] [0:1] [0:1] [0:1] [0:1] [0:1] [0:1] [0:1] [0:1] [0:1] [0:1] [0:1] [0:1] [0:1] [0:1] [0:1] [0:67] [0:75] [0:100] [0:200] [0:4501] [0:2] [1:25] [0:0.93179568146173708] [0:0.87543939383866576] [0:1] [0:1] [0:1] [0:1] [0:0.82087104067464567] [0:0.85853444565460368] [0:1] [0:0.85671835545272912] [0:1] [0:1] [0:0.87056967835761878] [0:0.90466938598625357] [0:0.75230260307456853] [0:1] [0:0.91372612005944776] [0:1] [0:1] [0:1] [0:1] [0:1] [0:1] [0:1] [0:0.89169388263821747] [0:1] [0:1] [0:1] [0:0.81373201410990126] [0:1] [0:1] [0:0.81554437666110124] [0:1] [0:1] [0:0.73454839515389314] [0:1] [0:0.86443272330234788] [0:1] [0:1] [0:1] [0:1] [0:0.81136936184237252] [0:1] [0:1] [0:0.82860068376358709] [0:1] [0:0.86820726279534466] [0:0.88291359030488847] [0:0.87286862136285603] [0:1] [0:1] [0:0.91696662928178785] [0:0.90010295542590768] [0:0.82728757341729253] [0:1] [0:1] [0:1] [0:1] [0:1] [0:1] [0:1] [0:0.72569056520326236] [0:0.87898671151835506] [0:0.878653357999159] [0:0.89045571404500001] [0:1] [0:1] [0:0.84365261102802347] [0:0.91218161394948449] [0:1] [0:0.85655666475501391] [0:1] [0:0.86084310406322895] [0:0.86108369857480893] [0:0.82504432368205671] [0:0.71221657524941562] [0:0.88597841580942971] [0:1] [0:0.92044693746334849] [0:1] [0:1] [0:0.86118932660485203] [0:1] [0:0.89179413912976979] [0:1] [0:1] [0:0.89351560331220348] [0:1] [0:1] [0:1] [0:1] [0:1] [0:0.88464990730828186] [0:1] [0:0.82789757746359849] [0:0.79821868751596847] [0:0.85645732403016084] [0:0.82565108204694426] [0:0.90109258430299377] [0:0.73801622086198693] [0:0.68829047455206871] [0:0.63410172303897105] [0:0.53140811982839886] [0:0.5137665663075639] [0:0.5980048251789547] [0:0.59187475453013461] [0:0.57865529723298192] [0:0.86317580561098306] [0:0.74560222793558062] [0:0.47952108616686384] [0:1] [0:0.77491258810159591] [0:0.41145422992942599] [0:0.6166687480299925] [0:0.74244714123962763] [0:0.35323863947998541] [0:0.46798301047419583] [0:1] [0:0.89276222430679353] [0:0.63823152311110565] [0:0.6534718916267056] [0:0.44144153040080952] [0:0.62612379869488799] [0:0.47796895156521646] [0:0.48179523872922997] [0:0.67384750465557519] [0:0.82122416157146094] [0:0.68919756448039982] [0:0.71021080631817879] [0:0.8081856152806236] [0:0.51599692820503529] [0:0.64808872650380156] [0:0.58698488022692552] [0:0.33107774577710619] [0:0.76599589006621427] [0:1] [0:0.93435847010397133] [0:0.43870349307356105] [0:0.84489608120828052] [0:0.71042479169625361] [0:0.93127509331215097] [0:0.52015225628097772] [0:0.45486343189055783] [0:0.70785619334198779] [0:0.7548065907070467] [0:0.86255097500975808] [0:0.79516298921087647] [0:0.36496491714452084] [0:1] [0:0.68595793795892623] [0:0.53114590316508692] [0:0.47434050798765653] [0:0.40738179613376463] [0:1] [0:0.78592210247666616] [0:0.80003439473087457] [0:0.8260728155185737] [0:0.64935066019338505] [0:0.50615128803234999] [0:0.57515994364175393] [0:0.43764321151722801] [0:0.63159065685192306] [0:0.39108303408412165] [0:1] [0:0.72256372797513857] [0:0.76847274169080937] [0:1] [0:0.61594262383333143] [0:0.72936287194734828] [0:0.87271696944392241] [0:1] [0:0.57078253249248456] [0:0.82857881966554181] [0:0.58319684264582095] [0:0.7005764268467245] [0:0.38495974262280885] [0:0.83571352023983114] [0:0.88758090095320763] [0:0.71596433625639855] [0:0.66546197728008716] [0:0.51747239519792898] [0:0.31223002919512766] [0:1] [0:0.80825723252501702] [0:0.1246184130511783] [0:0.44622902610754039] [0:0.52817534095574203] [0:0.66495813352013955] [0:0.52167573036840975] [0:0.65643960341100205] [0:0.83136658386389828] [0:0.613749969342399] [0:0.90549438561555584] [0:0.6009188664146391] [0:0.56065516889868117] [0:0.67276110264488054] [0:0.62876382778368878] [0:0.9093911726677516] [0:0.52103644552481632] [0:0.92165151161983905]
tree_sizes=5919 5868 5970 5825 5833 5871 5896 5783 5845 5900 6000 5944 5840 5973 5835 5885 5900 5901 5851 5931 5901 5962 5935 5918 5960 5942 5948 6007 5989 6098 6017 5902 5995 6015 6052 5971 6005 6001 5981 6046 5933 6042 5978 6049 6089 6141 6042 6027 5944 5991 6061 6136 6072 5989 6111 6074 6215 6209 6093 6076 6164 6066 6092 5992 6067 6128 6107 6103 6077 6102 6073 6225 6181 6140 6063 6052 6124 6277 6169 6222 6280 6134 6199 6159 6332 6057 6162 6156 6327 6198 6375 6286 6205 6221 6252 6211 6368 6233 6268 6168 6328 6287 6172 6227 6226 6300 6240 6216 6428 6072 6355 6341 6343 6122 6242 6286

Tree=0
num_leaves=63
num_cat=0
split_feature=4 6 3 136 2 2 10 0 48 17 48 2 47 223 2 2 17 48 189 47 154 2 7 4 2 29 50 45 4 58 0 51 15 125 4 160 1 205 1 64 154 1 202 176 117 191 36 0 2 97 38 0 0 178 107 1 7 221 0 191 48 45
split_gain=1052.08 217.654 159.177 61.9826 56.4735 46.4137 32.2159 29.3472 21.1971 18.5398 15.2962 13.8683 14.2952 12.5206 11.4174 10.0716 9.7409 9.64689 9.61721 11.7112 9.22285 8.45858 6.92056 6.54487 5.84354 5.81649 5.84243 5.68807 5.68344 6.39453 5.63052 5.97639 5.3335 5.16218 4.90764 4.83088 4.8195 4.74278 4.57022 4.56893 4.52441 4.52063 4.4865 4.47148 5.10771 4.36675 4.33328 3.9115 3.84884 3.73462 3.61734 3.52622 6.59828 3.51457 3.37547 3.36296 3.32941 3.58341 3.27133 3.22151 5.2776 3.768
threshold=1.5000000000000002 1.5000000000000002 1.5000000000000002 1.0000000180025095e-35 7.5000000000000009 3.5000000000000004 1.0000000180025095e-35 44.832722481600008 38.000000000000007 1.0000000180025095e-35 57.000000000000007 1.5000000000000002 1.0000000180025095e-35 1.0000000180025095e-35 1.5000000000000002 3.5000000000000004 1.0000000180025095e-35 22.500000000000004 0.12591836381486798 1.0000000180025095e-35 0.012397761767727609 10.500000000000002 1.5000000000000002 1.0000000180025095e-35 5.5000000000000009 1.0000000180025095e-35 1.5000000000000002 19.500000000000004 1.0000000180025095e-35 0.40360060390354741 44.839815875700005 5.5000000000000009 1.0000000180025095e-35 0.36989630268827117 2.5000000000000004 0.11542871524618316 -0.59208056429999989 1.0000000180025095e-35 -0.58568727389999997 0.44588937207207463 0.24877858615867832 -0.56862427694999995 0.082054168171114009 0.24263635718717938 0.4607758033816301 0.18640257252805148 1.0000000180025095e-35 44.841245691800005 2.5000000000000004 0.43801421162279175 1.0000000180025095e-35 44.837824961750009 44.843052658250009 0.10958688262505821 0.53386856087083767 -0.56880802749999992 8.5000000000000018 0.12621677815661281 44.835873362850016 0.21507488759414964 14.500000000000002 13.500000000000002
decision_type=2 2 2 2 2 2 2 2 2 2 2 2 2 2 2 2 2 2 2 2 2 2 2 2 2 2 2 2 2 2 2 2 2 2 2 2 2 2 2 2 2 2 2 2 2 2 2 2 2 2 2 2 2 2 2 2 2 2 2 2 2 2
left_child=1 5 8 7 10 6 14 28 13 17 16 -8 22 15 -1 -2 34 20 19 35 23 36 49 -9 40 26 51 -10 -3 -30 31 -5 -24 43 -4 -7 -6 39 -19 48 50 59 -12 44 54 -22 47 -36 -11 58 55 -16 -53 -38 -25 -17 57 -57 -13 60 61 -18
right_child=2 3 4 30 21 18 11 9 27 37 42 12 -14 -15 25 24 41 38 -20 -21 45 -23 32 33 -26 -27 -28 -29 29 -31 -32 -33 -34 -35 46 -37 53 -39 -40 -41 -42 -43 -44 -45 -46 -47 -48 -49 -50 -51 -52 52 -54 -55 -56 56 -58 -59 -60 -61 -62 -63
leaf_value=-0.068362697447775969 -0.0039481707608439356 -0.038224113998304263 0.039401134967322352 -0.032203067087690308 0.13265696766394003 0.022356249043520501 -0.071151658608435614 -0.022910539289852747 0.045621154691907508 0.0040418543538956854 0.11330863031604685 -0.054348959245484905 -0.059366370658443413 0.069535535784240779 -0.029364898096562602 0.030413592129452348 0.073279342369082442 -0.014124391833811836 -0.03140733744240725 -0.012695660551143044 0.0070243102352363527 0.15895969311314448 -0.033094513041403005 -0.004557178308878489 0.036567223630261492 -0.040903378913089955 0.014371540098564048 0.075671067132466102 -0.012588660553295196 -0.05150894168055975 -0.019857280187962421 -0.067562065048913864 0.0054855026544890981 -0.030141406403855896 0.054875821271713768 0.07150336022096497 0.091619073587542676 0.047820533260336286 0.011895027018380277 0.046731356667157234 0.046173910663804892 0.051806973348484657 0.078755969915252869 0.016605159392096357 -0.040032846940878816 0.03936687728929144 0.04458971320259196 0.096153800834393718 0.019552825336549493 -0.015227957790914955 0.012942821519661253 0.015384936838815944 -0.021535107558081051 0.12348812411146981 0.023447637825837496 0.0243273327915105 0.039966189587291298 -0.0068960369696952732 -0.041669535496469623 0.098362113719076424 0.058131877210188851 0.11042362003533575
leaf_weight=12.999999999999998 29 27 59 148 15.999999999999998 10.000000000000002 63 53 92 79 17 82 142 15.999999999999998 46 107 18.000000000000004 19 10.999999999999998 13.999999999999998 41 9.9999999999999982 86 493 106 26 14.999999999999998 19 260 10.999999999999998 98 12.999999999999998 9.9999999999999982 19 11.000000000000002 9.9999999999999982 31 10.999999999999998 151 9.9999999999999982 19 24 21 26 9.9999999999999982 13.999999999999998 20 11.999999999999998 81 9.9999999999999982 91 17 42 11.999999999999998 10.999999999999998 17 9.9999999999999982 20 134 13.999999999999998 33 10.999999999999998
leaf_count=13 29 27 59 148 16 10 63 53 92 79 17 82 142 16 46 107 18 19 11 14 41 10 86 493 106 26 15 19 260 11 98 13 10 19 11 10 31 11 151 10 19 24 21 26 10 14 20 12 81 10 91 17 42 12 11 17 10 20 134 14 33 11
internal_value=-5.56392e-09 -0.017413 0.0480892 -0.00694796 0.0765718 -0.0399609 -0.0431878 -0.00254762 0.0313569 0.00149218 0.0651106 -0.0491394 -0.0461507 0.0261659 -0.0234613 0.0244268 0.0596357 -0.00164562 0.00923058 0.0223781 -0.00435558 0.116437 -0.0403226 -0.00611814 0.0266508 -0.0194632 -0.0148179 0.0507648 -0.016348 -0.0141685 -0.0293065 -0.0350581 -0.0290758 -0.00452602 0.0487641 0.0469298 0.10923 0.0160023 0.00898697 0.0139435 0.0226692 0.0707248 0.0942137 -0.00362474 -0.00464804 0.015257 0.061611 0.0764122 0.0118943 -0.0451001 0.0208464 -0.0189878 -0.0108971 0.100513 -0.00394596 0.0255166 0.0143682 0.00744984 -0.046483 0.0766988 0.0718071 0.0873686
internal_weight=0 2306 835 1575 309 731 686 1316 526 1018 240 527 464 415 159 399 202 837 45 34 667 69 322 612 370 146 120 111 298 271 259 161 96 559 102 20 59 181 170 170 264 100 38 540 514 55 43 23 160 226 245 105 59 43 504 154 47 37 216 76 62 29
internal_count=3141 2306 835 1575 309 731 686 1316 526 1018 240 527 464 415 159 399 202 837 45 34 667 69 322 612 370 146 120 111 298 271 259 161 96 559 102 20 59 181 170 170 264 100 38 540 514 55 43 23 160 226 245 105 59 43 504 154 47 37 216 76 62 29
shrinkage=1


Tree=1
num_leaves=63
num_cat=0
split_feature=4 6 3 2 4 2 10 0 48 17 48 12 2 47 0 2 17 189 47 158 2 48 58 12 7 176 48 55 237 153 29 50 45 15 1 2 46 4 160 1 50 193 193 1 202 55 46 141 45 0 172 1 112 157 154 25 0 37 17 46 202 48
split_gain=949.504 196.433 143.657 50.9673 47.7273 41.8883 29.0748 24.4429 19.1304 14.5446 13.8048 13.187 12.5161 12.9014 12.0557 10.3042 8.79116 8.67953 10.5694 7.92193 7.63387 7.08871 6.82042 6.32153 6.24581 6.04236 5.90717 5.57852 5.77553 5.47647 5.24938 5.27279 5.13348 4.81348 4.63981 4.61602 4.55128 4.42915 4.35987 4.3496 4.22597 4.21581 4.30103 4.07987 4.04907 4.04124 4.4294 3.84552 3.66142 4.76248 3.61379 3.95873 3.56319 3.55632 3.51829 3.4952 3.45912 4.07422 4.4604 4.34403 3.67757 3.45696
threshold=1.5000000000000002 1.5000000000000002 1.5000000000000002 7.5000000000000009 1.0000000180025095e-35 3.5000000000000004 1.0000000180025095e-35 44.833856025100005 38.000000000000007 1.0000000180025095e-35 57.000000000000007 1.0000000180025095e-35 1.5000000000000002 1.0000000180025095e-35 44.832490222950007 1.5000000000000002 1.0000000180025095e-35 0.12591836381486798 1.0000000180025095e-35 0.13328485282520494 10.500000000000002 28.500000000000004 0.40360060390354741 1.0000000180025095e-35 1.5000000000000002 0.14348226485269855 22.500000000000004 0.46987280139491422 0.31695513397212899 0.14072688751551368 1.0000000180025095e-35 1.5000000000000002 19.500000000000004 1.0000000180025095e-35 -0.5810957672999999 3.5000000000000004 5.5000000000000009 2.5000000000000004 0.11542871524618316 -0.59208056429999989 1.5000000000000002 0.16668364615859996 0.15461954143008655 -0.56862427694999995 0.082054168171114009 0.36675504130060893 8.5000000000000018 0.42325072604525871 4.5000000000000009 44.834742865900004 0.26638322349878812 -0.57772025729999987 0.3447413824150386 1.0000000180025095e-35 0.012397761767727609 1.0000000180025095e-35 44.831771609200011 1.0000000180025095e-35 1.0000000180025095e-35 12.500000000000002 0.11299598281234091 32.500000000000007
decision_type=2 2 2 2 2 2 2 2 2 2 2 2 2 2 2 2 2 2 2 2 2 2 2 2 2 2 2 2 2 2 2 2 2 2 2 2 2 2 2 2 2 2 2 2 2 2 2 2 2 2 2 2 2 2 2 2 2 2 2 2 2 2
left_child=1 5 8 10 14 6 15 22 11 21 16 48 -8 24 36 -1 37 18 38 27 39 23 52 -9 56 45 54 28 35 34 31 -17 -10 -26 -11 -13 -3 -4 -7 -5 -39 42 -27 -18 -12 50 -47 -37 49 -2 51 -25 61 -36 -16 -50 -14 58 -58 60 -59 -6
right_child=2 4 3 20 7 17 12 9 32 29 44 19 13 -15 26 30 43 -19 -20 -21 -22 -23 -24 25 33 41 -28 -29 -30 -31 -32 -33 -34 -35 53 47 -38 40 -40 -41 -42 -43 -44 -45 -46 46 -48 -49 55 -51 -52 -53 -54 -55 -56 -57 57 59 -60 -61 -62 -63
leaf_value=-0.064944556355476385 -0.029256893740966919 -0.030944670936600728 0.037431083606966474 0.12602412216365338 -0.014101797333987046 0.021238441765308372 -0.067594070519719815 -0.012187519735473135 0.043340102408040801 0.00029237645119428637 0.10764320264844335 0.0012025782590111096 -0.055425836484540594 -0.056398047455652078 -0.024015488559646268 -0.018038376404770785 0.072863873574686683 -0.029836964404041117 -0.012060871653790986 0.069570074478785202 0.15101171374320985 0.011171951239790631 -0.047326748897986756 -0.012895975604133551 -0.031439781331912033 0.0095170631350045762 -0.0016724932533891306 0.0026261208578944209 0.058204634487628942 -0.0071066008880734449 -0.038858205137344511 0.013652969251076381 0.071887519485072091 0.00521123368293047 0.021325926520341241 0.032722082885729087 -0.054901185151069398 0.048778134344085573 0.067928196489810952 0.095487130866494296 0.083724022656679165 -0.007059487711419077 0.040071652636218535 0.049216631241142755 0.074818177876018341 0.020640460113363884 -0.014130467405686013 0.017145070885973317 0.02530698457634763 0.0081962889445752942 -0.023315432322797952 0.00019261161214672031 0.012980728756104197 0.052570847570896154 -0.0036010500974953175 -0.0025510946172289553 -0.052149394022921729 -0.018083117154116434 -0.01931756657237808 -0.053349279314279553 -0.040683407932519913 0.0068605947352591012
leaf_weight=12.999999999999998 11.999999999999998 55 59 15.999999999999998 310 10.000000000000002 63 137 92 25 17 14.999999999999998 44 142 175 105 76 10.999999999999998 13.999999999999998 11.999999999999998 9.9999999999999982 108 13.999999999999998 86 86 101 46 20 17 22 26 14.999999999999998 19 9.9999999999999982 102 207 31 31 9.9999999999999982 43 11.999999999999998 34 12.999999999999998 24 21 31 12.999999999999998 49 38 29 27 176 13.999999999999998 9.9999999999999982 24 15.999999999999998 75 45 11.999999999999998 20 30 21
leaf_count=13 12 55 59 16 310 10 63 137 92 25 17 15 44 142 175 105 76 11 14 12 10 108 14 86 86 101 46 20 17 22 26 15 19 10 102 207 31 31 10 43 12 34 13 24 21 31 13 49 38 29 27 176 14 10 24 16 75 45 12 20 30 21
internal_value=0 -0.0165424 0.0456847 0.0727432 -0.00660056 -0.0379629 -0.0410284 -0.00211086 0.0297891 0.00235301 0.0618551 0.0248576 -0.0466824 -0.0438431 -0.0234742 -0.0222882 0.056654 0.00876906 0.0212592 0.0297139 0.110615 -0.000646694 -0.0131151 -0.00271209 -0.0383065 -1.3265e-05 -0.0178207 0.0281611 0.0299344 0.0160498 -0.0184901 -0.014077 0.0482266 -0.027622 0.0197683 0.028161 -0.0395802 0.0463259 0.0445833 0.103768 0.0585305 0.00839279 0.0130014 0.0671885 0.0895031 -0.00374929 0.0103672 0.0297405 0.00849955 -0.00276562 -0.00589852 -0.00410364 -0.0117268 0.0241157 -0.0215534 0.0170527 -0.042845 -0.0398035 -0.0476209 -0.0326445 -0.0271232 -0.0127719
internal_weight=0 2306 835 309 1575 731 686 1244 526 885 240 415 527 464 331 159 202 45 34 320 69 726 359 618 322 481 245 308 288 159 146 120 111 96 137 271 86 102 20 59 43 148 114 100 38 333 44 256 95 41 289 262 345 112 199 54 226 182 87 95 75 331
internal_count=3141 2306 835 309 1575 731 686 1244 526 885 240 415 527 464 331 159 202 45 34 320 69 726 359 618 322 481 245 308 288 159 146 120 111 96 137 271 86 102 20 59 43 148 114 100 38 333 44 256 95 41 289 262 345 112 199 54 226 182 87 95 75 331
shrinkage=0.05


Tree=2
num_leaves=63
num_cat=0
split_feature=4 6 4 49 136 2 49 10 4 12 48 2 47 48 49 49 2 12 189 47 48 175 2 13 49 125 17 25 112 7 185 21 47 49 17 178 203 1 15 112 189 160 200 161 48 60 2 201 4 182 235 29 84 160 49 46 1 46 155 36 194 47
split_gain=856.927 177.281 117.678 63.7177 51.9808 37.8042 27.0281 26.24 21.6238 13.3451 11.949 11.2958 11.6436 11.1219 11.1019 9.41396 9.29955 9.053 7.83328 9.53887 7.34318 7.20861 6.76359 6.71762 6.49749 6.44084 6.17592 6.15337 5.85656 5.63684 5.59561 4.93356 5.05365 4.70598 4.66709 5.73318 5.24459 4.4594 4.34417 4.21316 4.08822 3.93478 3.66331 3.49529 4.09294 3.45737 3.37145 3.36731 3.35433 3.26397 3.25155 3.2082 3.57321 3.13932 3.0947 3.01048 3.3298 2.95319 3.32376 2.85492 2.84396 2.8056
threshold=1.5000000000000002 1.5000000000000002 3.5000000000000004 625.00000000000011 1.0000000180025095e-35 3.5000000000000004 325.00000000000006 1.0000000180025095e-35 2.5000000000000004 1.0000000180025095e-35 38.000000000000007 1.5000000000000002 1.0000000180025095e-35 52.000000000000007 940.00000000000011 675.00000000000011 1.5000000000000002 1.0000000180025095e-35 0.12591836381486798 1.0000000180025095e-35 32.500000000000007 0.18351008800806776 8.5000000000000018 1.0000000180025095e-35 265.00000000000006 1.0000000180025095e-35 1.0000000180025095e-35 1.0000000180025095e-35 0.49067983497399897 1.5000000000000002 0.28108917095258273 1.0000000180025095e-35 1.0000000180025095e-35 125.00000000000001 1.0000000180025095e-35 0.17007004982120152 0.13229885339095357 -0.56839474219999986 1.0000000180025095e-35 0.39034437505437586 0.17624816988746936 0.11542871524618316 0.12421262176480376 0.11289706157893464 38.000000000000007 0.41529018909033716 1.5000000000000002 0.10587523482049509 2.5000000000000004 0.1694204812898899 0.26017508136555395 1.0000000180025095e-35 0.31059441636671387 0.13299303811414839 1300.0000000000002 12.500000000000002 -0.57368204229999986 23.500000000000004 0.13070020254305778 1.0000000180025095e-35 1.0000000180025095e-35 1.0000000180025095e-35
decision_type=2 2 2 2 2 2 2 2 2 2 2 2 2 2 2 2 2 2 2 2 2 2 2 2 2 2 2 2 2 2 2 2 2 2 2 2 2 2 2 2 2 2 2 2 2 2 2 2 2 2 2 2 2 2 2 2 2 2 2 2 2 2
left_child=1 5 3 8 6 7 9 16 10 20 17 -9 29 34 28 43 -1 -2 19 41 23 60 -16 37 -19 26 27 30 39 33 49 51 -33 -13 36 47 -5 -3 53 -4 46 -7 -12 44 45 57 -6 54 -15 -11 -25 52 -18 -31 -36 56 -35 -8 -59 61 -17 -10
right_child=2 4 14 13 40 18 15 11 59 25 42 12 -14 48 22 21 31 24 -20 -21 -22 -23 -24 50 -26 -27 -28 -29 -30 38 -32 32 -34 55 35 -37 -38 -39 -40 -41 -42 -43 -44 -45 -46 -47 -48 -49 -50 -51 -52 -53 -54 -55 -56 -57 -58 58 -60 -61 -62 -63
leaf_value=-0.061697330153905432 0.0054041686658579183 -0.026620053569786247 0.081056505143642432 0.036389569924924418 -0.058181979805231099 0.020176520347595209 0.0021930692397513006 -0.064214364616643815 0.061353978769232834 -0.0010134945555059722 0.04565219136354115 -0.043738986200575411 -0.053578145079918107 0.073308860797148476 0.099063712764870041 0.025130269166958687 -0.01628268822184149 0.017635617225810332 -0.028345117277719756 -0.011457828179533993 0.024701787885278464 0.0021158482306278671 0.14260513464609781 -0.017436558796877138 0.032949515367369363 -0.025321480602724478 0.0098902838304638866 -0.012191382479957408 0.060603525329913414 -0.023405387011056735 0.036113249361515047 0.0040118649840737005 -0.023284472847978275 0.0080828128010034563 0.072639018549200352 0.032596696801483631 0.067376406829465524 -0.069183322973549372 0.0049506719782948499 0.11531532534531184 -0.014059524497875543 0.064531788378953944 0.021388100469484927 -0.0048833807611404221 0.024880157308652999 -0.020908982042844096 -0.028425773034504886 0.061701045262402499 0.107048240479301 -0.029965619295835494 0.011815299838781358 -0.047916407350982938 -0.048868728876113897 -0.043989344520701301 0.10667493668469517 -0.046606349349021914 -0.029693599471024096 0.010026287059900503 0.038774742092937235 0.040393554907717295 0.048532873374365626 0.03498345794012913
leaf_weight=12.999999999999998 83 16.000000000000004 25 36 9.9999999999999982 10.000000000000002 131 63 45 367 70 192 142 13.000000000000002 22 34 53 162 10.999999999999998 13.999999999999998 9.9999999999999982 26 14.999999999999998 190 121 32 89 171 21 59 9.9999999999999982 39 30 9.9999999999999982 17.000000000000004 9.9999999999999982 22 9.9999999999999982 9.9999999999999982 13.999999999999998 51 9.9999999999999982 20 73 30 11.999999999999998 198 29 17 9.9999999999999982 9.9999999999999982 13.999999999999998 9.9999999999999982 27 10.999999999999998 9.9999999999999982 14.000000000000002 62 11.999999999999998 69 21 12.999999999999998
leaf_count=13 83 16 25 36 10 10 131 63 45 367 70 192 142 13 22 34 53 162 11 14 10 26 15 190 121 32 89 171 21 59 10 39 30 10 17 10 22 10 10 14 51 10 20 73 30 12 198 29 17 10 10 14 10 27 11 10 14 62 12 69 21 13
internal_value=0 -0.0157153 0.0434005 0.0365954 -0.00627053 -0.0360647 -0.00224082 -0.038977 0.0290201 -0.00698446 0.0239382 -0.0443483 -0.041651 0.0650886 0.0951751 0.00858319 -0.0211738 0.0199246 0.0083306 0.0201963 -0.0172268 0.0238103 0.116716 -0.0190821 0.0241833 -0.00342453 -0.00234153 -0.00429248 0.0818917 -0.0363912 -0.000802264 -0.0175656 -0.00785611 -0.0407028 0.0585271 0.0675162 0.0481432 -0.0429905 -0.0262409 0.0933545 -0.0267458 0.0423542 0.0402602 0.00472884 0.0075697 0.00517655 -0.0298564 0.0736424 0.0924278 -0.00178146 -0.015974 -0.0262662 -0.0214551 -0.0298678 0.0860103 -0.0235572 -0.0139534 0.00670351 0.0146882 0.0472667 0.0340658 0.0554433
internal_weight=0 2306 835 738 1575 731 1316 686 583 915 456 527 464 155 97 401 159 366 45 34 236 81 37 226 283 679 647 558 60 322 387 146 69 226 125 67 58 26 96 39 259 20 90 320 247 217 208 57 30 377 200 77 63 86 28 34 24 205 74 127 55 58
internal_count=3141 2306 835 738 1575 731 1316 686 583 915 456 527 464 155 97 401 159 366 45 34 236 81 37 226 283 679 647 558 60 322 387 146 69 226 125 67 58 26 96 39 259 20 90 320 247 217 208 57 30 377 200 77 63 86 28 34 24 205 74 127 55 58
shrinkage=0.05


Tree=3
num_leaves=63
num_cat=0
split_feature=4 6 3 136 2 2 49 49 10 49 0 12 2 47 49 49 2 4 51 17 189 47 212 178 49 0 17 2 22 67 87 7 45 213 0 51 15 185 186 15 1 168 0 45 185 1 212 0 49 160 16 47 212 176 48 215 46 0 0 215 51 20
split_gain=773.377 159.996 120.215 46.9127 41.8078 34.1183 24.9319 24.3929 23.6816 14.0992 13.5288 12.1431 10.1945 10.5083 8.78765 8.4961 8.39284 8.11214 7.52034 7.11154 7.06953 8.60883 6.79473 6.04538 5.99178 5.71054 5.59853 5.51029 5.36388 6.65796 5.14519 6.07909 4.85741 4.78153 4.70878 5.17674 4.56435 4.46677 4.27775 4.17525 4.11463 4.04852 3.89159 3.69823 3.67583 3.66402 3.65788 3.64639 3.61176 3.55114 3.43801 3.18115 3.15206 3.13941 3.11958 3.61204 3.07829 3.82345 4.56289 3.0614 3.05942 3.05789
threshold=1.5000000000000002 1.5000000000000002 1.5000000000000002 1.0000000180025095e-35 7.5000000000000009 3.5000000000000004 625.00000000000011 325.00000000000006 1.0000000180025095e-35 803.50000000000011 44.833507747350005 1.0000000180025095e-35 1.5000000000000002 1.0000000180025095e-35 940.00000000000011 675.00000000000011 1.5000000000000002 2.5000000000000004 4.5000000000000009 1.0000000180025095e-35 0.12591836381486798 1.0000000180025095e-35 0.16807956893055731 0.17449618320784369 210.00000000000003 44.832141819600004 1.0000000180025095e-35 3.5000000000000004 1.0000000180025095e-35 0.26069482763233659 0.62564095656459739 1.5000000000000002 16.500000000000004 0.14290434853302281 44.839815875700005 5.5000000000000009 1.0000000180025095e-35 0.21235592741372686 0.043329596622361785 1.0000000180025095e-35 -0.58356548499999994 0.13205074414339921 44.836369327000007 5.5000000000000009 0.22162174580441021 -0.58043420439999982 0.079180626405242163 44.863930064250006 125.00000000000001 0.11542871524618316 1.0000000180025095e-35 13.500000000000002 0.18717894275197022 0.24263635718717938 38.000000000000007 0.20189007037200249 15.500000000000002 44.847595751400007 44.837824961750009 0.11861423002471468 1.5000000000000002 1.0000000180025095e-35
decision_type=2 2 2 2 2 2 2 2 2 2 2 2 2 2 2 2 2 2 2 2 2 2 2 2 2 2 2 2 2 2 2 2 2 2 2 2 2 2 2 2 2 2 2 2 2 2 2 2 2 2 2 2 2 2 2 2 2 2 2 2 2 2
left_child=1 5 6 7 9 8 11 10 16 26 18 51 -10 30 41 25 -1 24 28 27 21 49 -17 38 -13 -9 42 36 37 -30 31 48 56 59 35 -5 45 -3 46 44 -27 -6 -4 -44 -26 -12 -11 -29 -14 -7 -47 -2 -42 -52 -28 -56 57 58 -18 -33 -21 -8
right_child=2 3 4 34 14 20 61 15 12 23 19 17 13 -15 -16 22 32 -19 -20 60 -22 -23 -24 -25 39 40 54 47 29 -31 -32 33 -34 -35 -36 -37 -38 -39 -40 -41 52 -43 43 -45 -46 50 -48 -49 -50 -51 53 -53 -54 -55 55 -57 -58 -59 -60 -61 -62 -63
leaf_value=-0.058612462305105653 0.010155503644662745 -0.012877009122651849 0.025450892808536692 -0.028011147713137643 0.09602485035474484 0.019167693555355067 0.045094187812585583 -0.010499312130092942 -0.061003647230210761 0.10795964332003344 -0.019746027677638889 0.01529911665439633 -0.042995561215706093 -0.050899238002971872 0.12062827686468761 0.034022501602768894 -0.021201785589041917 0.042766376010953421 -0.050480026900768284 0.027622242700308566 -0.026927860216660934 -0.010884937298085009 0.0042282221298063959 0.045781219406769824 0.024191229613317211 -0.0063180840760469446 0.049009731650455961 2.8736827401393426e-05 -0.019361330262001823 -0.0657730126939714 -0.00096483101898973641 -0.023552423780947403 0.0068914771178051051 -0.044836168379887298 -0.016767293751258783 -0.060919692195378822 0.015366688101111274 0.013863208084641136 0.05921911264841373 0.055850100783365109 0.013971553695701007 0.061851161374495582 0.036475195867173814 0.061261415205619951 0.051313518945659914 -0.014703540748450906 0.076933864700166804 0.02650430322225605 -0.024810029671061787 0.061305198669433597 -0.0046597928340535296 -0.01556659289635718 0.00069187441540341228 0.022943666949868203 0.058946775927625851 0.092596464807336978 -0.038773960247635846 -0.032119313944131138 0.0033839502837508919 0.0033362819741551693 0.0054124209516938186 0.065521037682063063
leaf_weight=12.999999999999998 85 192 30 148 26 10.000000000000002 57 53 63 19 73 137 186 142 30 50 46 62 14.999999999999998 20 10.999999999999998 13.999999999999998 31 12.999999999999998 116 45 45 183 34 9.9999999999999982 10.999999999999998 57 19 23 98 12.999999999999998 19 17 12.999999999999998 13.999999999999998 160 12.999999999999998 34 27 13.999999999999998 96 19 13.999999999999998 32 9.9999999999999982 162 13.999999999999998 62 10.999999999999998 29 10.999999999999998 19 30 32 12.999999999999998 69 27
leaf_count=13 85 192 30 148 26 10 57 53 63 19 73 137 186 142 30 50 46 62 15 20 11 14 31 13 116 45 45 183 34 10 11 57 19 23 98 13 19 17 13 14 160 13 34 27 14 96 19 14 32 10 162 14 62 11 29 11 19 30 32 13 69 27
internal_value=0 -0.0149295 0.0412305 -0.005957 0.065983 -0.0342615 0.0266895 -0.00212878 -0.0370281 0.0561216 -0.00663524 0.021944 -0.0421309 -0.0395684 0.100283 0.00815403 -0.0201151 0.0263964 -0.0160818 -0.00272228 0.00791407 0.0191865 0.0226198 0.0762185 0.0227845 0.0044924 0.0488136 -0.00481581 -0.0140424 -0.0299094 -0.0345716 -0.0357603 -0.0166873 -0.0250575 -0.0254085 -0.0306684 -0.00848626 -0.010702 0.083977 0.0299061 0.00746828 0.0846336 0.040195 0.0474461 0.0271121 -0.00981142 0.0924468 0.00191025 -0.0403261 0.0402364 -0.00711541 0.00651804 0.0102628 -0.00290466 0.0580407 0.0682004 -0.0202148 -0.0169498 -0.0111153 -0.0185588 0.0104034 0.05166
internal_weight=0 2306 835 1575 309 731 526 1316 686 240 915 442 527 464 69 401 159 343 268 647 45 34 81 64 281 320 176 558 253 44 322 311 146 93 259 161 361 209 51 144 267 39 91 61 130 342 38 197 218 20 269 99 222 173 85 40 127 108 78 70 89 84
internal_count=3141 2306 835 1575 309 731 526 1316 686 240 915 442 527 464 69 401 159 343 268 647 45 34 81 64 281 320 176 558 253 44 322 311 146 93 259 161 361 209 51 144 267 39 91 61 130 342 38 197 218 20 269 99 222 173 85 40 127 108 78 70 89 84
shrinkage=0.05


Tree=4
num_leaves=63
num_cat=0
split_feature=4 6 3 136 2 2 49 49 10 49 0 2 47 2 49 4 49 2 48 17 189 47 212 49 2 12 67 48 0 87 7 164 21 47 176 213 0 51 26 178 4 0 7 12 1 49 97 125 2 0 45 45 48 193 1 212 48 17 67 237 0 1
split_gain=697.973 144.396 108.494 42.3387 37.7315 30.7918 22.5407 22.0146 21.3727 13.1242 12.3435 9.2005 9.48374 8.1835 7.93086 7.86244 7.66773 7.57454 6.93419 6.75426 6.41431 7.2909 6.13225 5.83365 5.53639 5.48023 10.2327 5.4511 5.15376 4.64354 5.48638 4.40106 4.39681 4.45542 4.37866 4.31533 4.24967 4.67201 4.18486 4.07476 4.06778 5.4074 3.82633 3.76126 3.71345 3.68478 3.55085 3.495 3.44351 3.34614 3.02205 2.95142 2.92748 2.88905 2.85007 2.84612 2.90007 2.81826 2.81239 3.02524 2.81062 2.79609
threshold=1.5000000000000002 1.5000000000000002 1.5000000000000002 1.0000000180025095e-35 7.5000000000000009 3.5000000000000004 452.00000000000006 325.00000000000006 1.0000000180025095e-35 1300.0000000000002 44.832722481600008 1.5000000000000002 1.0000000180025095e-35 3.5000000000000004 940.00000000000011 2.5000000000000004 675.00000000000011 1.5000000000000002 57.000000000000007 1.0000000180025095e-35 0.13803559515408706 1.0000000180025095e-35 0.16807956893055731 625.00000000000011 3.5000000000000004 1.0000000180025095e-35 0.28801825884622406 38.000000000000007 44.832141819600004 0.62564095656459739 1.5000000000000002 0.055414992134758929 1.0000000180025095e-35 1.0000000180025095e-35 0.23309859429841651 0.14290434853302281 44.839815875700005 5.5000000000000009 1.0000000180025095e-35 0.10095147894231843 2.5000000000000004 44.841043858900001 1.0000000180025095e-35 1.0000000180025095e-35 -0.58356548499999994 265.00000000000006 0.43801421162279175 0.42267658894913268 2.5000000000000004 44.863930064250006 4.5000000000000009 19.500000000000004 9.5000000000000018 0.055520903971891793 -0.5669872132999999 0.20316988520668258 32.500000000000007 1.0000000180025095e-35 0.44115139199888337 0.31695513397212899 44.845723511250007 -0.57953314124999988
decision_type=2 2 2 2 2 2 2 2 2 2 2 2 2 2 2 2 2 2 2 2 2 2 2 2 2 2 2 2 2 2 2 2 2 2 2 2 2 2 2 2 2 2 2 2 2 2 2 2 2 2 2 2 2 2 2 2 2 2 2 2 2 2
left_child=1 5 6 7 9 8 13 10 17 18 25 -10 29 -2 45 23 28 -1 38 24 21 42 52 31 34 26 48 43 -9 30 46 -8 -19 -34 47 -32 37 -5 40 -11 57 -42 -7 50 -30 -6 -13 -12 -3 -26 54 -29 -18 -27 -15 56 -46 -4 59 -45 -36 -21
right_child=2 3 4 36 14 20 15 16 11 39 19 12 -14 27 -16 -17 22 32 -20 61 -22 -23 -24 -25 49 53 -28 51 44 -31 35 -33 33 -35 60 -37 -38 -39 -40 -41 41 -43 -44 58 55 -47 -48 -49 -50 -51 -52 -53 -54 -55 -56 -57 -58 -59 -60 -61 -62 -63
leaf_value=-0.055681839470679943 -0.0089121668151131393 -0.031651829115369103 0.032669968544593399 -0.026610589838064455 0.099842257499694831 0.013857090845704073 0.017631131899937737 -0.0099743467667755097 -0.057953467223024559 0.098271550787122616 -0.0092971167190906406 -0.039709008183854172 -0.048354275680055292 0.0076433512431226276 0.11459686378637951 0.059332694936739774 0.0430455567581313 -0.024066666468929548 0.07255006002055274 -0.0060812463624064228 -0.027797734960913659 -0.010340689741341133 0.0040168112624556791 0.044925823444774485 -0.00011468874831505196 -0.0035424505269879268 -0.074367840141057975 0.028228569553854568 -0.0060021797433081605 -0.00091658966107801957 -0.017630866739366736 0.041702647214489325 0.0044565751987437792 -0.021173278279602529 -0.0039633212704211478 -0.042594360203846646 -0.015928928738778308 -0.05787370823896848 0.015507568825374952 0.060032365267927004 0.04338326135295488 0.06959840191175809 0.056591161543672733 0.02016812586625524 0.010064007060333405 0.068251741987963521 -0.0092066881060600281 -0.036765687941806395 -0.0089786855127278933 0.025179088488221171 0.017205050100962963 0.057120536809617831 0.018672419851645829 -0.01726815113570632 -0.022739208389360173 -0.00035972257127177043 0.027940883637509413 0.050250568883493545 -0.002228374069986435 0.047259707748889927 0.02466820857177178 0.014285999170452771
leaf_weight=12.999999999999998 27 33 53 148 14.999999999999998 10.000000000000002 59 53 63 19.000000000000004 331 208 142 19 30 38 28 77 27 22 9.9999999999999982 13.999999999999998 31 68 198 72 9.9999999999999982 45 45 10.999999999999998 70 28 39 30 20 23 98 12.999999999999998 10.999999999999998 10.999999999999998 42 37 10.999999999999998 163 142 24 9.9999999999999982 11.999999999999998 34 13.999999999999998 31 10.999999999999998 22 82 12.999999999999998 53 27 40 12.999999999999998 10.999999999999998 14.999999999999998 72
leaf_count=13 27 33 53 148 15 10 59 53 63 19 331 208 142 19 30 38 28 77 27 22 10 14 31 68 198 72 10 45 45 11 70 28 39 30 20 23 98 13 11 11 42 37 11 163 142 24 10 12 34 14 31 11 22 82 13 53 27 40 13 11 15 72
internal_value=0 -0.014183 0.0391689 -0.00565915 0.0626838 -0.0325484 0.025355 -0.00202234 -0.0351767 0.0533155 -0.00630348 -0.0400243 -0.03759 0.0174752 0.0952693 0.0389508 0.00774633 -0.0191094 0.0488962 -0.00292862 0.00751837 0.0176087 0.0214888 0.033954 -0.00491183 -0.0162966 -0.0271878 0.0198035 0.00426778 -0.032843 -0.0339723 0.0253783 -0.0158529 -0.00668684 -0.00853909 -0.0238046 -0.0241381 -0.0291349 0.0454063 0.0842505 0.0473184 0.0556612 0.0362416 0.0166451 0.00709487 0.0804019 -0.0383098 -0.0102581 -0.0201461 0.00155566 0.0060789 0.0339038 0.0323214 -0.0108509 -0.00469956 0.00974967 0.0129201 0.0402315 0.0202048 0.0218808 0.00830733 0.0095192
internal_weight=0 2306 835 1575 309 731 526 1316 686 240 915 527 464 333 69 193 401 159 210 684 45 35 81 155 590 231 77 306 320 322 311 87 146 69 378 93 259 161 183 30 172 79 21 250 267 39 218 343 67 212 63 56 50 154 32 222 169 93 187 174 35 94
internal_count=3141 2306 835 1575 309 731 526 1316 686 240 915 527 464 333 69 193 401 159 210 684 45 35 81 155 590 231 77 306 320 322 311 87 146 69 378 93 259 161 183 30 172 79 21 250 267 39 218 343 67 212 63 56 50 154 32 222 169 93 187 174 35 94
shrinkage=0.05


Tree=5
num_leaves=63
num_cat=0
split_feature=4 6 3 136 2 2 49 49 10 49 0 2 2 48 49 49 2 48 7 87 17 189 212 51 22 1 2 55 0 45 18 7 97 15 0 51 48 178 212 1 84 29 1 168 0 4 49 37 125 0 164 15 193 185 0 46 125 0 48 215 202 1
split_gain=629.92 130.318 97.9157 38.2107 34.0527 27.7896 20.4342 19.8682 19.2888 11.8446 11.14 8.80325 8.30345 7.98793 7.1576 6.92012 6.83602 6.48813 6.40651 6.74896 6.09572 5.78892 5.53435 5.04367 5.44979 5.00301 4.99659 4.9131 4.65127 4.29507 4.25685 4.96579 4.24745 4.16638 3.83533 4.21649 3.72357 3.67747 3.61443 3.50185 3.45713 3.41893 3.35139 3.3258 3.26365 3.70333 4.52735 3.845 3.25646 3.23274 4.36207 3.82684 3.14973 3.59341 3.073 3.69733 3.10849 3.0199 2.76885 3.18851 2.76836 2.76229
threshold=1.5000000000000002 1.5000000000000002 1.5000000000000002 1.0000000180025095e-35 7.5000000000000009 3.5000000000000004 625.00000000000011 325.00000000000006 1.0000000180025095e-35 1300.0000000000002 44.832722481600008 3.5000000000000004 1.5000000000000002 41.000000000000007 940.00000000000011 675.00000000000011 1.5000000000000002 49.500000000000007 1.5000000000000002 0.62564095656459739 1.0000000180025095e-35 0.13803559515408706 0.16807956893055731 4.5000000000000009 1.0000000180025095e-35 -0.56560553819999992 3.5000000000000004 0.46987280139491422 44.832141819600004 16.500000000000004 1.0000000180025095e-35 1.0000000180025095e-35 0.43801421162279175 1.0000000180025095e-35 44.839815875700005 5.5000000000000009 9.5000000000000018 0.10095147894231843 0.13099809506531621 -0.59407348819999994 0.45261824002995599 1.0000000180025095e-35 -0.58356548499999994 0.16488345032777926 44.835873362850016 2.5000000000000004 125.00000000000001 1.0000000180025095e-35 0.42267658894913268 44.834329522550007 0.29484052516967335 1.0000000180025095e-35 0.18196317579555751 0.1021895492688189 44.831771609200011 13.500000000000002 0.45311824980809445 44.863930064250006 17.500000000000004 0.09795117733308896 0.24043482860031923 -0.56164295199999981
decision_type=2 2 2 2 2 2 2 2 2 2 2 2 2 2 2 2 2 2 2 2 2 2 2 2 2 2 2 2 2 2 2 2 2 2 2 2 2 2 2 2 2 2 2 2 2 2 2 2 2 2 2 2 2 2 2 2 2 2 2 2 2 2
left_child=1 5 6 7 9 8 11 10 16 17 23 -2 -10 27 38 28 -1 44 19 32 26 30 -17 24 39 -26 33 49 -9 40 31 -7 54 48 35 60 43 -11 -6 -3 41 -18 -30 61 -4 46 -46 -47 52 -13 51 -51 53 -12 -14 56 -56 -28 59 -55 -5 -20
right_child=2 3 4 34 14 21 -8 15 12 37 20 13 18 -15 -16 22 29 -19 36 -21 -22 -23 -24 -25 25 -27 57 -29 42 -31 -32 -33 -34 -35 -36 -37 -38 -39 -40 -41 -42 -43 -44 -45 45 47 -48 -49 -50 50 -52 -53 -54 58 55 -57 -58 -59 -60 -61 -62 -63
leaf_value=-0.052897747720663371 -0.0063586975634098057 0.015961213906606039 0.029809030506294222 -0.027490417442437427 0.088415505612889925 0.0070798585812250755 0.046693463046921402 -0.0094756292882111834 -0.055055793337819597 0.093357971389042685 -0.010245156088507082 0.013705212997399971 -0.051800827609915889 0.038895116483086141 0.10886702110370002 0.03070530767273158 -0.011238382336079747 0.059290974943050703 -0.020502080789942673 0.00090807117521762848 0.0090432373608680481 -0.026407849416136744 0.0038159707020367349 -0.047044061434765659 -0.019386455383048291 -0.059390068866989831 -0.00010895431300418244 -0.004005364917049354 -0.0057020707800984382 0.0071116761831370627 -0.0074126533969926349 0.053589306500825024 -0.0087463536858558653 0.014705679644095271 -0.015132482384084441 -0.054980022402910091 -0.0067307459749281406 0.057030747153542262 0.057127982477347065 -0.011991504453998832 -0.042806403338909151 -0.032814990340367604 0.0092621900355191657 -0.042988270116703857 0.021551391325891019 0.072022957177389241 0.050825332051941334 0.041766128511655898 -0.034927403678496678 0.020248958328238101 0.054703269289298501 0.044393150156570804 -0.018647554423660041 -0.012109734705604967 -0.034071323080536196 -0.04965703312191181 -0.062756435275077821 0.02392013344381537 0.017201253297654064 0.0086591386010475228 -0.0041237907750265937 -0.044860831222363881
leaf_weight=12.999999999999998 30 11.999999999999998 48 134 24 12.000000000000002 84 53 63 19.000000000000004 188 117 62 58 30 50 91 67 69 9.9999999999999982 94 9.9999999999999982 31 11.999999999999998 27 10.999999999999998 198 22 45 19 11.999999999999998 10.999999999999998 9.9999999999999982 19 98 12.999999999999998 20 10.999999999999998 14.999999999999998 169 12.999999999999998 23 222 35 25 21 28 21 11.999999999999998 186 10.999999999999998 18 62 42 170 64 9.9999999999999982 13.999999999999998 22 33 13.999999999999998 13.999999999999998
leaf_count=13 30 12 48 134 24 12 84 53 63 19 188 117 62 58 30 50 91 67 69 10 94 10 31 12 27 11 198 22 45 19 12 11 10 19 98 13 20 11 15 169 13 23 222 35 25 21 28 21 12 186 11 18 62 42 170 64 10 14 22 33 14 14
internal_value=0 -0.0134739 0.0372105 -0.00537619 0.0595496 -0.030921 0.0240873 -0.00192123 -0.0334179 0.0506497 -0.0059883 0.0197911 -0.0380231 0.0216952 0.0905058 0.00735902 -0.0181539 0.0464514 -0.0357105 -0.039533 -0.00278219 0.00714245 0.0204143 -0.0154817 -0.0137523 -0.0309664 -0.00466624 0.0188771 0.00405439 -0.0150603 0.0167283 0.0293235 -0.0408128 -0.00811214 -0.0229312 -0.0276782 -0.0266804 0.080038 0.0763818 -0.0101383 -0.0183773 -0.0155916 0.00674012 -0.0300617 0.0404357 0.0458049 0.0370169 0.0568945 -0.00931977 0.0203935 0.0240331 0.0223793 -0.0084342 -0.00621235 -0.0418608 -0.039335 -0.0356649 0.00147787 0.00160382 -0.00297143 -0.0252801 -0.0246108
internal_weight=0 2306 835 1575 309 731 526 1316 686 240 915 442 527 412 69 401 159 210 464 326 684 45 81 231 219 38 590 354 320 146 35 23 316 378 259 161 138 30 39 181 127 114 267 118 143 95 53 42 359 332 215 204 347 285 306 244 180 212 97 75 148 83
internal_count=3141 2306 835 1575 309 731 526 1316 686 240 915 442 527 412 69 401 159 210 464 326 684 45 81 231 219 38 590 354 320 146 35 23 316 378 259 161 138 30 39 181 127 114 267 118 143 95 53 42 359 332 215 204 347 285 306 244 180 212 97 75 148 83
shrinkage=0.05


Tree=6
num_leaves=63
num_cat=0
split_feature=4 6 3 136 2 2 49 49 10 49 12 2 47 4 2 49 49 2 48 13 0 237 47 125 178 212 25 194 45 49 17 0 186 21 50 1 0 164 87 7 213 0 64 0 0 51 41 175 212 49 154 212 1 212 47 48 46 1 160 2 48 0
split_gain=568.503 117.612 88.3689 34.4851 30.7326 25.0801 18.8118 17.931 17.4082 10.8811 10.2019 7.49386 8.32707 6.8801 6.67578 6.45973 6.24541 6.16951 6.11881 5.60951 5.67116 5.2405 6.61924 5.18233 5.07613 4.99475 4.85743 5.70261 4.78366 4.57446 4.48132 4.19777 3.96834 3.88361 4.13828 3.87387 4.7167 3.86535 3.77602 4.49558 3.69889 3.60547 3.55361 3.4973 3.46139 3.80538 3.38138 4.42034 3.26203 3.15795 3.13541 3.12481 3.04892 3.02597 3.00754 2.99771 3.51214 2.88263 2.88187 2.82197 2.778 2.75635
threshold=1.5000000000000002 1.5000000000000002 1.5000000000000002 1.0000000180025095e-35 7.5000000000000009 3.5000000000000004 452.00000000000006 325.00000000000006 1.0000000180025095e-35 803.50000000000011 1.0000000180025095e-35 1.5000000000000002 1.0000000180025095e-35 2.5000000000000004 3.5000000000000004 940.00000000000011 675.00000000000011 1.5000000000000002 32.500000000000007 1.0000000180025095e-35 44.8404748715 0.12499704450818154 1.0000000180025095e-35 1.0000000180025095e-35 0.17449618320784369 0.16807956893055731 1.0000000180025095e-35 0.3347200925899087 27.500000000000004 625.00000000000011 1.0000000180025095e-35 44.832141819600004 0.043329596622361785 1.0000000180025095e-35 1.5000000000000002 -0.55723497899999985 44.850029282800001 0.055414992134758929 0.62564095656459739 1.5000000000000002 0.14290434853302281 44.835985367350013 1.0000000180025095e-35 44.825879984900006 44.839815875700005 5.5000000000000009 1.0000000180025095e-35 0.15983213451016379 0.13099809506531621 125.00000000000001 0.24877858615867832 0.079180626405242163 -0.55844413384999991 0.19804653616233189 1.0000000180025095e-35 41.000000000000007 29.500000000000004 -0.57139351714999986 0.11542871524618316 2.5000000000000004 7.5000000000000009 44.835873362850016
decision_type=2 2 2 2 2 2 2 2 2 2 2 2 2 2 2 2 2 2 2 2 2 2 2 2 2 2 2 2 2 2 2 2 2 2 2 2 2 2 2 2 2 2 2 2 2 2 2 2 2 2 2 2 2 2 2 2 2 2 2 2 2 2
left_child=1 5 6 7 9 8 14 10 17 30 18 -10 38 29 -2 48 31 -1 19 20 -3 22 58 26 32 -18 27 41 35 37 46 -9 51 -19 -35 42 -37 -8 39 49 -41 -12 50 -21 45 -5 47 -4 -6 61 54 -11 -43 55 -16 56 -33 59 -7 -28 -51 -13
right_child=2 3 4 44 15 21 13 16 11 24 23 12 -14 -15 28 -17 25 33 -20 43 -22 -23 -24 -25 -26 -27 57 -29 -30 -31 -32 53 -34 34 -36 36 -38 -39 -40 40 -42 52 -44 -45 -46 -47 -48 -49 -50 60 -52 -53 -54 -55 -56 -57 -58 -59 -60 -61 -62 -63
leaf_value=-0.050252859258594421 -0.0081486234682853573 -0.058182674795389168 0.029458902159899054 -0.024016057376472937 0.083994731058677052 0.015968734510242933 0.015774719198865784 -0.0090018475410651496 -0.052303002348967967 0.095377351108350258 -0.0061103377137634099 -0.044753096955163142 -0.044011483926483443 0.054369459595335158 0.018989144143779415 0.10342366764942806 0.02917004264332354 -0.02202677746566448 0.023629670869559052 -0.034521758421841596 -0.01091647099026225 -0.023212746158242228 -0.0098779230752760287 -0.022217820707010106 0.037881450082820199 0.0036251720942316519 -0.02007840417710563 0.032681818333055293 0.050161824104460809 0.040344859639127907 0.049952460486811644 0.0027063645355793467 0.04903592622050873 -0.011592454978797052 0.019721566111995624 -0.028969296142458908 0.018476993923964489 0.038333688822707962 -0.00068680379878390929 -0.015575510919360179 -0.038687347458756488 0.0049928339384397741 0.046008939702402468 -0.011418152631357682 -0.014375858194175729 -0.052231021569325381 0.0092566375834091264 0.054629101260350303 0.054271583855152128 -0.0085016445070505136 0.044461698718369011 0.066701258640540273 -0.014375271809033372 -0.0026137279589538991 0.006244717606652378 0.03376666644762736 0.016929491649827232 -0.00080179699172731498 0.05392836015671492 -0.0045333396061323587 -0.038931869746496282 -0.032189456281525183
leaf_weight=12.999999999999998 27 15.000000000000002 53 148 24 10.000000000000002 59 53 63 19 147 70 142 38 192 30 50 77 9.9999999999999982 18 10.999999999999998 10.999999999999998 13.999999999999998 32 12.999999999999998 31 65 13.999999999999998 10.999999999999998 68 85 117 12.999999999999998 56 12.999999999999998 10.000000000000002 10.999999999999998 28 10.999999999999998 70 23 266 10.999999999999998 182 98 12.999999999999998 11.999999999999998 26 14.999999999999998 20 9.9999999999999982 19 22 69 61 11.999999999999998 69 80 9.9999999999999982 53 11.999999999999998 116
leaf_count=13 27 15 53 148 24 10 59 53 63 19 147 70 142 38 192 30 50 77 10 18 11 11 14 32 13 31 65 14 11 68 85 117 13 56 13 10 11 28 11 70 23 266 11 182 98 13 12 26 15 20 10 19 22 69 61 12 69 80 10 53 12 116
internal_value=0 -0.0128002 0.03535 -0.00510738 0.0565721 -0.0293749 0.0228829 -0.00182516 -0.031747 0.0481172 -0.00568889 -0.036122 -0.033925 0.0353033 0.0156843 0.0859805 0.00699106 -0.0172462 -0.0146442 -0.0163377 -0.0381854 0.00678533 0.0164906 -0.00257631 0.0657722 0.0193936 -0.00160486 0.00127208 0.0177872 0.030629 0.0416973 0.00385167 0.0728816 -0.0143073 -0.00569271 0.01658 -0.00411648 0.0230351 -0.0294769 -0.0304952 -0.0212913 0.000261191 0.0181663 -0.0134975 -0.0217846 -0.0262943 0.0339864 0.0377428 0.0725628 -0.0344216 0.0170018 0.0810393 0.00351333 0.00640312 0.0159164 0.00954535 0.00798269 -0.00812882 0.0349485 -0.0130963 -0.019913 -0.0369177
internal_weight=0 2306 835 1575 309 731 526 1316 686 240 915 527 464 193 333 69 401 159 236 226 26 45 34 679 64 81 647 449 306 155 176 320 51 146 69 295 21 87 322 311 93 435 274 200 259 161 91 79 39 218 263 38 288 267 253 198 186 198 20 118 32 186
internal_count=3141 2306 835 1575 309 731 526 1316 686 240 915 527 464 193 333 69 401 159 236 226 26 45 34 679 64 81 647 449 306 155 176 320 51 146 69 295 21 87 322 311 93 435 274 200 259 161 91 79 39 218 263 38 288 267 253 198 186 198 20 118 32 186
shrinkage=0.05


Tree=7
num_leaves=63
num_cat=0
split_feature=4 6 3 136 2 2 49 49 10 49 0 6 4 2 51 49 48 49 2 2 47 17 189 47 161 15 48 48 22 67 157 29 50 0 15 2 11 189 49 202 203 184 12 49 178 0 0 1 0 4 36 49 50 185 51 0 4 1 155 0 176 45
split_gain=513.074 106.145 79.753 31.1228 27.7361 22.6348 16.9776 16.1827 15.7109 9.98822 9.28673 7.28237 6.20929 6.02489 5.89769 5.82991 5.739 5.63648 5.56798 5.14014 6.24448 5.06068 4.74435 5.60602 4.57545 4.4353 4.32406 4.18725 4.13656 5.76629 3.94835 3.80704 3.8431 3.78849 3.62503 3.41708 3.40375 3.39817 3.37877 3.76935 4.33394 3.75422 3.2618 3.1972 3.152 3.00176 5.56521 2.97029 2.93391 3.26866 4.85353 3.96931 2.80296 2.77346 2.77316 2.70561 2.70402 2.96551 2.68896 2.68869 2.66012 2.65022
threshold=1.5000000000000002 1.5000000000000002 1.5000000000000002 1.0000000180025095e-35 7.5000000000000009 3.5000000000000004 452.00000000000006 325.00000000000006 1.0000000180025095e-35 1300.0000000000002 44.833507747350005 1.0000000180025095e-35 2.5000000000000004 3.5000000000000004 5.5000000000000009 940.00000000000011 49.500000000000007 675.00000000000011 1.5000000000000002 1.5000000000000002 1.0000000180025095e-35 1.0000000180025095e-35 0.13803559515408706 1.0000000180025095e-35 0.1781805251963566 1.0000000180025095e-35 38.000000000000007 22.500000000000004 1.0000000180025095e-35 0.26069482763233659 1.0000000180025095e-35 1.0000000180025095e-35 1.5000000000000002 44.832141819600004 1.0000000180025095e-35 3.5000000000000004 1.0000000180025095e-35 0.17624816988746936 92.500000000000014 0.11299598281234091 0.091331617680552798 0.23727236579925529 1.0000000180025095e-35 265.00000000000006 0.10095147894231843 44.837824961750009 44.843052658250009 -0.58356548499999994 44.835873362850016 2.5000000000000004 1.0000000180025095e-35 125.00000000000001 1.5000000000000002 0.21235592741372686 1.5000000000000002 44.849130882100006 3.5000000000000004 -0.5685364101 0.13070020254305778 44.850029282800001 0.17087833906872066 4.5000000000000009
decision_type=2 2 2 2 2 2 2 2 2 2 2 2 2 2 2 2 2 2 2 2 2 2 2 2 2 2 2 2 2 2 2 2 2 2 2 2 2 2 2 2 2 2 2 2 2 2 2 2 2 2 2 2 2 2 2 2 2 2 2 2 2 2
left_child=1 5 6 7 9 8 13 10 18 16 14 -10 25 -2 28 43 48 33 -1 55 38 27 23 36 -19 30 42 34 53 -30 52 32 45 -9 35 -12 -7 -5 39 40 -21 -40 61 -6 -11 -20 -47 -35 -4 51 -51 -50 -8 -3 -23 -13 57 -18 -49 -36 -28 -15
right_child=2 3 4 37 15 22 12 17 11 44 21 19 -14 26 -16 -17 56 24 31 20 -22 54 -24 -25 -26 -27 60 -29 29 -31 -32 -33 -34 47 59 -37 -38 -39 41 -41 -42 -43 -44 -45 -46 46 -48 58 49 50 -52 -53 -54 -55 -56 -57 -58 -59 -60 -61 -62 -63
leaf_value=-0.047740217871390857 -0.0077411926661928492 -0.010676820516251982 0.026122755208052698 -0.023531311730710935 0.087043106953303029 0.050655738196589722 0.018732429780195365 -0.008551755223757113 -0.058239039902885759 0.085030230487647795 -0.0099060262573184444 -0.052265427472150849 0.051650986898886531 -0.0058484515800955707 -0.050906114280223846 0.0982524851957957 0.042780500056133389 0.024548545049037786 -0.02279002560990984 -0.027432831746768461 -0.040113995827846513 0.025303474279353394 -0.023926818594336513 -0.0093840270037097596 -0.0046334442299078493 0.053195570244946901 0.020018683699890974 0.0064330290772963358 -0.015916829934234128 -0.059109004624187944 0.052354368108969478 -0.030937563126476914 0.013840215787446748 -0.0056304678238100481 -0.0014005421222571062 -0.00057932431953129908 0.010350428828969596 -0.00912922303221992 -0.023589422159335197 -0.038289402587999871 0.0065921011380851271 0.0048663990447918581 0.017399767073080503 0.057616804571201413 0.051398393105376854 0.018386225490009084 -0.015520650337982392 0.0060766355626354802 0.018551844527013601 0.068704647508760305 0.034710494890099482 0.04596230297548963 0.035407911777562862 0.0093353244806884932 0.0041582332333495869 -0.023569676578044891 0.075436137554546201 0.07010828141982739 0.021176883865680014 0.029511232472335298 0.042039510002359753 0.01466438943039506
leaf_weight=12.999999999999998 27 195 48 208 14.999999999999998 11 90 53 30 19.000000000000004 300 46 38 32 9.9999999999999982 30 42 64 46 146 133 20 9.9999999999999982 13.999999999999998 17 17 32 83 34 9.9999999999999982 12.999999999999998 26 14.999999999999998 45 17.000000000000004 146 10 51 51 86 9.9999999999999982 14.999999999999998 187 24 10.999999999999998 17 42 187 25 21 21 28 35 19 69 9.9999999999999982 11.999999999999998 12.999999999999998 35 11.999999999999998 24 31
leaf_count=13 27 195 48 208 15 11 90 53 30 19 300 46 38 32 10 30 42 64 46 146 133 20 10 14 17 17 32 83 34 10 13 26 15 45 17 146 10 51 51 86 10 15 187 24 11 17 42 187 25 21 21 28 35 19 69 10 12 13 35 12 24 31
internal_value=0 -0.0121602 0.0335825 -0.00485202 0.0537435 -0.0279062 0.0217388 -0.00173391 -0.0301596 0.0457114 -0.00540444 -0.0343159 0.0335382 0.0149001 -0.0132311 0.0816815 0.0418561 0.00664151 -0.0163839 -0.0328718 -0.0310598 -0.0021625 0.00644606 0.015124 0.0184239 0.0290976 0.0168979 -0.00392853 -0.0117708 -0.0257332 0.026129 -0.0135919 -0.00983366 0.00365909 -0.00573908 -0.00685289 0.0314627 -0.0206954 -0.0271501 -0.029885 -0.0252517 -0.0171222 0.0140848 0.0689346 0.0726986 -0.0132156 -0.00575087 0.00608296 0.0361983 0.041289 0.0517076 0.0330328 0.0234016 -0.00890004 0.00890997 -0.0471412 0.0539317 0.0492398 0.00845731 0.0113905 0.0294562 0.00424517
internal_weight=0 2306 835 1575 309 731 526 1316 686 240 915 527 193 333 268 69 210 401 159 497 441 647 45 35 81 155 306 558 258 44 138 146 120 320 475 446 21 259 308 242 156 66 250 39 30 105 59 267 143 95 42 53 125 214 89 56 67 55 222 29 56 63
internal_count=3141 2306 835 1575 309 731 526 1316 686 240 915 527 193 333 268 69 210 401 159 497 441 647 45 35 81 155 306 558 258 44 138 146 120 320 475 446 21 259 308 242 156 66 250 39 30 105 59 267 143 95 42 53 125 214 89 56 67 55 222 29 56 63
shrinkage=0.05


Tree=8
num_leaves=63
num_cat=0
split_feature=2 3 73 49 2 2 49 2 47 49 45 8 31 17 136 47 10 0 0 48 47 49 12 15 49 2 194 185 0 12 178 51 193 186 88 125 2 0 168 48 49 161 67 0 153 47 1 3 48 202 49 178 73 7 168 221 46 0 168 1 2 153
split_gain=397.528 140.599 42.166 31.7549 29.9645 22.1467 18.1903 17.3336 13.4789 11.6643 8.3392 7.19369 6.85303 6.83723 6.67031 6.47202 6.08163 5.67321 5.71942 5.61964 5.34037 7.81647 5.3143 5.30437 5.26149 4.9043 4.82291 4.72925 4.46837 4.32103 4.2081 4.17217 4.15403 4.07561 4.00467 3.89365 4.83078 4.7114 3.83486 4.234 3.6981 3.67936 3.65358 3.56876 3.53128 3.42677 3.35973 3.34875 3.61294 3.26955 3.20783 3.19037 3.17912 4.12175 3.10996 2.97071 2.9497 4.71426 2.90444 2.89443 3.06677 3.04421
threshold=3.5000000000000004 1.5000000000000002 1.0000000180025095e-35 675.00000000000011 7.5000000000000009 1.5000000000000002 372.00000000000006 4.5000000000000009 1.0000000180025095e-35 775.00000000000011 28.500000000000004 1.5000000000000002 1.0000000180025095e-35 1.0000000180025095e-35 0.29689067043664069 1.0000000180025095e-35 1.0000000180025095e-35 44.832141819600004 44.855853075550009 22.500000000000004 7.5000000000000009 191.00000000000003 1.0000000180025095e-35 1.0000000180025095e-35 940.00000000000011 1.5000000000000002 0.3347200925899087 0.09193075086513787 44.831771609200011 1.0000000180025095e-35 0.17318834338801317 1.5000000000000002 0.14023335908958637 0.038872227357554141 0.36226187979025298 0.40191012045502833 2.5000000000000004 44.830633455500006 0.19773658296694027 41.000000000000007 1300.0000000000002 0.2770473436682393 0.29193382787403194 44.858953391749999 0.11362898658403443 1.0000000180025095e-35 -0.5666867297499999 11.500000000000002 28.500000000000004 0.18558088053771851 325.00000000000006 0.13948301339601535 0.44287655588194813 1.5000000000000002 0.2810058293269222 0.21448535096261709 19.500000000000004 44.838431217000007 0.13205074414339921 -0.56917517444999988 1.5000000000000002 0.30842027839299518
decision_type=2 2 2 2 2 2 2 2 2 2 2 2 2 2 2 2 2 2 2 2 2 2 2 2 2 2 2 2 2 2 2 2 2 2 2 2 2 2 2 2 2 2 2 2 2 2 2 2 2 2 2 2 2 2 2 2 2 2 2 2 2 2
left_child=2 3 5 7 9 54 10 8 14 12 11 -7 13 47 22 23 25 -8 38 29 21 -10 32 35 58 -4 -24 -25 52 45 33 51 42 40 59 36 37 -13 39 -19 -11 43 -2 -39 56 -9 -31 -3 -49 -23 -22 -17 -18 -54 55 -1 57 -5 -6 60 -30 -62
right_child=1 4 16 44 24 6 17 19 20 30 -12 15 -14 -15 -16 31 28 18 -20 -21 50 49 26 27 -26 -27 -28 -29 34 46 -32 -33 -34 -35 -36 -37 -38 41 -40 -41 -42 -43 -44 -45 -46 -47 -48 48 -50 -51 -52 -53 53 -55 -56 -57 -58 -59 -60 -61 61 -63
leaf_value=-0.047664522537245207 0.015057549724702305 0.03030851635355818 -0.049483856248358889 0.044679721532156692 0.075136245844455871 -0.027371632043555708 -0.015994906650157646 0.0098355396340290696 -0.047444010734119836 0.061098706051707266 0.017063620403959333 -0.023351269997656347 0.070709133769075075 0.042426690226995654 -0.017172250993873761 -0.036064235833955224 -0.050035414238968359 0.0096631806135942105 -0.015883467493889233 0.031265477083721446 -0.0058523417987153999 -0.019055495721598464 0.012440911693929161 -0.0069291749495702486 0.093339860439300537 -0.015580401569726142 0.047677420343970878 0.025489087780523636 -0.040905199510355789 0.024026769040767563 0.033304418310789126 -0.013753716364579359 -0.011293952564470643 0.047643085617734039 -0.054576899744570251 -0.028719171119684524 -0.00061884321938974769 -0.0086018481111015243 -0.0032089751695507564 0.043454398401081562 0.094604498999459413 -0.029569635063409806 -0.013014260443548363 -0.025215192371979358 0.0096718365469804189 -0.026669716350734236 0.0041942932530595316 3.7344447337090974e-05 0.031762118451297283 0.013851380147613014 0.0077186271156986343 -0.0077415058932577569 -0.044770008413230672 -0.005490235306999899 -0.070276059806346894 -0.015597049836069347 0.046972158332557787 0.018472237134906085 0.046191157629856698 -0.037264573679616053 -0.023831752069767509 0.0025237305865933499
leaf_weight=26 51 59 11.999999999999998 32 26 92 40 18.000000000000004 17 20 22 90 11.999999999999998 81 23 58 55 127 30 76 141 18.000000000000004 336 30 30 96 9.9999999999999982 18 24 81 13.999999999999998 67 43 23 14.999999999999998 33 94 423 58 9.9999999999999982 13.999999999999998 25 14.999999999999998 35 12.999999999999998 9.9999999999999982 29 25 13.999999999999998 12.999999999999998 63 11.999999999999998 17 11.000000000000002 9.9999999999999982 9.9999999999999982 46 37 12.999999999999998 60 126 11.999999999999998
leaf_count=26 51 59 12 32 26 92 40 18 17 20 22 90 12 81 23 58 55 127 30 76 141 18 336 30 30 96 10 18 24 81 14 67 43 23 15 33 94 423 58 10 14 25 15 35 13 10 29 25 14 13 63 12 17 11 10 10 46 37 13 60 126 12
internal_value=0 0.0197977 -0.0159817 0.0110025 0.0482828 -0.0115302 -0.01029 0.00783366 0.00416528 0.0405625 -0.0133792 -0.0140647 0.0341302 0.031678 0.00909841 -0.0126814 -0.0296068 0.00135603 0.00444064 0.0203473 -0.00519201 -0.0201975 0.0104264 -0.0108515 0.0775974 -0.0193475 0.0134593 0.00522767 -0.0330694 0.0143344 0.0578661 -0.0226724 0.00079891 0.0638987 -0.0295729 -0.0119541 -0.0111246 -0.0128481 0.00756742 0.0121297 0.0748952 -0.010891 0.00867759 -0.00987143 0.0343725 -0.00320205 0.0187982 0.0227939 0.0114257 -0.00525584 -0.00166131 -0.0312089 -0.0430534 -0.0293387 -0.0456089 -0.0387569 0.0371647 0.0306264 0.0654879 -0.0278834 -0.0244089 -0.02154
internal_weight=0 1403 1738 1072 331 1310 1264 944 730 262 999 977 191 179 478 885 428 265 225 214 252 48 455 748 69 108 346 48 320 138 71 137 109 57 237 700 667 573 195 137 34 483 66 458 128 28 110 98 39 31 204 70 83 28 46 36 115 69 39 222 162 138
internal_count=3141 1403 1738 1072 331 1310 1264 944 730 262 999 977 191 179 478 885 428 265 225 214 252 48 455 748 69 108 346 48 320 138 71 137 109 57 237 700 667 573 195 137 34 483 66 458 128 28 110 98 39 31 204 70 83 28 46 36 115 69 39 222 162 138
shrinkage=0.05


Tree=9
num_leaves=63
num_cat=0
split_feature=4 6 3 136 4 7 49 0 84 17 49 16 87 51 0 49 218 4 12 49 67 160 10 176 73 178 198 17 49 0 18 49 15 8 15 25 20 203 49 191 12 154 154 16 152 51 48 63 178 201 175 49 25 46 84 12 12 193 201 164 198 36
split_gain=422.063 87.8137 64.3 26.0134 20.6875 16.9326 14.2186 13.6915 9.78687 9.21025 8.91944 7.95345 6.89184 6.841 6.43869 6.3105 6.18737 5.35978 4.75426 5.86963 4.94393 4.718 4.37747 5.00336 4.22847 4.17271 3.99719 3.93654 3.8858 3.83258 4.08704 5.04156 3.8116 3.61893 3.55854 3.6142 3.47701 4.21818 3.43075 3.42295 3.31072 3.22976 3.17884 3.07365 3.60403 3.19026 3.06378 3.08132 3.03927 3.47837 2.98271 2.95477 2.98043 3.06329 2.82514 2.77582 2.75059 2.71064 2.54763 2.54711 2.54554 2.53769
threshold=1.5000000000000002 1.5000000000000002 1.5000000000000002 1.0000000180025095e-35 3.5000000000000004 1.0000000180025095e-35 452.00000000000006 44.832722481600008 0.30390289083930472 1.0000000180025095e-35 775.00000000000011 1.0000000180025095e-35 0.65285714741745238 1.5000000000000002 44.844298229450011 372.00000000000006 0.13383890285959468 2.5000000000000004 1.0000000180025095e-35 125.00000000000001 0.23686332503767482 0.30165230742222232 1.0000000180025095e-35 0.14029192493628215 0.31662169138104279 0.078065351546581882 0.18748483893405185 1.0000000180025095e-35 675.00000000000011 44.831771609200011 1.0000000180025095e-35 402.50000000000006 1.0000000180025095e-35 1.5000000000000002 1.0000000180025095e-35 1.0000000180025095e-35 1.0000000180025095e-35 0.04083192351280962 1300.0000000000002 0.14995128768392185 1.0000000180025095e-35 0.012397761767727609 0.23100809069360551 1.0000000180025095e-35 0.22176564061282247 5.5000000000000009 32.500000000000007 0.4179711452277452 0.17318834338801317 0.1515986432458456 0.15983213451016379 625.00000000000011 1.0000000180025095e-35 19.500000000000004 0.509488151227249 1.0000000180025095e-35 1.0000000180025095e-35 0.055520903971891793 0.21272693559204026 0.055414992134758929 0.2331917256940646 1.0000000180025095e-35
decision_type=2 2 2 2 2 2 2 2 2 2 2 2 2 2 2 2 2 2 2 2 2 2 2 2 2 2 2 2 2 2 2 2 2 2 2 2 2 2 2 2 2 2 2 2 2 2 2 2 2 2 2 2 2 2 2 2 2 2 2 2 2 2
left_child=1 5 6 7 10 12 21 18 11 15 27 22 16 -6 -15 34 29 32 19 20 -3 40 24 56 -7 -18 28 50 -11 -1 31 33 51 -31 35 46 -13 -38 -16 54 -2 -17 -42 45 -45 -5 47 55 49 -12 -4 59 53 -53 -10 -9 -24 58 -20 -8 -57 -52
right_child=2 3 4 43 13 8 17 9 39 26 48 36 -14 14 38 41 25 -19 57 -21 -22 -23 23 -25 -26 -27 -28 -29 -30 30 -32 -33 -34 -35 -36 -37 37 -39 -40 -41 42 -43 -44 44 -46 -47 -48 -49 -50 -51 61 52 -54 -55 -56 60 -58 -59 -60 -61 -62 -63
leaf_value=-0.044184970978317389 0.00587177058340798 -0.024732815587360943 0.019362761593785967 -0.021560778643137643 0.1037603687805434 0.020336397043589888 0.011674429114022392 -0.011659978098598207 -0.032416632473468786 0.010777649226245183 0.069880932574677798 -0.025324012123217637 0.009400325044989586 0.048415469223829478 0.06599890503745813 0.0037411470363631545 -0.024372930227863521 0.047450521558915319 0.0018814521901206012 -0.0095514134010847886 -0.065688929557800299 -0.0064700115299611187 -0.022258444630036435 -0.04047276480839803 -0.0043691601138561966 0.013343301618641074 -0.013262844905257226 0.042439968536740973 0.033790523771728788 -0.051373743658003061 -0.042913334573985953 0.0041805399243127215 0.048836109513307323 -0.028617047832866761 0.012069163904251423 -0.010472599698709293 0.015538508738749299 -0.025570787970597548 0.096026747624079395 -0.047582645311951638 0.016785058130269977 0.021097541429222592 0.042223480429786908 -0.017048712241484774 0.0056032974611629144 -0.050793212354183194 0.01267669669098475 0.021675543168870114 0.03529991010935711 0.040509326489908355 0.058138235590674638 0.015724378327528637 0.054528596950694924 0.041929405868837713 -0.0037112266446153322 -0.00029168054324241617 0.0083186717324056914 -0.012395612962073952 -0.022644522506743672 0.031143211441424984 -0.022210379011396851 0.027961193348624205
leaf_weight=79 71 28 54 140 11.999999999999998 29 56 90 30 145 36 88 9.9999999999999982 38 26 198 22 38 90 51 9.9999999999999982 27 12.000000000000002 12.999999999999998 43 10.999999999999998 14.999999999999998 70 21 19 66 10.999999999999998 17 217 34 179 13.000000000000002 11.999999999999998 14.999999999999998 25 222 31 12.999999999999998 87 22 9.9999999999999982 33 11.999999999999998 13.999999999999998 13.999999999999998 11.000000000000002 27 11.999999999999998 19 11.999999999999998 246 19 107 11.999999999999998 24 13.999999999999998 19
leaf_count=79 71 28 54 140 12 29 56 90 30 145 36 88 10 38 26 198 22 38 90 51 10 27 12 13 43 11 15 70 21 19 66 11 17 217 34 179 13 12 15 25 222 31 13 87 22 10 33 12 14 14 11 27 12 19 12 246 19 107 12 24 14 19
internal_value=0 -0.0110291 0.0304587 -0.00438183 0.0485615 -0.025351 0.0198241 -0.00153114 -0.0161259 0.00122818 0.0402028 -0.0112082 -0.0316284 0.0685855 0.0632425 -0.000983431 -0.0325937 0.0306223 -0.0109573 -0.0206352 -0.0355107 0.0135657 -0.0020113 -0.0144362 0.00558169 -0.0118009 0.0114553 0.0336829 0.0136889 -0.0343442 -0.0318604 -0.0289069 0.0264966 -0.0304492 -0.00364787 -0.00457884 -0.0206492 -0.00419395 0.0769847 -0.0329343 0.0153336 0.0060907 0.0181923 -0.0188664 -0.0124767 -0.0235096 -0.001908 -0.00323754 0.0558913 0.0616569 0.0263854 0.0237447 0.0323372 0.0265482 -0.0242151 -0.0040917 -0.00351763 -0.00683605 -0.00100396 0.0175151 -0.00147192 0.0390261
internal_weight=0 2306 835 1575 309 731 526 1316 296 1018 218 229 435 91 79 837 425 193 298 89 38 333 116 44 72 33 181 154 166 392 313 247 155 236 608 574 113 25 41 67 306 229 235 259 109 150 395 362 64 50 84 138 58 46 42 350 31 209 102 80 260 30
internal_count=3141 2306 835 1575 309 731 526 1316 296 1018 218 229 435 91 79 837 425 193 298 89 38 333 116 44 72 33 181 154 166 392 313 247 155 236 608 574 113 25 41 67 306 229 235 259 109 150 395 362 64 50 84 138 58 46 42 350 31 209 102 80 260 30
shrinkage=0.05


Tree=10
num_leaves=63
num_cat=0
split_feature=4 6 3 136 2 2 0 10 48 17 48 223 6 12 154 48 2 46 45 12 67 0 55 237 4 189 47 22 1 107 45 117 219 2 64 125 2 112 22 1 46 55 47 87 178 39 0 51 84 139 43 34 51 187 141 3 0 29 166 143 67 193
split_gain=380.912 79.2519 58.0308 23.4771 20.7897 17.7264 12.3566 12.3125 9.58503 8.31225 7.09483 6.61721 6.34764 6.27604 5.52831 4.94622 4.82758 4.35325 4.35097 4.29072 4.96578 4.26818 4.19534 4.03566 4.02494 3.94187 4.8713 3.78735 3.75825 3.74342 3.71058 3.58378 3.56921 3.44863 3.37819 3.29084 3.28591 3.20803 3.14122 3.12213 3.10017 2.99751 2.91294 3.95701 2.94422 2.90992 2.84041 3.03228 2.82878 2.80963 2.75305 3.10381 5.22719 2.97004 2.6746 2.62112 2.56962 2.55783 2.5062 2.67946 2.47427 2.44635
threshold=1.5000000000000002 1.5000000000000002 1.5000000000000002 1.0000000180025095e-35 7.5000000000000009 3.5000000000000004 44.832722481600008 1.0000000180025095e-35 38.000000000000007 1.0000000180025095e-35 57.000000000000007 1.0000000180025095e-35 1.0000000180025095e-35 1.0000000180025095e-35 0.012397761767727609 22.500000000000004 10.500000000000002 5.5000000000000009 16.500000000000004 1.0000000180025095e-35 0.28801825884622406 44.835873362850016 0.46987280139491422 0.31695513397212899 1.0000000180025095e-35 0.12591836381486798 1.0000000180025095e-35 1.0000000180025095e-35 -0.57995599399999986 0.53386856087083767 19.500000000000004 0.4607758033816301 0.084051470348235499 1.5000000000000002 0.44588937207207463 0.36989630268827117 2.5000000000000004 0.49782871874343532 1.0000000180025095e-35 -0.59273360129999986 34.500000000000007 0.30336162717006426 1.0000000180025095e-35 1.0000000180025095e-35 0.069462302019911396 1.0000000180025095e-35 44.839815875700005 5.5000000000000009 0.45261824002995599 1.0000000180025095e-35 1.0000000180025095e-35 1.0000000180025095e-35 1.5000000000000002 0.13164288669436078 0.42325072604525871 11.500000000000002 44.855853075550009 1.0000000180025095e-35 0.17247172987904749 0.42806807808589592 0.29710130278502206 0.055520903971891793
decision_type=2 2 2 2 2 2 2 2 2 2 2 2 2 2 2 2 2 2 2 2 2 2 2 2 2 2 2 2 2 2 2 2 2 2 2 2 2 2 2 2 2 2 2 2 2 2 2 2 2 2 2 2 2 2 2 2 2 2 2 2 2 2
left_child=1 5 8 6 10 7 19 18 11 14 21 13 -9 -2 15 24 37 32 33 20 -3 55 23 54 41 26 -7 50 -17 31 -10 35 42 -1 36 38 -11 39 49 -6 -19 -8 43 -14 60 -30 47 -5 57 58 51 52 -23 -53 -15 -4 -48 -35 59 -26 -44 -21
right_child=2 3 4 46 16 25 9 12 30 34 -12 -13 17 22 -16 28 -18 40 -20 61 -22 27 -24 -25 29 -27 -28 -29 45 -31 -32 -33 -34 48 -36 -37 -38 -39 -40 -41 -42 -43 44 -45 -46 -47 56 -49 -50 -51 -52 53 -54 -55 -56 -57 -58 -59 -60 -61 -62 -63
leaf_value=-0.041457381615271939 0.0027030610204023379 -0.014500686545856298 0.029494929158439237 -0.019974608296006165 0.095555932521820069 0.030568448207341139 -0.01061239863280207 -0.052092174628439049 0.027729264630571654 0.0020280489866363717 0.059000124708798375 0.04687121529132128 -0.022971678971864133 0.020041801498155112 0.011565634721628158 -0.0072228279442359241 0.10244568929076195 -0.041618132280806706 0.0085693334204781993 -0.00095375865576880099 -0.046939443424344064 0.069967433371964635 -0.0052189983476541545 0.042670257366947177 -0.0015589330173085968 -0.019700294868512588 -0.0078865572244727188 0.020574239863171466 0.0213616393143084 0.024650976806879044 0.051999926567077637 -0.033237479142844681 -0.050971023738384247 -0.0081335952493955723 0.037736060461876074 -0.023465088446085393 0.015934734299361451 0.041802436866176629 -0.011891408282497976 0.064068052535121503 -0.027308572625129746 -0.038249103610332201 -0.041211534988273076 0.0091161845624446874 -0.0076660002768039713 0.0043512131264791471 -0.008045447388225619 -0.045160929056314324 -0.036516565428330351 -0.024566433570968608 0.063625955531994502 0.0087281080965812378 0.038875568522648382 0.044972713589668277 0.0076007449771774808 0.0033686326079381012 -0.031914545423709431 -0.026796274344720275 0.020040881919364137 0.01930561368353665 -0.015194572508335114 -0.011775832164422805
leaf_weight=12.999999999999998 93 75 48 148 9.9999999999999982 20 40 30 92 83 38 15.999999999999998 245 216 80 39 9.9999999999999982 87 19 102 13.999999999999998 17 19 17 402 10.999999999999998 13.999999999999998 21 41 11.999999999999998 19 9.9999999999999982 12.999999999999998 91 10.999999999999998 19 87 11.999999999999998 73 37 67 12.999999999999998 54 9.9999999999999982 9.9999999999999982 65 85 12.999999999999998 12.999999999999998 11.999999999999998 14.999999999999998 13.000000000000002 66 9.9999999999999982 54 11.999999999999998 12.999999999999998 23 14.999999999999998 15.999999999999998 10.999999999999998 107
leaf_count=13 93 75 48 148 10 20 40 30 92 83 38 16 245 216 80 39 10 87 19 102 14 17 19 17 402 11 14 21 41 12 19 10 13 91 11 19 87 12 73 37 67 13 54 10 10 65 85 13 13 12 15 13 66 10 54 12 13 23 15 16 11 107
internal_value=0 -0.0104776 0.0289357 -0.00416274 0.0461334 -0.0240835 -0.00145458 -0.0260777 0.0188329 0.00116677 0.0391794 0.0153422 -0.029757 0.0140779 -0.00093426 -0.00225525 0.0703212 -0.0284088 -0.0138825 -0.0104094 -0.0196034 0.0354508 0.017535 0.0190413 -0.00422254 0.00631675 0.014734 0.0401752 0.00604804 -0.00297399 0.0318837 -0.00358002 -0.0252733 -0.0169295 0.0108826 -0.00302774 0.009145 0.0648764 -0.0022781 0.0707676 -0.0353925 -0.0173912 -0.024261 -0.0217133 -0.032923 0.0109307 -0.0179231 -0.0220083 -0.0144188 -0.00070109 0.043577 0.0407399 0.0452438 0.0244866 0.0175536 0.0242697 -0.0112118 -0.0118989 -3.96952e-05 -0.00076029 -0.0368087 -0.00649425
internal_weight=0 2306 835 1575 309 731 1316 686 526 1018 240 415 527 399 837 757 69 497 159 298 89 202 306 287 612 45 34 142 145 559 111 547 343 140 181 537 170 59 518 47 154 53 330 255 75 106 259 161 127 445 121 106 83 23 270 60 98 114 433 418 65 209
internal_count=3141 2306 835 1575 309 731 1316 686 526 1018 240 415 527 399 837 757 69 497 159 298 89 202 306 287 612 45 34 142 145 559 111 547 343 140 181 537 170 59 518 47 154 53 330 255 75 106 259 161 127 445 121 106 83 23 270 60 98 114 433 418 65 209
shrinkage=0.05


Tree=11
num_leaves=63
num_cat=0
split_feature=4 6 3 136 2 2 49 7 49 49 12 2 87 58 31 2 4 47 7 0 161 49 2 193 48 45 0 125 45 189 47 47 2 1 4 49 97 15 1 0 1 67 51 60 64 11 157 112 221 140 190 0 7 48 47 221 39 186 193 46 1 55
split_gain=343.773 71.5248 52.3728 21.1881 18.7627 15.998 12.4542 11.5066 11.3081 7.15055 6.95096 6.87885 6.34846 5.96883 4.84465 4.82888 4.72914 4.48682 5.04114 4.7996 4.45518 5.06051 4.35689 4.24754 4.21971 4.09539 3.96886 3.80145 3.6079 3.55767 4.11908 3.44044 7.29571 4.41475 3.37488 3.60886 3.36607 3.3645 3.14156 3.96797 3.12887 6.16193 3.0992 2.99759 2.94927 2.94129 2.90536 2.89525 2.98423 2.87289 2.96253 2.8326 2.97691 2.75224 2.75537 2.65904 3.57166 2.85227 2.62954 2.61263 2.59926 2.95894
threshold=1.5000000000000002 1.5000000000000002 1.5000000000000002 1.0000000180025095e-35 7.5000000000000009 3.5000000000000004 452.00000000000006 1.5000000000000002 325.00000000000006 1300.0000000000002 1.0000000180025095e-35 1.5000000000000002 0.65285714741745238 0.4254139217161908 1.0000000180025095e-35 3.5000000000000004 2.5000000000000004 1.0000000180025095e-35 3.5000000000000004 44.847595751400007 0.12707592949765587 675.00000000000011 10.500000000000002 0.31612142272895666 32.500000000000007 28.500000000000004 44.835873362850016 1.0000000180025095e-35 27.500000000000004 0.13803559515408706 1.0000000180025095e-35 1.0000000180025095e-35 2.5000000000000004 -0.57962971659999984 2.5000000000000004 125.00000000000001 0.50727558155063757 1.0000000180025095e-35 -0.55723497899999985 44.850029282800001 -0.57493944504999994 0.25028765698195277 6.5000000000000009 0.41529018909033716 1.0000000180025095e-35 1.0000000180025095e-35 1.0000000180025095e-35 0.49782871874343532 0.29793845874145453 0.35815872185327308 0.085363200928987346 44.825879984900006 1.0000000180025095e-35 14.500000000000002 6.5000000000000009 0.44155852388464717 1.0000000180025095e-35 0.14112187751868624 0.13384137162790213 5.5000000000000009 -0.57198844919999992 0.29075739226224984
decision_type=2 2 2 2 2 2 2 2 2 2 2 2 2 2 2 2 2 2 2 2 2 2 2 2 2 2 2 2 2 2 2 2 2 2 2 2 2 2 2 2 2 2 2 2 2 2 2 2 2 2 2 2 2 2 2 2 2 2 2 2 2 2
left_child=1 5 6 8 9 7 15 12 10 14 13 -9 23 24 26 -2 37 18 19 -13 21 43 47 36 51 27 -4 31 38 30 45 32 33 -12 35 -28 42 46 44 -40 41 -35 59 -10 -17 -7 -8 48 -6 50 58 -3 -53 54 -5 56 57 -20 -34 -1 -42 -62
right_child=2 3 4 53 22 29 16 11 20 -11 25 17 -14 -15 -16 28 -18 -19 55 -21 -22 -23 -24 -25 -26 -27 34 -29 -30 -31 -32 -33 49 40 -36 -37 -38 -39 39 -41 60 -43 -44 -45 -46 -47 -48 -49 -50 -51 -52 52 -54 -55 -56 -57 -58 -59 -60 -61 61 -63
leaf_value=-0.029064644198544976 -0.0082357632065260863 -0.029481008388102053 0.020347029080783782 -0.022030632841762429 0.075435457175428225 0.045362431619485666 0.019196759941615165 -0.042652271706206002 0.0066316567790019728 0.060054499733572214 -0.015838188034317951 0.023445703443139794 0.0095018535107374204 -0.047804938671602445 0.059546999195042784 0.013141757454001611 0.043804495203259748 -0.024055560216871337 0.0038315441037073388 -0.016552613442763688 -0.0043200363278050316 0.021205784614768724 0.097323406338691715 -0.00016047588803551414 0.021665724588092419 0.023115601285826418 0.014428872070633448 -0.01929646786884405 0.041938415982506499 -0.020300583057105543 -0.0074922297216419662 -0.0086423236212224107 0.020719472085147572 -0.00067501669447567018 0.045836506170136015 0.036907502742312658 -0.003005003184080124 0.045110311542692433 -0.02865878250449895 0.014859075827354734 -0.013831750342601132 0.039341643796517306 -0.058546464602378279 -0.01641943083687996 0.039567556096748877 0.0078951534070074558 0.044032809023673722 0.03971231568139047 0.047885951798941409 -0.0023497490355601676 -0.013614942967383701 -0.011233206842861485 0.015543959209356795 -0.0081224983160455635 -0.0024344698013737797 -0.036123230556646985 -0.01919092079553979 -0.025814656727015974 0.006744297557103803 -0.03829955779991271 -0.0045464606231873424 0.014126944976548353
leaf_weight=276 27 20 55 174 33 11 125 23 236 30 68 20 9.9999999999999982 10.999999999999998 17 263 38 76 43 11.999999999999998 88 62 9.9999999999999982 10.999999999999998 9.9999999999999982 15.999999999999998 26 32 10.999999999999998 9.9999999999999982 13.999999999999998 137 64 37 55 57 9.9999999999999982 17 10.000000000000002 10.999999999999998 52 12.999999999999998 10.999999999999998 14.999999999999998 10.999999999999998 10 12.999999999999998 11.999999999999998 13.999999999999998 52 10.999999999999998 184 10.999999999999998 65 20 11.999999999999998 66 9.9999999999999982 71 106 99 27
leaf_count=276 27 20 55 174 33 11 125 23 236 30 68 20 10 11 17 263 38 76 43 12 88 62 10 11 10 16 26 32 11 10 14 137 64 37 55 57 10 17 10 11 52 13 11 15 11 10 13 12 14 52 11 184 11 65 20 12 66 10 71 106 99 27
internal_value=0 -0.00995372 0.027489 -0.0039546 0.0438267 -0.0228793 0.0178913 -0.0247738 -0.00138185 0.0372204 -0.00445016 -0.0165359 -0.0298642 -0.0118421 0.0339584 0.0120341 0.0279972 -0.0140226 -0.00934471 0.00844633 0.00561939 0.00841386 0.0668051 -0.030815 -0.010084 -0.00188093 0.0317045 -0.00248416 0.0138226 0.00600092 0.0135156 -0.00163156 0.000312724 -0.00465694 0.0362311 0.029866 -0.0316518 0.0241219 0.0127742 -0.00586371 -0.00132218 0.00972932 -0.0323807 0.0052541 0.0142026 0.0275209 0.0215364 0.0616326 0.0672292 0.00774212 0.0113365 -0.0115607 -0.0097227 -0.017027 -0.0200104 -0.0136906 -0.0114285 -0.00176208 0.0133696 -0.0316272 -0.00442653 -0.000545017
internal_weight=0 2306 835 1575 309 731 526 686 1316 240 915 262 424 236 210 333 193 239 163 32 401 313 69 414 225 679 193 663 306 45 35 631 494 296 138 83 403 155 295 21 228 50 393 251 274 21 138 59 47 198 146 215 195 259 194 131 119 53 135 382 178 126
internal_count=3141 2306 835 1575 309 731 526 686 1316 240 915 262 424 236 210 333 193 239 163 32 401 313 69 414 225 679 193 663 306 45 35 631 494 296 138 83 403 155 295 21 228 50 393 251 274 21 138 59 47 198 146 215 195 259 194 131 119 53 135 382 178 126
shrinkage=0.05


Tree=12
num_leaves=63
num_cat=0
split_feature=4 6 3 4 2 2 49 10 17 22 0 12 49 0 6 1 31 49 24 185 21 46 48 0 155 2 47 2 12 176 4 49 48 1 189 47 47 0 7 45 55 1 1 67 5 184 175 11 49 202 203 201 184 200 46 29 168 7 47 20 191 1
split_gain=310.255 64.5512 47.2664 19.2839 16.9334 14.4382 11.541 10.5418 9.83325 7.77625 6.54728 6.52354 6.45337 5.95927 5.62569 4.75723 4.3723 4.15002 4.1129 4.09413 4.01706 3.79222 3.75993 4.08377 3.73873 3.71809 4.52076 3.56206 4.23529 4.12876 3.52474 3.4788 3.40843 3.23959 3.22406 3.97386 3.13105 5.12162 2.84556 2.76816 2.73357 3.29302 3.11196 3.60357 2.84109 2.69675 2.67693 2.65617 2.65201 3.14536 3.69306 3.19862 3.01984 2.64321 2.61053 2.55444 2.5306 2.50849 2.44744 2.44194 2.4118 2.93232
threshold=1.5000000000000002 1.5000000000000002 1.5000000000000002 1.0000000180025095e-35 7.5000000000000009 3.5000000000000004 625.00000000000011 1.0000000180025095e-35 1.0000000180025095e-35 1.0000000180025095e-35 44.832490222950007 1.0000000180025095e-35 1300.0000000000002 44.835143547450009 1.0000000180025095e-35 -0.55042401414999997 1.0000000180025095e-35 940.00000000000011 1.0000000180025095e-35 0.22517031073440799 1.0000000180025095e-35 5.5000000000000009 38.000000000000007 44.842267724300008 0.36677462053772575 1.5000000000000002 1.0000000180025095e-35 3.5000000000000004 1.0000000180025095e-35 0.14409116784462497 2.5000000000000004 675.00000000000011 22.500000000000004 -0.58065081419999987 0.12591836381486798 1.0000000180025095e-35 1.0000000180025095e-35 44.853792969600001 1.5000000000000002 16.500000000000004 0.35835523943584352 -0.57772025729999987 -0.56289657019999984 0.25835572375551846 1.0000000180025095e-35 0.18425601661247465 0.1760382414825564 1.0000000180025095e-35 92.500000000000014 0.11299598281234091 0.091331617680552798 0.16532494643668164 0.23727236579925529 0.34256273311978763 39.500000000000007 1.0000000180025095e-35 0.13205074414339921 1.0000000180025095e-35 13.500000000000002 1.0000000180025095e-35 0.043169638243457049 -0.56504391224999995
decision_type=2 2 2 2 2 2 2 2 2 2 2 2 2 2 2 2 2 2 2 2 2 2 2 2 2 2 2 2 2 2 2 2 2 2 2 2 2 2 2 2 2 2 2 2 2 2 2 2 2 2 2 2 2 2 2 2 2 2 2 2 2 2
left_child=1 5 6 10 12 7 11 20 9 13 21 58 16 24 -9 19 22 56 -11 30 55 -3 -4 -24 38 -16 48 28 -15 40 53 33 -12 -10 35 -7 -29 -38 -5 60 41 46 43 -43 -42 -35 -30 -40 49 50 51 57 -50 -13 -31 -1 -6 -27 -2 -8 61 -22
right_child=2 3 4 8 17 34 59 14 31 18 32 15 -14 27 25 -17 -18 -19 -20 -21 39 -23 23 -25 -26 26 -28 36 29 54 -32 -33 -34 45 -36 -37 37 -39 47 -41 44 42 -44 -45 -46 -47 -48 -49 52 -51 -52 -53 -54 -55 -56 -57 -58 -59 -60 -61 -62 -63
leaf_value=-0.015295699619573368 0.0056520006765940177 -0.01846911753019826 0.024121020704629487 -0.0092288529723528901 0.061716231818382566 0.027614918798208238 0.028118438074128345 -0.04796628976861636 -0.0065542796014675074 -0.010567616745119253 -0.013151596219573715 0.012785300745833981 0.057051774480690556 -0.011176156292090239 -0.037806459692572909 -0.013894533668644727 0.056569650374791204 0.077446015924215322 -0.036226419276661342 0.036097515429819711 0.010087650812541447 -0.040336852064055788 0.028121059594882859 0.050544409393458757 0.018689248098858767 -0.022708550238321745 -0.03183315827028084 0.011571103188950528 -0.0052426330255050417 0.007064369317467168 0.027750915263979034 0.0277207804717245 0.0019500651781487724 0.012919705499864129 -0.017828413810242305 -0.0071176186736140934 0.0057409987672034542 -0.024347825907170773 -0.0090615938417613496 0.017292646375986247 0.027150317976872118 -0.0011775579828191812 -0.017791932769805976 0.021594754238005567 -0.0054902652744203808 -0.010259622260595539 -0.02630936972796917 0.021817157318194707 -0.01771879927711744 -0.030902988399747151 0.01040200940798968 -0.042101987039495727 0.0078025442361831666 0.039030330181121828 0.03068821835664234 -0.036933755611672121 0.03469807752049886 -0.0071870724748199187 -0.016909589686630561 0.046372425494094691 -0.019620407853597921 -0.022138605415821067
leaf_weight=69 85 55 111 283 26 20 57 30 35 118 199 236 30 82 56 11.999999999999998 17 30 18 29 23.999999999999996 31 45 37 13.999999999999998 94 133 136 38 71 56 23 46 121 10.999999999999998 13.999999999999998 66 18 13 12.999999999999998 15.000000000000002 71 19 23 11.999999999999998 13.999999999999998 25 15 51 86 9.9999999999999982 15.999999999999998 14.999999999999998 9.9999999999999982 13.999999999999998 17 12.999999999999998 36 13.999999999999998 27 26 10.000000000000002
leaf_count=69 85 55 111 283 26 20 57 30 35 118 199 236 30 82 56 12 17 30 18 29 24 31 45 37 14 94 133 136 38 71 56 23 46 121 11 14 66 18 13 13 15 71 19 23 12 14 25 15 51 86 10 16 15 10 14 17 13 36 14 27 26 10
internal_value=0 -0.00945603 0.0261145 -0.00375687 0.0416354 -0.0217353 0.0169967 -0.0235351 -0.000903028 -0.00280799 -0.0144825 0.013768 0.0353594 -0.00114988 -0.0269396 0.0170314 0.0322605 0.0634649 -0.0139636 0.0181526 -0.0122509 -0.0263517 0.0301193 0.0382389 -0.00658664 -0.0256704 -0.0241293 0.00184495 -0.0011508 0.00170364 0.0164294 0.00947061 -0.0103162 0.00700147 0.00570087 0.0133133 0.00688325 -0.000706607 -0.00772447 -0.00362478 -0.00217023 -0.00444277 0.000663947 0.00439439 0.0126434 0.0105159 -0.0136024 0.00748059 -0.0208027 -0.0232256 -0.0189933 -0.0210066 -0.0119185 0.0138522 0.0109554 -0.019573 0.0527102 -0.0184103 0.00246147 0.0339858 -0.00815688 0.00060934
internal_weight=0 2306 835 1575 309 731 526 686 1244 1051 331 442 240 915 527 343 210 69 136 331 159 86 193 82 325 497 441 590 370 288 302 193 245 170 45 34 220 84 311 73 203 176 113 94 27 135 63 28 308 242 156 146 66 246 85 86 39 130 99 84 60 34
internal_count=3141 2306 835 1575 309 731 526 686 1244 1051 331 442 240 915 527 343 210 69 136 331 159 86 193 82 325 497 441 590 370 288 302 193 245 170 45 34 220 84 311 73 203 176 113 94 27 135 63 28 308 242 156 146 66 246 85 86 39 130 99 84 60 34
shrinkage=0.05


Tree=13
num_leaves=63
num_cat=0
split_feature=4 6 4 49 136 2 0 7 3 49 2 87 49 48 48 50 0 51 12 58 19 193 178 51 47 12 7 8 17 97 200 5 1 189 47 1 187 0 3 194 1 172 0 160 2 160 16 185 175 51 18 6 22 25 1 2 12 0 244 234 107 49
split_gain=280.005 58.2574 43.3862 23.9149 17.6736 13.0305 9.96471 9.70726 8.96868 6.64161 5.81925 5.65616 5.34675 5.28262 5.21907 4.91682 4.78459 5.61579 4.21184 4.14002 4.02998 3.69745 3.61847 3.57981 3.42363 3.69051 3.30414 3.22286 3.15669 2.97022 2.96035 3.23619 2.91759 2.91556 3.36239 2.85192 3.41715 2.85154 4.21709 2.83884 2.83477 2.87216 2.74341 2.64555 2.63263 2.62739 2.60107 2.90607 2.57427 2.54803 2.54135 2.87903 2.56365 2.44059 2.3679 2.34806 2.37394 2.34651 2.33911 2.28627 2.71213 2.22668
threshold=1.5000000000000002 1.5000000000000002 3.5000000000000004 775.00000000000011 1.0000000180025095e-35 3.5000000000000004 44.834169107200012 1.5000000000000002 1.5000000000000002 675.00000000000011 1.5000000000000002 0.65285714741745238 210.00000000000003 52.000000000000007 28.500000000000004 1.5000000000000002 44.828902471650004 1.5000000000000002 1.0000000180025095e-35 0.40360060390354741 1.0000000180025095e-35 0.31612142272895666 0.17318834338801317 3.5000000000000004 7.5000000000000009 1.0000000180025095e-35 8.5000000000000018 1.5000000000000002 1.0000000180025095e-35 0.50727558155063757 0.22307509757861724 1.5000000000000002 -0.55844413384999991 0.13803559515408706 1.0000000180025095e-35 -0.58065081419999987 0.12900609181422162 44.848573146050008 2.5000000000000004 1.0000000180025095e-35 -0.59560157814999992 0.39030435398181307 44.835873362850016 0.11542871524618316 4.5000000000000009 0.12139546891284499 1.0000000180025095e-35 0.094791656503036989 0.15983213451016379 5.5000000000000009 1.0000000180025095e-35 1.0000000180025095e-35 1.0000000180025095e-35 1.0000000180025095e-35 -0.56306758809999991 3.5000000000000004 1.0000000180025095e-35 44.858953391749999 0.17860795661901321 0.1445357781709932 0.53386856087083767 125.00000000000001
decision_type=2 2 2 2 2 2 2 2 2 2 2 2 2 2 2 2 2 2 2 2 2 2 2 2 2 2 2 2 2 2 2 2 2 2 2 2 2 2 2 2 2 2 2 2 2 2 2 2 2 2 2 2 2 2 2 2 2 2 2 2 2 2
left_child=1 5 3 8 6 7 19 11 12 14 -9 21 24 22 18 20 -4 -18 -8 23 -12 29 30 44 45 -26 -17 -20 48 42 31 54 40 34 43 -16 61 -19 -39 -11 -29 59 58 -7 -3 -2 49 -48 -10 -6 51 -44 -52 -49 -5 -14 -57 -53 -1 60 -42 -37
right_child=2 4 16 13 46 33 9 10 28 39 15 -13 55 -15 35 26 17 37 27 -21 -22 -23 -24 -25 25 -27 -28 32 -30 -31 -32 -33 -34 -35 -36 36 -38 38 -40 -41 41 -43 50 -45 -46 -47 47 53 -50 -51 52 57 -54 -55 -56 56 -58 -59 -60 -61 -62 -63
leaf_value=-0.037237572194989924 0.014623671193283214 -0.006356649278341054 0.031260494055459276 0.040592607527971274 -0.018037785752510121 0.0079514221034266714 -0.00872540379645333 -0.038812778112681023 0.013838022940412718 0.0095547832917266835 0.0075920893707209173 0.010123836025595665 -0.0044785756448453128 0.059239304890590053 -0.0044918226520167083 0.023259715549647807 0.094392749938097875 0.047475274452349038 -0.023095525801181793 -0.038263388011943213 -0.017139509824805499 0.0006693941625681791 0.012054259578386944 -0.021890821378376033 -0.030659177492965352 0.0033540728630433825 -0.01194045953452587 -0.014304133873432876 0.034738773292462742 -0.0018023322522640228 0.012970172846689821 0.05982864181462088 -0.013445788735407405 -0.018394133895635607 -0.0067617377133241717 -0.0032593590766191484 0.0012186519101801837 0.048225795876766946 0.086382047732671108 0.031244682067666542 0.0041606653153733126 -0.022299686379053378 -0.044941295044762748 0.043485223309835425 0.017496390469993153 0.0016449538493623673 -0.015244836505342 0.010591511823702604 0.032105520820866033 -0.04416266545653344 -0.030003502730508908 -0.018755558939611026 -0.055430542677640915 -0.018635317087173461 0.013939831182360649 0.0088923455438473156 0.021717904186884331 -0.03484511385430341 -0.01694233455345966 -0.0058519624772056808 0.029320366816087202 0.02205891983202574
leaf_weight=126 115 321 15.999999999999998 50 140 11.000000000000002 155 23 54 48 18 9.9999999999999982 10.999999999999998 28 32 15 10.999999999999998 41 13.999999999999998 10.999999999999998 194 10.999999999999998 14.999999999999998 37 10.999999999999998 29 12 25 70 9.9999999999999982 9.9999999999999982 19 32 9.9999999999999982 13.999999999999998 9.9999999999999982 44 14.000000000000002 14.999999999999998 22 408 10.999999999999998 13.999999999999998 9.9999999999999982 11.999999999999998 59 74 25 30 9.9999999999999982 57 141 11.999999999999998 9.9999999999999982 9.9999999999999982 45 182 27 15.999999999999998 57 10.999999999999998 66
leaf_count=126 115 321 16 50 140 11 155 23 54 48 18 10 11 28 32 15 11 41 14 11 194 11 15 37 11 29 12 25 70 10 10 19 32 10 14 10 44 14 15 22 408 11 14 10 12 59 74 25 30 10 57 141 12 10 10 45 182 27 16 57 11 66
internal_value=0 -0.00898323 0.0248088 0.0206768 -0.00356903 -0.0206486 -0.00121932 -0.0223583 0.016476 0.00155804 -0.014792 -0.0270338 0.0129255 0.039962 0.00035925 -0.0124803 0.056246 0.0611815 -0.00143398 -0.00803513 -0.0150397 -0.0279313 0.034772 -0.00713645 0.00719062 -0.00599957 0.00761519 0.000591418 0.026897 -0.028712 0.0386008 0.0418452 0.00120101 0.00541583 0.0122187 0.0087709 0.0123076 0.0559625 0.0679618 0.0163716 0.00211643 0.00295938 -0.0293967 0.0248723 -0.00549708 0.0102228 -0.0155081 -0.00963012 0.0203621 -0.0197794 -0.0262546 -0.0231568 -0.0344256 0.00224099 0.0361505 0.0180821 0.0191754 -0.0213414 -0.0349508 0.0035431 0.00482118 0.0187276
internal_weight=0 2306 835 738 1575 731 1316 686 606 935 262 424 452 132 865 239 97 81 713 381 212 414 104 370 214 40 27 558 154 403 89 79 544 45 35 152 120 70 29 70 512 487 393 21 333 174 259 109 84 150 251 182 69 35 60 238 227 168 142 476 419 76
internal_count=3141 2306 835 738 1575 731 1316 686 606 935 262 424 452 132 865 239 97 81 713 381 212 414 104 370 214 40 27 558 154 403 89 79 544 45 35 152 120 70 29 70 512 487 393 21 333 174 259 109 84 150 251 182 69 35 60 238 227 168 142 476 419 76
shrinkage=0.05


Tree=14
num_leaves=63
num_cat=0
split_feature=4 6 4 4 49 49 2 10 17 3 22 49 0 2 0 6 48 1 24 21 46 0 155 46 160 185 0 67 2 185 46 201 47 3 184 48 181 49 47 0 67 163 46 189 47 1 1 0 2 7 46 73 178 176 50 1 11 39 35 154 0 231
split_gain=252.705 52.5773 39.7918 16.1257 13.8248 13.0053 11.76 8.88919 8.42247 7.05508 6.92198 5.69361 5.63395 5.23737 4.8292 4.74616 4.50837 3.68116 3.61486 3.47785 3.43733 3.42613 3.40339 3.39357 3.22605 3.21885 3.17138 5.24991 3.12094 3.6114 3.45952 3.11831 3.08882 3.03865 2.91379 2.86693 2.76483 2.90002 2.76331 4.60953 2.69903 3.47484 3.34523 2.63763 3.24206 2.61089 2.69538 2.64314 2.60924 2.57068 2.55813 2.5025 2.50238 3.3175 2.49724 2.35593 2.34891 2.3389 2.32225 2.2873 2.28537 2.27291
threshold=1.5000000000000002 1.5000000000000002 2.5000000000000004 1.0000000180025095e-35 625.00000000000011 803.50000000000011 3.5000000000000004 1.0000000180025095e-35 1.0000000180025095e-35 2.5000000000000004 1.0000000180025095e-35 210.00000000000003 44.832490222950007 8.5000000000000018 44.835143547450009 1.0000000180025095e-35 52.000000000000007 -0.55042401414999997 1.0000000180025095e-35 1.0000000180025095e-35 5.5000000000000009 44.834473691250004 0.36677462053772575 5.5000000000000009 0.036866228958348908 0.13076505389794205 44.831771609200011 0.34425928171744341 3.5000000000000004 0.09193075086513787 29.500000000000004 0.10931188242972374 7.5000000000000009 11.500000000000002 0.16707315510498297 22.500000000000004 0.21162452219673675 125.00000000000001 1.0000000180025095e-35 44.855853075550009 0.25835572375551846 0.15570550350150911 8.5000000000000018 0.12591836381486798 1.0000000180025095e-35 -0.58290959599999992 -0.57003606139999985 44.836732693600005 5.5000000000000009 1.5000000000000002 34.500000000000007 0.72814071690802884 0.12024270822272487 0.11742046360195922 1.5000000000000002 -0.58125106779999991 1.0000000180025095e-35 1.0000000180025095e-35 1.0000000180025095e-35 0.012411240579921417 44.831350529500007 0.15005887377141891
decision_type=2 2 2 2 2 2 2 2 2 2 2 2 2 2 2 2 2 2 2 2 2 2 2 2 2 2 2 2 2 2 2 2 2 2 2 2 2 2 2 2 2 2 2 2 2 2 2 2 2 2 2 2 2 2 2 2 2 2 2 2 2 2
left_child=1 6 4 12 11 9 7 19 10 52 14 17 23 16 22 -9 31 21 -12 -1 26 32 49 -3 -13 -23 27 -17 29 40 -31 -7 -2 -11 55 59 37 51 -30 57 -16 42 -42 44 -8 -6 47 -47 -26 61 -22 -28 -4 -54 -21 -10 -51 -40 -27 -14 -57 -5
right_child=2 3 5 8 45 13 43 15 34 33 18 24 35 -15 28 20 -18 -19 -20 54 50 25 -24 -25 48 58 36 -29 38 30 -32 -33 -34 -35 -36 -37 -38 -39 39 -41 41 -43 -44 -45 -46 46 -48 -49 -50 56 -52 -53 53 -55 -56 60 -58 -59 -60 -61 -62 -63
leaf_value=-0.017691376852954546 0.0058206416756057975 -0.016752191517840732 0.025083340488066125 -0.0069043369539305748 0.014789060089323257 0.052163403677312953 0.024948256202042104 -0.043679896940787638 -0.0014059612105484121 0.061412452103999954 -0.0098851816040578192 0.025135733080462793 -0.01387214492053979 0.082247061654925346 -0.0082228103807123944 -0.03333473711237802 0.066268297404050824 -0.023172977194190026 -0.033940312256001769 -0.0071567101093630006 -0.035061830018871816 0.0075727223487551875 0.018242050015500614 -0.037438621732496451 0.0098674588031687979 0.0439091639762575 -0.022670284788408143 0.0036227547648278154 0.010836450587136344 0.00061078637280492212 0.018662829987200289 0.022204412240535022 -0.016528933049200781 0.03099484252743423 -0.0097718570773538804 0.0019158763628776953 0.0081602569622918966 -0.0077743684949011229 0.01778200296280177 -0.02581878805639766 0.017427272312833291 -0.015649668929194484 -0.015074844323098661 -0.016137038645419207 -0.0064236503759665152 0.018059562668204309 0.022825680433639459 0.046172721344320211 0.027365133366905728 -0.008063289055672402 -0.022063288661137003 0.0030022650584578519 0.058470016505037026 0.021776843375780369 0.017015389181100404 -0.0055679882024248532 0.02097459184626738 -0.001745971067018969 0.017052025767237258 0.0028941654073803324 0.015709639141550723 -0.021911740908399226
leaf_weight=86 52 55 133 255 18 19 20 30 32 26 118 89 176 15.999999999999998 168 76 25 9.9999999999999982 18 60 87 98 13.999999999999998 31 118 10.999999999999998 187 10.999999999999998 136 101 36 15.999999999999998 22 11.999999999999998 19 46 9.9999999999999982 49 23 14.999999999999998 38 17 9.9999999999999982 10.999999999999998 13.999999999999998 9.9999999999999982 28 51 26 13 67 9.9999999999999982 14.000000000000002 10.999999999999998 12.999999999999998 13.999999999999998 15 46 30 23 128 28
leaf_count=86 52 55 133 255 18 19 20 30 32 26 118 89 176 16 168 76 25 10 18 60 87 98 14 31 118 11 187 11 136 101 36 16 22 12 19 46 10 49 23 15 38 17 10 11 14 10 28 51 26 13 67 10 14 11 13 14 15 46 30 23 128 28
internal_value=0 -0.00853407 0.0235683 -0.00339058 0.0159816 0.0392717 -0.0196161 -0.0212404 -0.000780861 0.0324636 -0.00254388 0.0121862 -0.0131987 0.0568294 -0.000979498 -0.0243667 0.0500514 0.00647532 -0.0130689 -0.0108784 -0.0232009 0.00786725 -0.00587369 -0.0242089 0.0176521 0.0124942 -0.0204147 -0.028662 0.00171646 -0.00108767 0.00535439 0.0384679 -0.000823826 0.0518069 0.00881982 -0.00933388 -0.017612 -0.0186596 0.00643249 -0.000697743 -0.00487549 0.00377605 0.010656 0.00514504 0.0120304 0.0321563 0.0356688 0.041564 0.0130268 -0.00695929 -0.0294066 -0.0213671 0.0278115 0.042325 -0.00285209 0.0108499 0.00749272 0.00476335 0.0242576 -0.0119343 0.0136118 -0.00838917
internal_weight=0 2306 835 1575 563 272 731 686 1244 196 1051 456 331 76 915 527 60 223 136 159 497 213 325 86 233 139 343 87 590 370 137 35 74 38 193 245 256 246 220 84 233 65 48 45 34 107 89 61 144 311 154 197 158 25 73 174 28 69 41 199 142 283
internal_count=3141 2306 835 1575 563 272 731 686 1244 196 1051 456 331 76 915 527 60 223 136 159 497 213 325 86 233 139 343 87 590 370 137 35 74 38 193 245 256 246 220 84 233 65 48 45 34 107 89 61 144 311 154 197 158 25 73 174 28 69 41 199 142 283
shrinkage=0.05


Tree=15
num_leaves=63
num_cat=0
split_feature=4 6 4 136 49 49 7 51 49 2 3 49 84 202 218 2 25 194 0 48 154 2 13 10 1 17 1 221 0 143 178 46 55 51 48 0 203 38 49 185 201 3 8 2 15 2 17 16 60 49 73 1 1 0 189 46 1 161 48 45 213 21
split_gain=228.066 47.451 35.9121 14.7824 12.4769 11.7373 10.7234 9.25661 8.3748 7.67326 6.36721 5.13848 4.99604 4.98632 4.96029 4.72672 4.60882 4.71213 4.33176 4.06881 3.63134 3.61124 3.51911 3.51335 3.32225 3.19373 3.11484 3.37052 4.6114 3.26756 3.10551 3.10172 3.29223 3.38057 3.27603 3.09208 3.06714 3.04625 2.91773 2.90501 2.81428 2.74238 2.71723 2.57088 2.66237 2.43479 3.43363 2.39133 2.38697 2.35902 2.37805 2.35633 2.43258 2.38543 2.30241 2.19065 2.1836 2.18296 3.29467 2.15864 2.14619 2.14078
threshold=1.5000000000000002 1.5000000000000002 2.5000000000000004 1.0000000180025095e-35 625.00000000000011 803.50000000000011 1.0000000180025095e-35 7.5000000000000009 325.00000000000006 3.5000000000000004 2.5000000000000004 210.00000000000003 0.31059441636671387 0.11427906773724497 0.13383890285959468 8.5000000000000018 1.0000000180025095e-35 0.38793646885449778 44.831771609200011 52.000000000000007 1.0000000180025095e-35 4.5000000000000009 1.0000000180025095e-35 1.0000000180025095e-35 -0.55042401414999997 1.0000000180025095e-35 -0.55844413384999991 0.07262203364021462 44.855135564150004 0.42806807808589592 0.078065351546581882 13.500000000000002 0.40269982305655411 2.5000000000000004 9.5000000000000018 44.834473691250004 0.2116486897618193 1.0000000180025095e-35 92.500000000000014 0.13076505389794205 0.10931188242972374 11.500000000000002 1.5000000000000002 5.5000000000000009 1.0000000180025095e-35 7.5000000000000009 1.0000000180025095e-35 1.0000000180025095e-35 0.38689214569980385 125.00000000000001 0.35431155947728504 -0.58290959599999992 -0.57003606139999985 44.836732693600005 0.17624816988746936 8.5000000000000018 -0.56504391224999995 0.12707592949765587 35.500000000000007 4.5000000000000009 0.11849616211277704 1.0000000180025095e-35
decision_type=2 2 2 2 2 2 2 2 2 2 2 2 2 2 2 2 2 2 2 2 2 2 2 2 2 2 2 2 2 2 2 2 2 2 2 2 2 2 2 2 2 2 2 2 2 2 2 2 2 2 2 2 2 2 2 2 2 2 2 2 2 2
left_child=1 6 4 7 11 10 14 8 16 12 45 24 23 -11 18 19 17 26 -1 40 48 22 38 47 35 -24 27 28 -3 -29 -16 32 33 42 56 -2 43 61 -18 -37 -7 -12 -20 44 -13 -4 -47 -8 57 -44 -51 -6 53 -53 -5 -56 -33 58 -10 -27 -41 -25
right_child=2 3 5 54 51 15 9 -9 20 13 41 36 -14 -15 30 -17 21 -19 31 -21 -22 -23 25 37 -26 59 -28 29 -30 -31 -32 34 -34 -35 -36 39 -38 -39 -40 60 -42 -43 49 -45 -46 46 -48 -49 -50 50 -52 52 -54 -55 55 -57 -58 -59 -60 -61 -62 -63
leaf_value=-0.035435420885489032 -0.00078263526681709951 0.0019398600834355962 0.023109922708746622 -0.016474335553959045 0.014049607556727198 0.049555233865976336 0.0029435839060516587 -0.046746941723606807 0.0044936192589655269 0.040920423733239814 0.058341830137830522 0.0089980585072600445 -0.025805124621365395 -0.0066874552010135219 -0.015744853878150816 0.078134709876030689 -0.040504014957696191 0.028836110893350381 -0.03540813627963265 0.062954882711172097 0.016270041017924088 0.020847078189253809 -0.0098543741985628926 -0.016086715011996159 -0.022014328073710204 0.02102721755004798 -0.015073984924238178 -0.004582828173225975 0.027132128658704457 0.020956585212395743 0.016556106592443855 -0.029354441989435938 -0.043250895185129985 -0.04408878764758508 -0.0070852691307663924 0.0071940861117526572 0.031413268937819427 -0.025380942874598196 -0.0086136283048500236 0.039833497141416263 0.021094191854353996 0.029445100672698274 -0.017930281152047457 0.0244895731688154 0.029985340246382882 0.021941740603035536 0.053276067227125169 -0.016539145775494122 -0.013941802743724302 -0.012648612566824473 0.013228835910558701 0.017156584784388543 0.021684396373374121 0.04386408436751249 0.0072780738161368807 -0.01364528758306827 -0.048812751188164666 -0.002948456301312082 0.022483142754384157 -0.0068097122228489475 0.015249929805785151 0.00052808290629675892
